1774 100
!jv_ing 0.274390 0.122490 0.179260 -0.233930 -0.170930 0.120740 -0.029434 -0.283800 -0.284850 0.052943 -0.163410 0.022108 0.272220 0.112370 0.109310 -0.194740 0.254670 -0.216430 0.057907 -0.252220 0.094065 -0.198480 0.237680 0.155520 0.239230 0.110340 0.027627 -0.102720 0.328480 0.037259 0.292290 0.198400 0.156700 -0.069422 0.215300 0.077423 -0.058446 0.272390 -0.071298 -0.297230 0.028681 0.033490 -0.023285 0.041237 -0.118700 0.160330 0.184050 -0.372340 -0.060587 0.032864 -0.197850 -0.514100 0.203730 -0.019490 -0.089861 0.245230 0.337700 0.071822 -0.173470 0.197730 0.311020 0.060914 -0.141920 0.191120 -0.147280 0.090238 0.148920 0.233970 -0.229460 0.017503 -0.048268 0.270380 0.280800 0.279080 -0.089476 -0.138820 -0.364520 0.341590 0.023056 0.053297 -0.026320 -0.066703 -0.163850 0.124430 0.105790 -0.148800 0.295960 0.111070 -0.027611 0.239370 0.050758 -0.105860 0.300200 0.071294 -0.166960 -0.124370 -0.245230 -0.042740 -0.190130 0.229000
!jv_lan -0.025314 0.206380 0.229570 -0.212510 -0.116550 0.229640 -0.150510 -0.174420 -0.283680 -0.021268 -0.087549 -0.008727 0.172550 -0.066223 0.155660 -0.097526 0.075835 -0.150730 -0.236600 -0.283230 0.065706 -0.186380 0.142380 0.120150 0.163640 -0.040894 -0.207270 -0.266180 0.166090 -0.256630 0.074949 0.005660 0.205270 -0.081085 0.121750 0.017788 -0.065358 0.072942 -0.084249 -0.201540 0.017379 0.029273 0.142810 0.352350 -0.039982 0.244390 0.295320 -0.142450 -0.270760 -0.179390 -0.225890 -0.331630 0.026438 0.170050 -0.099748 0.204620 0.181250 0.086840 -0.182060 -0.008356 0.036608 -0.162190 -0.022703 0.218990 -0.167480 0.120360 0.134750 0.227080 0.000802 -0.208240 -0.035756 -0.131400 0.354020 0.260760 -0.083775 0.010612 -0.238630 0.084670 0.062883 -0.026460 -0.081537 0.016581 0.017206 -0.074170 -0.030835 -0.160800 0.031529 0.185000 -0.014708 0.030744 -0.035745 -0.117540 -0.078084 -0.022831 -0.030437 -0.030312 -0.347490 -0.165260 0.057447 0.106550
!jv_iku 0.225070 -0.037588 -0.201740 -0.081159 0.048015 0.416700 -0.064948 -0.183340 0.126450 0.121290 0.122130 0.120650 -0.040618 0.083088 0.389650 -0.093631 -0.083726 0.308320 -0.143470 -0.342840 0.231520 -0.362200 -0.310990 0.160620 0.122240 0.027330 -0.024285 -0.038551 0.404760 -0.199120 0.220720 -0.021689 0.322890 -0.000559 0.053614 0.332730 -0.076062 0.213090 0.010226 0.144620 0.184020 0.096769 0.080104 0.089785 0.427620 0.102330 0.500680 -0.037234 -0.062119 0.134060 -0.203430 0.018768 0.095348 -0.013797 -0.095138 -0.052043 0.181490 0.432280 -0.417630 0.298520 0.265530 -0.403150 -0.131030 0.328690 -0.336480 -0.026908 0.136870 0.110300 0.029354 0.128580 0.123270 -0.053570 0.595270 -0.035785 -0.003416 -0.117670 -0.087739 0.053657 0.203000 0.042411 -0.053313 -0.078019 0.064365 0.165280 0.047850 0.146430 0.152480 0.012027 0.184360 0.350030 -0.175080 -0.242660 0.392260 -0.209540 -0.376690 -0.016470 -0.542170 -0.442270 0.123540 0.141370
!jv_kang 0.064026 0.037667 -0.052602 -0.268250 -0.171620 0.474380 -0.098993 -0.301030 -0.020819 0.244430 -0.045621 0.252940 -0.117940 0.030179 0.310990 -0.336160 -0.189550 -0.154700 0.101290 -0.259690 0.101360 -0.176550 -0.028374 0.017339 0.189960 0.174710 -0.233760 -0.321130 0.201990 -0.141490 0.389240 0.017170 0.673510 0.033260 -0.134410 0.019129 -0.244560 0.150000 0.063273 0.122570 0.189220 -0.033620 0.293470 0.170620 -0.069005 0.013306 0.455020 -0.166960 -0.266950 -0.066059 0.006188 0.061767 -0.047557 0.022672 -0.085482 0.142050 0.021923 0.108590 -0.347700 -0.083449 -0.012591 -0.211840 -0.149910 0.501910 -0.256660 0.150010 0.176450 0.006182 -0.041986 -0.006036 -0.103570 0.073838 0.329240 0.038566 -0.025605 0.111820 -0.001014 0.288300 0.172960 0.115980 0.107640 0.105010 -0.161120 -0.138220 -0.075287 -0.135780 -0.058714 -0.077381 0.092113 -0.023668 0.080074 -0.130210 -0.040790 -0.346770 -0.291360 0.022016 -0.535830 -0.509720 0.231920 0.346270
!jv_ingkang 0.265020 -0.038504 -0.088646 -0.243860 -0.354390 0.584940 -0.561790 -0.306180 -0.389760 0.315930 0.052702 0.188200 0.337010 -0.111700 0.131430 -0.355410 0.175350 -0.299600 -0.269120 -0.258220 0.166210 0.118310 0.800110 0.338130 0.254140 -0.272880 -0.434740 0.054313 0.060462 0.132480 -0.105690 -0.078503 0.156660 0.029514 -0.295440 -0.106990 0.146610 0.040745 0.160450 -0.217340 -0.330420 -0.167790 -0.044551 0.179940 -0.062846 0.146140 0.024254 -0.015164 -0.446850 -0.299810 0.286730 -0.102940 -0.247920 0.007160 0.181930 0.330440 0.276580 0.212210 -0.070243 -0.158010 0.386900 -0.063612 -0.236570 0.430160 0.115600 -0.066494 0.292020 -0.053193 0.037981 0.034491 0.222210 0.048450 0.190210 0.323970 -0.077582 -0.165570 -0.543430 0.208840 -0.014360 -0.545520 -0.062371 0.475900 -0.257330 0.091032 0.249260 -0.363360 -0.043811 0.044012 -0.113280 0.378240 -0.016555 -0.068810 -0.129170 0.410290 -0.142900 -0.162990 -0.198430 -0.004434 0.172550 -0.154160
!jv_sing 0.228630 0.090045 0.066506 -0.037147 -0.112840 0.391360 0.036620 -0.155850 0.144330 0.125940 0.078574 0.065789 -0.131670 0.065647 0.365300 -0.118090 -0.260770 -0.077829 -0.218380 -0.369810 0.151090 -0.221100 -0.110230 0.274590 -0.075108 0.058808 0.062310 -0.151820 0.237160 -0.303100 0.290040 0.107550 0.159690 -0.033008 -0.456330 0.120120 -0.249940 0.241210 -0.140910 0.189970 0.341290 0.058132 0.276360 0.229620 0.325040 0.122680 0.595870 0.088062 -0.051087 -0.113850 -0.161160 0.014397 0.034972 -0.060300 -0.298720 -0.101620 -0.012383 0.096894 -0.566370 0.029873 -0.004378 -0.348480 0.043592 0.246490 -0.097898 0.063506 0.266530 0.099489 -0.051457 -0.141030 0.124310 0.027311 0.438540 -0.007381 0.115160 0.045071 -0.113330 0.187420 0.129510 0.178960 -0.118190 -0.098742 -0.219010 -0.018096 -0.057059 -0.261170 -0.053014 0.034452 0.058227 0.024516 -0.132000 -0.073543 0.360140 -0.029266 -0.383590 0.061936 -0.367790 -0.355110 0.288550 0.282550
!jv_saka -0.034887 0.087997 0.134670 -0.371580 0.038330 0.264410 -0.036633 -0.243650 0.302940 -0.050204 -0.104210 0.135340 -0.085093 0.233400 0.314410 -0.211440 -0.048197 0.028060 0.045962 -0.282510 0.192220 -0.281670 -0.019983 0.136010 0.056347 -0.090419 -0.031093 -0.052224 0.213840 -0.171950 -0.049951 -0.067817 0.412970 -0.121240 -0.304560 0.100790 -0.199230 0.150740 0.215580 0.279650 0.233070 -0.096641 0.347960 0.372020 0.459300 0.247950 0.672810 -0.119080 -0.189500 -0.011855 -0.216710 0.226680 -0.060685 0.044101 -0.126670 0.141200 0.015578 0.298270 -0.533960 0.343980 0.086109 -0.396560 0.254370 0.320800 -0.144990 0.262380 0.412090 0.062773 -0.131230 -0.020315 -0.011232 -0.160880 0.245930 0.030144 -0.043141 0.223300 0.094757 0.052160 0.186230 0.310330 -0.154300 -0.057444 -0.089898 0.095836 0.156300 0.087063 -0.098503 0.023506 0.246770 0.160520 -0.064605 -0.245270 0.118670 -0.076509 -0.401450 -0.069929 -0.380160 -0.485210 0.313810 0.284590
!jv_punika 0.301800 -0.032109 -0.181610 -0.297680 -0.242580 0.477350 -0.654150 -0.259770 -0.280830 0.308240 0.039258 0.149750 0.266750 -0.086545 0.094217 -0.335830 0.189080 -0.205940 -0.188290 -0.074437 0.293960 -0.076514 0.848910 0.217870 0.200660 -0.389860 -0.422950 0.260380 -0.050526 0.206190 -0.150480 -0.032214 0.159300 0.005425 -0.269850 -0.019725 0.162870 0.087537 0.146800 -0.214420 -0.357640 -0.173430 -0.004634 0.089281 -0.115940 0.244400 0.022095 0.053525 -0.419350 -0.274300 0.194960 0.000785 -0.263250 0.066682 0.056370 0.405280 0.315630 0.181760 -0.166850 0.000472 0.428660 -0.148900 -0.104600 0.419300 0.155910 -0.088660 0.182430 0.039033 0.131580 0.073266 0.233050 -0.104660 0.184150 0.281420 -0.153750 -0.108350 -0.349490 0.195570 -0.094079 -0.503750 -0.071272 0.581730 -0.187330 0.273480 0.186080 -0.191890 -0.107890 -0.004160 -0.094823 0.509300 -0.198060 -0.096419 0.027764 0.469450 -0.162120 -0.182230 -0.184080 -0.133840 0.140430 -0.331310
!jv_taun 0.070459 0.012905 0.127150 -0.596950 0.033381 -0.215690 -0.238920 -0.440840 -0.347150 -0.150390 0.221430 0.094247 0.289350 0.167630 0.129900 -0.064995 0.179400 -0.248570 0.054476 -0.383800 0.016332 -0.255300 0.133830 0.266560 0.086728 -0.064805 -0.346340 -0.023113 -0.022506 0.507120 0.056866 -0.177770 -0.045151 0.201700 0.069095 0.128920 0.279720 -0.004223 -0.183370 -0.055990 0.132220 -0.224940 0.144310 0.023280 0.056906 0.030231 0.516930 -0.358510 -0.015893 0.013678 -0.316820 -0.185890 -0.222830 -0.216490 -0.132090 0.128930 -0.033140 -0.271300 0.058052 0.098455 -0.100630 0.391060 -0.046835 0.245550 0.117430 0.053270 0.244710 0.121170 -0.312960 -0.302210 -0.205250 -0.063783 0.269750 0.218300 -0.204720 0.011918 -0.003435 0.385530 0.330190 0.108750 -0.460670 0.082770 0.142860 0.219390 0.381860 -0.049558 -0.253440 0.470010 0.071807 0.133250 0.500750 0.184370 0.314190 -0.010037 0.023359 -0.263680 0.021672 -0.279580 -0.167650 0.002452
!jv_the 0.207180 0.258840 0.427470 0.028782 -0.267860 0.740460 -0.361990 0.100890 -0.181430 0.155950 0.513990 0.246650 0.119420 -0.633520 -0.100170 -0.225440 0.462060 -0.014168 0.354180 -0.381120 -0.327550 -0.229900 0.048938 0.053468 0.825660 -0.421310 0.161380 0.077980 0.181460 0.342740 -0.333800 -0.226440 -0.228830 -0.337320 -0.305780 0.333030 0.562530 -0.665830 -0.152810 0.088658 -0.001602 0.228080 0.311420 -0.309910 -0.207570 -0.137130 0.559230 -0.082161 0.168710 0.213360 0.048507 0.179690 -0.039924 0.384910 -0.431610 0.023770 0.067227 -0.209950 -0.322090 0.369160 0.149200 -0.187020 0.399620 -0.316910 0.141560 0.290030 -0.293630 0.010642 -0.010713 -0.242760 0.110250 0.050140 0.132120 -0.193180 0.065241 -0.077196 -0.108340 0.259850 -0.166190 0.148050 -0.593770 -0.525500 -0.026626 0.447190 -0.061961 -0.302640 0.147620 0.131880 0.733410 0.270220 -0.012077 -0.041999 -0.083313 -0.341320 -0.399360 0.472560 -0.145810 0.168410 0.099399 -0.029090
!jv_iki 0.304220 -0.213030 -0.106340 -0.350610 -0.036530 0.387490 -0.032452 -0.182770 0.098907 0.273090 0.101950 0.170580 -0.023940 -0.020954 0.370250 -0.157240 -0.350770 -0.194770 -0.013980 -0.413840 0.234390 -0.247210 -0.332130 0.278210 -0.075017 0.131120 -0.128300 -0.120620 0.385640 -0.111570 0.163210 0.261500 0.242000 -0.024343 -0.269650 0.155510 -0.333340 -0.002755 -0.006653 0.267760 0.195910 0.012841 0.495780 0.176210 0.275230 0.302770 0.557500 0.141890 0.205750 -0.158830 -0.263350 0.358360 -0.027628 -0.023408 -0.178610 0.066099 0.219970 0.085340 -0.706180 0.020058 0.042601 -0.205440 -0.006567 0.397950 -0.145200 0.033420 0.069221 0.090967 -0.228820 0.000743 0.000032 0.002897 0.437110 0.041955 0.075770 -0.122080 0.016653 0.216090 0.166680 0.240100 0.100280 -0.040303 -0.160530 -0.001822 -0.025677 -0.047836 -0.041261 -0.081218 0.106180 0.130900 0.122620 -0.334800 0.534720 -0.189470 -0.355660 0.175750 -0.189340 -0.489190 0.015461 0.245720
!jv_- -0.047548 -0.060135 0.252090 -0.055969 -0.155850 0.193940 -0.211280 0.055536 0.106560 -0.208400 0.265990 -0.029926 0.013368 -0.311210 0.298190 -0.641900 0.150270 -0.074734 -0.279770 -0.220120 -0.082700 0.029134 0.207220 -0.203710 0.168180 -0.434190 -0.192190 -0.342410 0.338930 0.340430 -0.186630 -0.199700 -0.438070 -0.111090 0.281140 0.181830 0.186530 0.147400 0.120660 0.001385 -0.215160 -0.206150 -0.194170 -0.292330 0.037764 0.223200 0.061572 -0.230810 0.132660 -0.135460 -0.399290 -0.339900 0.002312 0.443420 -0.595620 -0.458450 0.237550 -0.193950 -0.178800 -0.064954 0.340500 0.222010 0.250500 0.154170 0.184950 -0.141200 -0.006748 0.328530 0.084553 -0.108230 0.065335 -0.102500 0.171570 -0.062035 -0.399280 -0.083395 0.144930 0.208840 0.023764 0.108820 -0.390390 -0.009433 -0.031864 0.674840 0.274980 -0.090319 -0.226400 0.142770 0.190980 0.178940 0.189940 -0.041700 0.087497 0.035921 -0.128320 -0.060841 -0.035228 -0.335630 0.173050 -0.103010
!jv_ya 0.057631 -0.023404 -0.091147 -0.237400 -0.029069 0.388400 -0.244020 -0.090982 0.128380 0.126080 0.000712 0.076064 -0.062199 -0.001786 0.321360 -0.140980 -0.178990 0.171460 -0.085129 -0.324190 0.235250 -0.226980 -0.282790 0.031558 0.089908 0.112670 -0.179810 -0.060839 0.356340 -0.106830 0.220830 0.034093 0.442900 0.086239 0.030192 0.194970 -0.086133 0.032252 -0.013042 0.325010 0.273410 0.136320 0.195020 0.166100 0.148100 -0.051502 0.518680 -0.017626 -0.271720 0.121550 -0.144260 0.077637 0.020007 -0.076903 -0.184370 0.169490 -0.009005 0.187720 -0.298660 0.076097 0.193860 -0.467160 0.032330 0.231670 -0.476110 0.133460 0.245150 -0.011864 -0.043861 -0.127100 -0.069449 -0.011315 0.483650 -0.089216 -0.154080 0.138730 -0.037177 0.050215 0.061520 0.060149 -0.084485 0.186770 0.037620 0.136340 0.176700 0.047169 -0.150240 0.023693 0.127380 0.286850 -0.258870 -0.082302 0.249260 -0.125820 -0.387350 -0.128100 -0.622200 -0.561240 0.154110 0.254880
!jv_wonten 0.548530 0.071139 -0.097408 -0.216600 -0.172900 0.218720 -0.565060 -0.338560 -0.392450 0.044078 0.160860 -0.081288 0.470100 -0.138780 0.225160 -0.179230 0.314480 -0.452980 -0.315180 -0.060506 0.202850 0.083178 0.900850 0.269520 0.256790 -0.267230 -0.432180 0.173600 0.142980 0.248310 -0.144070 0.185310 0.078851 -0.222090 -0.090816 -0.036809 0.035169 0.273550 0.247880 -0.375430 -0.261950 -0.131020 -0.061354 0.090973 -0.242230 0.017684 0.085503 0.027332 -0.088858 -0.223990 0.148000 -0.180400 -0.077407 -0.124600 0.081684 0.413730 0.522190 0.361870 -0.070766 0.161110 0.542150 0.060116 -0.148500 0.383720 0.109410 -0.167320 0.204280 0.242150 -0.142700 0.026069 0.064545 0.031485 0.129510 0.415130 -0.293960 -0.172270 -0.549060 0.057880 -0.158580 -0.437580 -0.199660 0.179130 -0.216910 0.360050 0.150020 -0.352650 0.078197 0.005829 0.134920 0.431970 -0.010870 -0.208660 0.238750 0.321490 -0.108320 -0.403620 -0.195290 -0.013522 0.101180 -0.164820
!jv_jawa 0.316100 -0.015829 0.439460 -0.196880 -0.039146 0.566790 -0.013262 -0.193160 -0.258020 0.192810 0.342880 -0.128510 -0.156380 0.294990 0.179060 0.150790 -0.072126 0.749760 0.357450 -0.491440 0.003902 -0.117670 0.002873 0.120920 0.239120 -0.203650 -0.013110 0.689190 0.683970 0.026930 0.583560 0.186490 0.075503 0.170770 0.304770 0.510340 -0.312970 0.390900 0.066532 0.090292 0.221880 0.220960 0.001371 -0.306370 0.427790 0.005385 0.022749 0.191110 0.174460 -0.163600 -0.478810 -0.032044 0.020827 -0.007778 0.070667 0.146100 0.090883 -0.051573 -0.161080 0.079098 0.129590 0.027842 -0.451420 0.625490 -0.209280 -0.087668 0.003900 0.356450 0.087667 0.427250 0.400530 0.001429 0.459050 0.263520 -0.218990 -0.387800 -0.623950 -0.043505 0.204170 0.009503 -0.198590 -0.081012 -0.208920 -0.140080 0.697920 -0.364970 0.323240 0.224790 -0.106420 -0.177480 -0.119250 -0.470080 0.332540 -0.094717 -0.666580 0.293350 0.062843 -0.253530 -0.081502 0.347250
!jv_ana 0.415750 -0.111410 -0.054437 -0.170170 0.035426 0.278900 -0.021846 -0.426410 0.133510 0.161090 -0.084275 0.001972 -0.004544 0.175080 0.626220 -0.021203 -0.130720 -0.125860 0.004841 -0.157150 0.336270 -0.402440 0.000034 0.021388 -0.100620 0.141920 0.257720 -0.247320 0.341260 -0.070824 0.332920 0.127710 0.402740 -0.075739 -0.076839 0.284110 -0.456110 0.058210 -0.028681 -0.035034 0.415660 0.171460 0.257470 -0.000468 0.008685 0.052739 0.390730 -0.080906 -0.035573 0.105720 -0.146850 -0.015959 0.147210 -0.048712 -0.327040 0.073226 0.095735 0.275630 -0.526380 0.127450 0.222850 -0.057945 0.103610 0.423590 -0.114680 0.136330 0.169390 0.188850 -0.099182 0.040693 0.104740 0.084385 0.396720 -0.102920 0.024777 0.053804 -0.110260 -0.005635 -0.049831 0.101140 -0.136000 -0.315690 -0.012947 0.176250 -0.006235 -0.189080 0.070219 -0.184310 0.222340 0.015903 -0.038220 -0.296170 0.538920 -0.231230 -0.445850 -0.113520 -0.424720 -0.337990 0.010965 0.025288
!jv_kanthi 0.302640 0.207160 0.063472 -0.335240 -0.214740 0.190750 -0.212870 -0.126510 -0.160910 -0.284210 -0.075050 0.202670 0.289880 -0.114610 0.170200 -0.530290 0.215380 -0.236040 0.052947 -0.295630 -0.120490 -0.188320 0.223800 -0.059126 -0.046436 0.229850 -0.389550 -0.080743 0.016119 0.173860 -0.093095 0.063452 0.032452 0.244620 -0.070382 -0.327860 0.098926 -0.210170 0.188370 -0.142310 0.079115 -0.244790 0.096633 0.459000 -0.057226 0.260460 0.451130 -0.208460 -0.365030 -0.235910 -0.161210 -0.084362 -0.225240 0.056553 -0.043520 0.024135 0.013318 -0.170050 -0.298300 -0.394820 0.115790 0.059887 -0.176060 0.423000 -0.425050 0.068285 0.301420 0.013794 0.109470 0.127140 -0.063019 -0.027183 0.424070 0.311150 -0.117090 0.083244 -0.112930 0.310340 -0.117070 0.064615 0.091515 0.158200 -0.103060 -0.058434 0.275850 -0.149700 0.126870 0.159740 -0.094857 0.122870 -0.063327 0.095459 0.235570 0.068227 0.194970 0.001618 -0.460580 0.132270 -0.034760 0.197440
!jv_dadi 0.121600 0.167260 -0.271110 -0.224730 0.218000 0.075096 -0.045946 -0.301370 -0.173340 0.324070 -0.057379 0.154450 -0.241490 0.181000 0.411990 -0.166590 -0.290600 -0.021826 0.063781 -0.361750 0.338580 -0.222800 -0.211300 0.079056 0.344100 -0.102710 0.051550 -0.209650 0.261490 0.173370 -0.028794 -0.033216 0.498550 -0.092565 -0.305240 0.242450 -0.092915 0.110800 -0.215540 0.169150 0.506050 -0.038950 0.286560 0.202100 0.254700 0.106740 0.448810 0.021090 -0.167060 -0.075683 -0.172880 0.375300 0.207220 0.017229 0.013198 0.061652 0.004171 0.307470 -0.435640 0.378920 -0.152260 -0.455210 0.115840 0.300270 -0.242170 -0.100520 -0.065247 0.303440 0.055391 -0.212270 0.185030 -0.319580 0.436090 -0.148290 -0.098337 -0.123630 0.136850 0.030685 0.032197 0.064774 -0.105290 -0.054332 0.051555 -0.075453 -0.196660 -0.255850 -0.254150 0.368890 -0.125100 0.105610 0.181680 0.021980 0.395960 -0.293100 -0.600930 -0.145770 -0.283970 -0.546230 0.118260 0.145230
!jv_kanggo -0.207460 0.211940 -0.289900 0.122410 -0.106930 0.369950 -0.304180 -0.143360 -0.331480 0.231080 -0.061359 0.231790 -0.204170 -0.215390 0.186410 -0.134860 -0.166920 -0.223330 0.077568 -0.368790 0.197250 -0.274610 -0.199210 0.151000 -0.116990 0.166120 -0.139650 -0.216820 0.149030 -0.277080 0.130240 0.145710 0.542770 -0.057517 -0.166470 -0.206150 -0.465150 0.154150 -0.024708 0.205850 0.401520 -0.065823 0.362030 0.252460 0.245390 -0.052565 0.226250 0.208420 0.276560 -0.014613 -0.229330 0.138530 -0.280020 0.189330 -0.183590 0.018366 -0.042345 0.121420 -0.623090 0.234100 0.059506 -0.047855 0.144880 0.461630 -0.177570 0.081219 0.172330 0.207960 -0.152420 -0.296990 0.059406 0.001539 0.212400 0.027407 -0.258430 -0.100610 -0.080603 0.455700 0.277290 0.105440 -0.026604 -0.001357 -0.375490 -0.129690 -0.276280 -0.024905 0.099355 0.016615 0.049659 -0.136720 -0.111580 0.212330 0.213140 -0.314970 -0.590410 -0.067777 -0.347950 -0.455690 0.387690 0.346240
!jv_utawa 0.003168 0.211110 0.038799 0.018825 -0.291600 0.441600 -0.178310 -0.000109 0.123760 0.163200 0.051455 -0.002884 -0.066027 0.056001 0.197050 -0.151230 -0.193550 -0.041702 0.047427 -0.259200 -0.004100 -0.134290 -0.244010 0.106950 -0.075539 0.034558 -0.060311 0.064528 0.226460 -0.116520 0.273660 0.114570 0.343240 -0.043961 -0.362650 0.252640 -0.179740 0.154150 0.066472 0.053619 0.217680 -0.122010 0.259610 0.251000 0.247150 0.001881 0.249690 0.110440 -0.091380 0.031708 -0.183450 0.090819 -0.090412 0.023027 -0.047395 -0.040794 0.080979 0.184750 -0.528480 -0.029016 0.166820 -0.232910 0.094271 0.517200 -0.492170 0.030047 -0.074262 0.035222 0.003933 -0.084554 -0.003284 -0.008518 0.309650 0.021244 0.009453 -0.005411 -0.068393 0.106400 0.156090 0.324960 -0.115730 0.191560 -0.091568 0.121100 -0.037136 -0.156220 0.314890 -0.011549 0.034318 0.012121 0.031813 -0.172830 0.284520 0.072609 -0.432130 -0.083637 -0.642220 -0.438810 0.386190 0.296680
!jv_saking 0.071531 -0.048368 0.103850 -0.464700 -0.215780 0.348230 -0.494130 -0.335820 -0.259220 -0.099710 -0.122460 0.222570 0.302550 0.029036 0.154260 -0.269970 0.234910 -0.182910 -0.086394 -0.024860 0.100960 0.030895 0.886570 0.193110 0.319500 -0.362770 -0.311880 0.188780 -0.034523 -0.038404 -0.328390 0.014429 0.202860 -0.131550 -0.234200 -0.151560 0.012802 0.183650 0.190470 -0.175440 -0.267360 -0.342850 0.067764 0.117790 0.120220 0.174520 0.341780 0.027263 -0.369470 -0.297840 0.086903 -0.183650 -0.216000 0.031166 0.142410 0.593260 0.288960 0.265090 -0.139740 0.169000 0.374070 -0.090443 0.028212 0.313860 0.085571 0.079536 0.322720 -0.004231 0.129840 0.212210 0.144620 -0.140550 0.098931 0.443330 -0.203910 0.100500 -0.387790 0.014694 -0.098810 -0.248360 -0.179720 0.343400 -0.319690 0.243810 0.432910 -0.061376 -0.147230 0.274860 0.168520 0.366850 -0.128690 -0.022238 -0.213280 0.423460 -0.201590 -0.323660 -0.033412 -0.083893 0.268440 -0.170290
!jv_of 0.149020 0.226880 0.561860 -0.200180 -0.094706 0.493480 -0.366280 -0.144310 -0.166640 0.004745 0.705490 0.360760 0.218900 -0.662010 -0.122000 -0.379130 0.495230 -0.144550 0.272130 -0.475930 -0.223260 -0.288120 0.089845 0.036835 0.809810 -0.279550 -0.006531 0.017348 0.109190 0.432030 -0.493490 -0.231250 -0.221550 -0.158280 -0.422770 0.190410 0.639190 -0.524750 0.041768 0.010716 -0.016622 0.168620 0.168190 -0.250650 -0.144110 -0.137080 0.489990 0.085572 0.192130 0.426060 -0.314450 0.034998 -0.085213 0.381980 -0.671880 -0.029069 0.015078 -0.083067 -0.390600 0.292150 0.004076 0.010670 0.244900 -0.238680 0.084264 0.190370 -0.161860 -0.105690 -0.195510 -0.397060 -0.039549 0.078953 0.004036 -0.157940 0.086736 0.001691 -0.037188 0.279510 -0.108680 0.205840 -0.572040 -0.395790 -0.177570 0.428350 0.035381 0.064539 0.031276 0.242150 0.749860 0.258000 -0.191270 0.217340 -0.137440 -0.377450 -0.451180 0.260960 -0.205020 0.228900 0.006697 -0.140350
!jv_minangka 0.181430 0.399970 -0.123650 -0.262060 0.012417 0.196870 -0.338440 -0.104490 -0.215190 0.032456 -0.180220 0.224140 0.247250 0.032675 -0.088899 -0.215250 -0.015043 0.120190 -0.312620 -0.398970 0.192580 -0.011460 0.177560 0.094779 0.253830 0.018695 -0.204540 0.022527 0.152480 0.275930 0.112920 -0.141410 0.141850 -0.282270 -0.284870 -0.102500 0.123020 -0.165390 0.112400 -0.311930 0.079333 -0.033751 -0.018751 0.261140 -0.161200 0.249190 0.329990 -0.040145 -0.283930 -0.106010 -0.428620 0.218590 0.002516 0.204900 -0.182520 0.072821 0.114480 -0.084266 -0.111150 0.257220 -0.073470 -0.282710 0.044350 0.447180 -0.093954 -0.091214 0.072318 0.380550 0.091256 -0.031798 -0.091155 -0.167190 0.198720 0.087056 0.049239 -0.096366 -0.218120 0.298690 0.059148 -0.009515 -0.183360 0.286200 -0.236640 -0.066851 -0.088736 0.191630 0.023412 0.051748 -0.200110 0.534560 0.294120 0.304840 0.166310 0.144400 -0.197800 0.055750 -0.319100 -0.120840 -0.088664 0.098865
!jv_nalika 0.051145 0.004845 -0.150160 -0.590700 0.075905 -0.205230 -0.274330 0.020921 -0.408440 0.184670 -0.036325 0.179920 0.133870 0.143360 -0.171000 -0.208970 0.096016 -0.185650 -0.038535 -0.210310 -0.025557 -0.085891 0.432780 0.202570 0.155410 0.225340 -0.207150 -0.005418 0.096383 0.454170 0.174440 -0.039458 0.194120 0.130790 0.083021 0.023183 0.175440 0.097176 -0.126390 -0.206890 0.058365 -0.199730 0.450700 -0.012089 -0.237490 -0.154430 0.344380 -0.404880 0.117710 0.109850 -0.191910 -0.184830 0.051263 0.109680 -0.030232 0.097741 0.140500 -0.177380 0.064591 0.124590 -0.132440 0.156090 0.115420 0.302720 -0.036946 -0.269420 0.130220 0.063612 -0.254740 -0.148200 0.071768 0.123160 0.372660 0.507660 -0.188050 0.011401 -0.148850 0.575750 0.042043 0.088135 -0.171450 0.074758 -0.021674 0.262660 0.140340 -0.176320 0.088649 0.179600 0.112330 -0.054088 0.316060 0.162820 0.368730 0.002541 -0.028883 -0.145450 -0.411260 -0.243110 -0.134540 0.265520
!jv_basa 0.035144 0.373360 0.387140 -0.428030 -0.518400 0.530620 0.022407 -0.520880 0.397240 -0.363860 0.229670 0.054460 0.437860 0.316850 0.347520 -0.146440 0.456290 0.472450 -0.270270 -0.106160 0.096245 -0.094171 -0.039649 0.174970 -0.022813 -0.148750 -0.212720 0.323830 0.290380 -0.151500 0.454160 0.241170 0.093087 0.142360 0.219160 0.481800 -0.183680 0.003790 0.222480 -0.230940 -0.003534 -0.308670 -0.215160 -0.314510 0.487330 0.157650 0.565680 0.176600 0.078854 0.076697 -0.198490 -0.288990 0.023063 -0.101250 -0.128200 0.155560 0.061046 0.263570 -0.297200 0.211660 -0.309280 -0.034482 0.207120 0.785050 0.042217 0.375980 -0.500180 0.425940 0.073014 -0.010629 0.224510 0.206120 0.092227 0.268660 -0.096698 -0.147400 -0.490180 0.140070 0.036388 0.053903 -0.119990 0.269760 0.170560 0.160290 0.375740 0.143170 0.722260 0.084398 -0.166730 0.016405 -0.422830 0.143380 -0.175900 0.163720 -0.052049 0.311720 -0.226620 0.172930 -0.056280 -0.126860
!jv_uga 0.163040 0.158040 -0.219250 -0.206140 -0.163740 0.292530 0.008637 -0.155680 -0.120970 0.281660 0.253050 0.175500 -0.082253 0.070246 0.307490 -0.074486 -0.155890 0.046057 -0.067934 -0.218610 0.269170 -0.193810 -0.024581 -0.003057 0.214350 0.066783 -0.166410 -0.163690 0.169320 -0.177070 0.057861 0.134220 0.364600 0.008084 -0.111500 0.153610 -0.255990 -0.085221 -0.067509 0.144420 0.326090 -0.079562 0.378360 0.242830 0.100640 0.116690 0.471770 0.057230 0.028526 0.042232 -0.270980 0.044891 -0.068916 0.187660 -0.140440 0.013309 0.029306 0.120100 -0.448080 0.080494 -0.025990 -0.047929 0.100730 0.526320 -0.291890 -0.116980 -0.103190 0.266990 -0.194150 -0.011229 -0.058318 -0.057026 0.415670 -0.020909 0.046694 -0.032969 0.055825 0.105200 -0.054486 -0.085700 -0.071145 0.220350 -0.042172 -0.264030 -0.213300 -0.007645 -0.052492 -0.011215 0.150140 0.120440 0.163390 -0.040959 0.183690 -0.423880 -0.390750 0.036828 -0.634530 -0.229330 0.094518 0.255300
!jv_kecamatan 0.070756 0.162360 0.575430 -0.057257 -0.110750 0.751860 -0.792710 -0.106490 -0.329770 0.208150 0.137610 -0.193790 0.130150 0.273050 -0.096692 0.443830 0.585430 0.939020 0.603460 -0.470260 -0.344910 -0.173310 0.518940 0.576040 0.682190 0.288760 -0.257370 -0.111660 0.457320 -0.052047 0.785620 -0.124770 0.116140 0.534180 1.095500 1.040400 -0.141760 0.419520 0.439060 -0.511430 -0.133550 0.755400 -0.261730 -0.694600 0.490740 0.122310 0.566540 0.145990 0.028388 -0.083150 -0.138300 0.530500 -0.419050 -0.228390 -0.426190 0.296780 -0.193740 -0.005461 -0.701360 0.382350 0.621510 0.249490 -0.611600 0.155520 -1.090000 -0.217830 0.071116 -0.083882 0.494370 0.541860 -0.207350 -0.363900 0.541820 0.028410 -0.310570 0.116840 -1.289400 -0.118250 0.382520 -0.735900 -0.946050 -0.190880 0.101270 0.210780 0.746240 -0.106430 -0.303410 0.146120 -0.412460 0.533840 -0.685780 -0.468130 0.732840 -0.234730 -0.807640 0.376660 0.140210 -0.169640 0.069459 -0.259990
!jv_karo 0.067940 0.124270 -0.051628 -0.254730 0.136350 0.435380 -0.142930 -0.043441 0.005525 0.152170 0.147530 0.191780 -0.014812 0.029888 0.538140 0.091752 -0.273500 0.070551 -0.170640 -0.153040 -0.048430 -0.436070 -0.199420 0.194220 -0.219800 0.098058 -0.282550 -0.463550 0.440750 -0.163770 0.274120 -0.100690 0.415540 0.384720 0.078308 0.275670 0.212220 0.234520 -0.016970 -0.001220 0.375850 -0.150090 0.625700 -0.079864 0.141030 -0.076613 0.513820 -0.114980 0.041845 -0.416400 -0.125010 -0.083143 0.499440 -0.177740 -0.173690 0.000677 0.301090 0.470890 -0.437290 -0.228600 0.112140 -0.478990 0.307300 0.289370 -0.443470 0.019369 -0.179050 0.145650 -0.082346 -0.295240 -0.098901 -0.017428 0.431060 0.013856 0.129290 -0.010394 -0.251010 -0.080161 0.415100 -0.082490 -0.044719 -0.504980 -0.075134 0.135380 0.086146 -0.139040 0.043034 -0.308500 0.125880 0.122300 -0.155780 -0.385060 0.132580 -0.200290 -0.338960 -0.142640 -0.284290 -0.424740 0.395090 0.432760
!jv_tengah 0.434630 0.224130 0.385550 -0.112930 -0.067947 0.423240 -0.255780 -0.315840 -0.293980 0.089871 -0.031233 -0.230730 0.315170 0.097226 -0.033872 0.188890 -0.080383 0.778510 0.093587 -0.413610 -0.148180 -0.393720 0.008255 0.155800 0.711590 -0.018894 -0.006465 0.137580 0.540430 -0.073349 0.796040 -0.019180 -0.082505 0.007776 0.350160 0.639420 -0.306870 0.908710 0.355110 0.056117 -0.114140 0.149520 -0.214700 -0.177970 -0.004948 0.047521 0.203450 -0.309020 -0.089820 -0.006011 0.075019 -0.062685 0.075154 -0.082356 -0.158410 0.212500 -0.415650 0.073221 -0.585320 0.441490 0.656840 0.121440 -0.033173 0.497470 -0.219890 0.310980 0.321120 0.437410 0.135050 0.430160 0.136240 -0.030045 0.490020 0.197140 -0.274030 0.170880 -0.935340 0.122790 -0.053055 -0.062219 -0.478260 -0.261450 0.029756 0.417590 0.721250 0.231250 0.073037 0.302620 -0.056032 0.357780 -0.093762 -0.491300 0.272570 -0.186990 -0.565120 0.109630 -0.403650 -0.009342 -0.103750 -0.046960
!jv_sawijining 0.314620 0.084992 -0.397910 -0.078695 -0.191840 0.397290 -0.217640 -0.230380 -0.069666 -0.002614 0.107050 -0.016506 0.209180 0.129640 0.070344 -0.122070 0.330210 0.166970 -0.033669 -0.665430 -0.018864 -0.343040 -0.226960 0.514060 -0.002202 -0.002665 0.108630 0.283990 -0.015936 -0.003196 0.535170 -0.045596 0.177070 -0.211650 -0.039120 0.149940 -0.052091 0.084183 0.001728 -0.194220 0.157860 0.054334 0.077341 0.146260 0.247900 0.251120 0.500210 -0.173370 -0.218040 0.331450 -0.061614 0.068916 -0.076025 0.031274 -0.195220 0.177340 -0.169930 0.163830 -0.235850 0.165120 0.068027 -0.583360 -0.030546 0.073772 -0.177330 -0.009216 0.019323 0.182300 -0.104010 0.023050 -0.012220 -0.068343 0.172260 0.100050 -0.024831 -0.157960 -0.216490 0.202400 0.108370 0.152080 -0.050124 0.134570 -0.394820 0.138420 0.029045 0.288110 0.329840 0.006320 -0.014134 0.258770 -0.053647 -0.071088 0.516070 0.181950 -0.273320 0.123010 -0.524320 -0.384830 0.092942 -0.056683
!jv_salah 0.351660 -0.150250 -0.283820 -0.652850 0.223480 0.378200 -0.486990 -0.138010 -0.153780 0.045717 -0.056592 -0.077471 0.050686 -0.011398 0.089774 -0.173050 0.035410 0.522860 -0.153920 -0.437870 -0.058128 -0.184100 0.309300 0.097221 0.649260 -0.065713 0.078420 0.169560 0.249970 0.123200 0.453230 -0.091818 -0.020657 -0.206220 0.186050 0.290780 0.018073 0.198780 -0.091629 -0.354050 0.031818 0.264390 -0.383430 -0.059855 -0.187280 -0.021416 0.484150 -0.230870 -0.284100 0.271380 -0.190570 -0.056769 -0.325660 0.095702 -0.129300 0.309770 -0.009629 0.034589 -0.178790 -0.068951 0.147980 -0.900970 -0.080436 0.073058 -0.179100 0.148880 0.051855 0.376100 -0.116900 0.244140 -0.021161 -0.360540 -0.007826 -0.314330 -0.312430 0.025106 -0.142380 0.201940 0.080653 -0.174100 0.185370 0.609560 -0.115150 0.333820 0.220310 0.056918 0.348770 0.174010 -0.269140 0.476370 -0.101100 -0.075524 0.478450 0.123450 -0.040266 0.114370 -0.609340 -0.435150 -0.051614 -0.121180
!jv_tanggal 0.252660 -0.034200 0.023111 -0.201290 -0.276020 0.026014 -0.184160 0.370360 -0.540890 -0.151340 -0.380640 -0.014393 -0.153130 0.053685 0.024729 -0.441330 -0.267450 0.081451 0.265890 -0.379880 0.277780 -0.238550 0.100420 -0.209510 0.134510 -0.279880 -0.371210 0.184000 0.084543 0.394630 0.383610 -0.052334 -0.085608 0.118750 0.017100 0.564370 0.153890 0.034392 0.088039 0.191310 -0.211090 -0.289450 0.621850 -0.073136 -0.306540 0.229280 0.189900 -0.033419 0.366350 0.079117 -0.316820 0.009079 0.230390 0.006601 -0.214180 0.301860 0.372350 -0.088114 -0.068273 0.010207 0.133130 0.355670 0.092944 -0.027296 -0.021434 0.142740 0.171860 0.057043 -0.184090 -0.209840 0.270580 -0.086245 0.084012 0.183640 -0.390990 -0.129710 -0.385930 0.572010 0.254620 -0.191360 0.176310 0.020510 0.002337 0.444370 0.578400 0.008422 -0.446450 0.366580 0.191690 0.199700 0.173890 0.029366 0.302710 -0.130580 0.027840 0.235000 -0.066696 -0.577670 0.367190 -0.319490
!jv_inggih 0.103030 -0.062773 -0.158750 -0.209660 -0.379870 0.551480 -0.643210 -0.294880 -0.214040 0.175090 0.079225 0.129450 0.164890 -0.053546 0.122910 -0.346360 0.283000 -0.238510 -0.224900 -0.258790 0.451730 0.009134 0.827180 0.169540 0.300340 -0.436850 -0.330980 0.191360 0.058466 0.062237 -0.168910 -0.098982 0.203780 0.110620 -0.067378 0.019006 0.317800 0.035203 0.125940 -0.026333 -0.404880 -0.053821 -0.062335 -0.030580 -0.135650 0.153450 0.136460 -0.046114 -0.659500 -0.235200 0.055840 -0.094567 -0.210880 0.133710 0.042846 0.503720 0.357760 0.273450 0.121650 0.154410 0.517550 -0.384940 -0.112860 0.408710 -0.116050 0.105850 0.426530 0.047547 0.059699 0.000162 0.120420 -0.155350 0.145580 0.315750 -0.257790 -0.171370 -0.480680 0.138510 -0.083603 -0.439280 -0.004051 0.637650 -0.168710 0.535660 0.315520 -0.170220 -0.028820 0.141500 -0.048338 0.735080 -0.236160 -0.214270 -0.001713 0.499810 -0.155440 -0.283850 -0.275060 -0.123520 0.232400 -0.363980
!jv_ora 0.244230 0.036019 -0.104320 -0.267560 -0.052895 0.605680 -0.143250 -0.144610 -0.006854 0.047234 0.009672 0.110460 -0.211050 -0.063688 0.328910 -0.048767 -0.346380 -0.108320 -0.143340 -0.158970 0.092104 -0.190680 -0.081587 0.100640 -0.069237 0.073326 0.117580 -0.294930 0.327910 0.032869 0.356250 0.110480 0.321580 0.135860 -0.138880 0.231310 -0.299130 0.161800 -0.210910 0.191130 0.273800 -0.131470 0.334290 0.031775 0.098508 0.014850 0.356210 -0.016509 0.243220 -0.315650 0.187840 0.023606 -0.116620 -0.151350 -0.218210 -0.100180 -0.083050 0.194670 -0.712690 0.187900 -0.328380 0.041974 0.082881 0.669480 0.006674 -0.088095 0.055102 0.026129 0.145940 -0.138830 0.090398 -0.132880 0.360420 0.183840 0.578640 0.093925 0.067947 -0.105760 0.197570 0.203760 0.039348 0.076171 -0.077721 -0.252100 -0.061733 -0.433950 -0.089593 -0.128000 0.042558 -0.257850 0.039111 0.098395 0.451040 -0.356510 -0.344730 0.058962 -0.485330 -0.501760 0.201780 0.074434
!jv_bisa 0.037204 0.213450 -0.061673 -0.246740 -0.058577 0.512160 -0.096880 -0.143390 -0.271650 0.030065 -0.038815 0.108520 -0.163740 -0.130060 0.338060 0.102830 -0.208670 0.060784 -0.075303 -0.233720 0.142760 -0.023192 -0.029668 -0.012674 0.006101 -0.176870 0.194460 -0.224040 0.170420 0.007006 0.245800 0.086928 0.480840 0.025602 -0.237610 0.028115 -0.473670 0.139430 -0.099125 0.316480 0.232080 -0.306900 0.373620 0.125760 0.344300 0.115960 0.229130 0.054534 0.068754 -0.147780 -0.184900 0.286490 -0.081501 0.020904 -0.204590 -0.049033 -0.124340 0.099285 -0.796880 -0.096706 -0.112270 0.233210 0.007724 0.390030 -0.267230 0.058437 0.210340 -0.022067 0.085854 -0.027840 0.237520 -0.059552 0.087102 -0.004863 0.239190 -0.108140 0.189000 0.140270 0.014776 0.194580 0.014118 0.338380 -0.422880 -0.115750 -0.137370 -0.409510 0.142320 -0.013333 0.076963 -0.244210 -0.072211 0.086152 0.479670 -0.330420 -0.433940 -0.051227 -0.463670 -0.392820 0.205390 0.272520
!jv_and 0.187290 0.387670 0.413520 0.063131 -0.263620 0.748480 -0.648760 -0.127010 -0.207990 -0.072481 0.484060 0.276610 0.126480 -0.841230 0.080523 -0.109360 0.320540 -0.160130 0.456690 -0.257570 -0.130970 -0.261620 0.042507 0.014229 0.523560 -0.486070 -0.024727 -0.019825 0.084447 0.283640 -0.334770 -0.202970 -0.220720 -0.158010 -0.268070 0.445260 0.696890 -0.781240 0.037516 -0.034962 -0.159910 0.355440 0.429570 -0.395270 -0.138260 -0.278120 0.643780 0.186270 0.058565 0.265480 -0.334510 0.091510 -0.116950 0.507430 -0.500110 -0.127410 0.044534 -0.060690 -0.408830 0.320370 0.082990 -0.056884 0.308030 -0.122050 0.011646 -0.058770 -0.219210 -0.035379 -0.214430 -0.303120 0.019699 0.160450 0.201080 -0.419210 0.036910 0.038147 -0.062324 0.161000 0.020261 0.144070 -0.674100 -0.659940 -0.170160 0.524840 0.086907 -0.274020 -0.182830 0.165750 0.852980 0.189280 -0.219390 -0.167050 -0.265720 -0.485430 -0.315240 0.116370 -0.143710 0.027946 0.155220 -0.095850
!jv_kutha 0.181590 0.249460 -0.045303 -0.142610 0.077276 0.364190 -0.114980 -0.044382 0.016795 0.030696 -0.236740 0.070698 0.607940 0.318200 -0.479530 -0.112290 0.424210 -0.003767 0.179840 -0.331650 -0.005028 -0.253250 0.175950 0.037213 0.498940 -0.106450 -0.052842 -0.134570 0.840280 0.110880 0.179190 0.007243 -0.251450 -0.173510 0.401440 0.615660 -0.394210 0.310100 0.192150 -0.048287 0.084545 0.144650 0.300850 -0.082719 0.725100 0.112750 0.429870 0.243820 -0.175540 0.673730 -0.285000 -0.253070 -0.048600 -0.259870 -0.109140 -0.156390 0.147770 0.166520 -0.551270 0.379700 -0.034206 0.004651 -0.597310 0.079238 -0.093156 0.016457 -0.331410 0.390100 0.008124 0.043719 -0.276910 -0.141660 0.805200 0.529950 -0.134770 0.443450 -0.464270 0.361820 -0.486240 -0.358070 -0.153730 -0.537790 0.044375 -0.081123 0.417600 0.133130 -0.125340 0.094412 -0.192870 0.343170 -0.127250 -0.116930 0.623500 0.435320 0.099868 0.236370 -0.096257 -0.156490 0.263290 0.053771
!jv_dados 0.492140 0.122880 -0.393660 -0.352560 -0.077594 0.208490 -0.492370 -0.597840 -0.546560 0.354180 -0.012947 0.123980 0.186870 0.106020 0.323710 -0.248090 0.028084 -0.138230 -0.254770 -0.259280 0.202280 0.017287 0.863660 0.251950 0.566710 -0.465130 -0.225900 0.060991 -0.146970 0.453180 -0.344850 -0.268020 0.243880 -0.169430 -0.137630 0.044077 0.347530 0.058672 0.046691 -0.209290 -0.051588 -0.376070 -0.126690 0.359900 -0.090930 0.177630 -0.034233 0.168730 -0.262320 -0.299750 0.122790 0.180740 -0.028082 0.045509 0.324320 0.532750 0.171140 0.305220 0.057713 0.178860 0.139240 -0.179810 -0.145940 0.414560 0.097295 -0.044399 0.114770 0.236100 0.302080 -0.167860 0.308980 -0.231620 0.391460 0.128290 -0.234750 -0.159000 -0.354330 -0.166860 -0.161450 -0.467580 -0.337160 0.321380 -0.048568 0.188210 0.073917 -0.272660 -0.286240 0.267020 -0.148830 0.405860 -0.000591 -0.017446 0.043150 0.335420 -0.369840 -0.428650 -0.057854 -0.045141 0.021056 -0.255630
!jv_kaliyan 0.246370 -0.070936 -0.164830 -0.408430 -0.237170 0.443660 -0.492280 -0.251980 -0.370740 0.411380 0.067837 -0.028298 0.328490 0.014237 0.118490 -0.043968 0.044226 -0.252040 -0.354480 -0.124680 -0.130220 -0.117630 0.820900 0.358750 0.175010 -0.369500 -0.642480 -0.088468 0.225620 0.059796 -0.200020 -0.378290 0.128580 0.170000 0.126520 -0.002505 0.593110 0.153310 0.087958 -0.189950 -0.498260 -0.156400 0.286470 0.225860 -0.124370 -0.044339 0.240400 0.125680 -0.278810 -0.495130 0.033255 -0.348700 -0.143310 -0.071429 0.159940 0.486380 0.394770 0.300850 -0.073288 -0.313520 0.158100 -0.175100 0.093772 0.535690 -0.098655 -0.096874 -0.121910 0.166820 0.085497 -0.142620 0.087742 -0.003890 0.155160 0.317740 -0.063929 -0.062744 -0.651110 0.008950 -0.022519 -0.535730 -0.162380 0.140270 -0.178400 0.158610 0.245730 -0.229980 -0.130750 -0.239840 0.094728 0.106520 -0.156370 -0.150120 -0.200980 0.407950 -0.036309 -0.524760 0.001879 -0.073243 0.312340 0.092168
!jv_paling 0.326950 0.383080 0.328500 -0.853560 -0.139000 0.241310 -0.102540 -0.008278 -0.039184 0.261460 0.114920 0.258440 0.407580 -0.226510 0.034511 -0.453150 0.018362 0.076594 -0.326280 -0.470280 0.172490 -0.076478 0.190120 0.050280 0.696940 0.242450 0.064075 -0.178200 0.411260 0.089499 0.147750 0.029895 0.049838 -0.463040 -0.004240 0.103350 -0.220860 0.099124 -0.030601 0.110630 0.044864 0.072841 -0.217060 -0.021281 -0.159550 -0.105610 0.620600 -0.019291 -0.402360 -0.081451 0.179340 -0.046465 -0.001360 0.037348 -0.087152 -0.225330 0.122730 -0.220890 -0.373830 -0.179990 0.061991 -0.308380 0.106880 0.352120 -0.021796 -0.080262 0.282660 0.279820 -0.063678 -0.088472 0.054152 0.038642 -0.039261 0.218900 -0.336250 -0.201050 0.036881 0.249140 0.229570 0.078230 0.329420 0.079496 0.232710 -0.325690 0.156700 -0.031559 -0.191870 0.377470 -0.297220 0.660640 0.339770 -0.186100 0.414210 0.229600 0.220850 0.003255 -0.314790 -0.072083 -0.112770 0.006077
!jv_a -0.174410 0.499780 0.338560 0.123250 -0.318020 0.476570 -0.103810 0.055622 -0.178650 0.176540 0.494070 0.064545 0.207930 -0.570440 0.024564 -0.349510 0.285940 0.080086 0.236050 -0.268010 0.021105 -0.073436 0.116750 0.028629 0.387000 -0.509760 -0.031774 0.400830 0.243160 0.402830 -0.287650 -0.211660 0.160380 -0.112270 0.047554 0.178700 0.414750 -0.357610 0.246540 0.155940 0.245920 0.643220 0.322340 -0.182340 -0.245430 0.063314 0.377650 0.139100 0.080876 0.196500 0.043947 0.019862 -0.211580 0.275010 -0.319020 -0.103040 0.142510 -0.078683 -0.358810 0.039965 0.112320 -0.199610 0.918280 -0.476170 0.205430 0.005144 -0.231860 -0.130270 0.032215 -0.221920 0.175320 0.346330 0.225990 -0.200980 -0.093918 -0.074114 -0.092759 0.420300 -0.193610 0.079699 -0.303450 -0.098941 0.017061 0.568100 0.160210 -0.526550 -0.146860 0.021942 0.581200 -0.330320 0.087166 0.015713 0.163810 -0.256920 -0.585830 0.371900 -0.147300 0.202710 0.021283 -0.177270
!jv_in -0.013768 0.213880 0.186910 0.009275 -0.231960 0.399300 -0.365070 -0.090523 -0.244950 0.060966 0.627860 0.270530 0.238110 -0.559570 -0.228480 -0.175070 0.467000 -0.065409 0.645930 -0.411140 -0.104340 -0.424440 0.041191 0.117770 0.352160 -0.400200 0.083831 0.140430 0.385210 0.188180 -0.465480 -0.091092 -0.246340 0.007791 -0.242280 0.700530 0.667900 -0.184010 -0.302730 0.134640 -0.081070 0.280000 0.107970 -0.219600 -0.076609 -0.048277 0.626080 0.204570 -0.214050 0.383310 -0.099597 -0.601590 -0.172350 0.504660 -0.487900 -0.204350 0.301230 -0.118280 -0.338630 0.515070 0.226260 0.174530 -0.140260 -0.392720 -0.338730 -0.027854 -0.235260 0.187940 0.012796 -0.372990 0.275990 0.204270 0.460030 -0.503570 0.083697 -0.027359 -0.161970 0.356010 0.104630 0.208770 -0.604050 -0.473790 -0.064817 0.491760 0.625400 -0.685990 0.609480 0.110020 0.994220 0.431460 -0.199510 -0.105430 0.073444 -0.272910 -0.661890 0.127300 0.019758 -0.006724 0.061262 0.131120
!jv_jroning 0.464230 0.599930 -0.245590 -0.293840 -0.019012 0.211350 -0.024205 -0.122330 0.283240 -0.100740 0.144110 0.048345 0.220310 -0.184390 0.328690 0.203490 -0.282580 -0.082174 -0.079163 -0.363140 0.565590 -0.435760 -0.301940 0.455570 -0.171620 0.041148 -0.038515 0.146180 0.203160 -0.066227 0.458040 -0.009259 0.184800 0.051482 -0.265920 0.195500 -0.012469 0.104150 0.732750 0.130500 0.218530 -0.383520 -0.779280 0.189140 0.451450 0.046378 0.290690 0.090582 0.285120 0.082437 -0.124610 0.230480 -0.103320 0.000231 -0.391870 0.044644 -0.119760 0.461360 -0.344250 0.276120 0.095956 -0.140290 0.120610 0.345030 -0.329360 -0.053762 -0.100220 0.202070 -0.195950 0.188470 -0.112810 -0.174770 0.388100 0.382770 0.116050 -0.151570 -0.394930 0.222250 0.596980 0.496350 -0.363060 0.030404 -0.062015 0.163090 0.112710 -0.134010 0.321230 -0.118280 -0.069794 0.064531 -0.228280 0.020941 0.702880 -0.070480 -0.659560 0.146220 -0.523230 -0.154390 0.112190 0.263620
!jv_wong -0.105780 0.034558 0.002448 -0.116270 -0.399770 0.916940 0.056641 -0.316330 0.243740 0.075929 -0.036846 -0.107690 -0.189750 0.428040 0.181400 0.120010 0.020902 -0.022382 -0.113010 -0.140110 0.037666 -0.354630 0.107080 0.121900 -0.260940 0.234120 -0.509340 -0.122400 0.198970 0.020992 0.599880 0.200460 0.377470 -0.283580 -0.171420 0.340200 -0.349110 0.122790 -0.221050 0.094782 0.637900 0.045602 0.232490 -0.132600 0.305830 -0.135600 0.615010 -0.191590 0.241120 0.152160 0.060114 0.004994 -0.124730 0.176750 -0.300030 -0.277550 -0.110660 -0.185880 -0.581420 0.045651 0.018527 0.029776 -0.053100 0.346080 0.206030 0.115140 0.275730 0.617300 0.063630 -0.141790 0.191190 0.009286 0.337090 0.071173 0.189790 -0.141440 0.197970 -0.013598 0.031356 0.226820 -0.046683 -0.295360 -0.429150 0.059345 0.121540 -0.132010 -0.198870 0.126030 -0.087511 -0.214880 -0.131280 0.186990 0.169250 -0.227500 -0.300380 -0.308450 -0.479970 -0.309120 0.475680 0.062337
!jv_ugi 0.439120 0.140770 -0.286720 -0.109850 -0.397060 0.491420 -0.524630 -0.372850 -0.542680 0.443310 0.307300 0.080919 0.262150 -0.110950 0.210920 -0.106200 0.112660 -0.158310 -0.368700 -0.081507 0.166860 0.085765 0.899290 0.325480 0.460970 -0.507600 -0.424680 0.346920 -0.010235 0.205180 -0.339390 -0.227980 0.023131 -0.141210 -0.087244 0.037278 0.097257 0.038456 0.109760 -0.138900 -0.225690 -0.236290 0.079016 0.218260 -0.224230 0.159830 -0.004550 0.324590 -0.208830 -0.334190 0.167240 -0.067606 -0.393730 0.084915 0.176620 0.360090 0.282010 0.236630 0.008174 -0.080117 0.380910 0.042855 -0.230490 0.700520 0.040981 -0.290420 0.014707 0.275830 -0.153540 0.133460 0.034631 0.026423 0.104130 0.222640 -0.050462 -0.040397 -0.418650 -0.082363 -0.182770 -0.539450 -0.249980 0.682480 -0.183900 0.185130 0.094920 -0.355850 -0.160870 -0.030544 -0.024705 0.401950 0.109860 -0.059248 -0.070873 0.257870 -0.340350 -0.357080 -0.233130 -0.000750 0.173180 -0.355600
!jv_wis 0.142200 0.073706 -0.088315 -0.371480 0.102600 0.405860 -0.124620 -0.165300 -0.168190 0.259060 0.200500 0.005259 -0.159560 0.254230 0.430340 -0.024528 -0.396820 -0.186910 -0.036588 -0.130770 -0.035414 -0.077937 -0.213460 0.104990 -0.138770 0.074024 0.229870 -0.159170 0.173830 0.153000 0.250540 0.070049 0.337430 0.088268 -0.120700 0.280710 -0.067016 0.068940 -0.065346 0.220910 0.548640 -0.052301 0.566880 0.233400 0.263590 -0.238900 0.319650 0.046606 0.120850 -0.170310 -0.175560 0.289270 0.063266 -0.082439 -0.221180 -0.144330 -0.101900 0.035972 -0.649260 0.217940 -0.154780 0.064960 0.078574 0.536060 -0.143290 -0.168570 0.334800 0.394200 -0.102180 -0.005488 0.287940 0.084466 0.183410 0.059555 0.191250 0.136180 -0.041551 0.313830 0.306780 0.251160 -0.038423 0.031198 -0.158810 -0.148880 0.049332 -0.417350 -0.151340 0.170560 0.173250 -0.190700 0.184530 -0.062823 0.235420 -0.194420 -0.403900 -0.059077 -0.268700 -0.676050 0.167500 0.202570
!jv_utawi 0.088519 0.088277 0.138560 -0.195410 -0.537790 0.552470 -0.472520 -0.130360 -0.248470 0.239680 -0.093877 0.119020 0.173620 -0.220600 0.029069 -0.278770 0.059778 -0.273880 -0.051233 -0.085630 0.023570 0.127370 0.578820 0.239060 0.018646 -0.466190 -0.443720 0.402850 -0.002898 0.117480 -0.032009 0.030229 -0.026965 0.129440 -0.328200 -0.016008 0.017190 -0.042093 -0.026301 -0.109810 -0.581170 -0.272120 0.073968 0.316970 -0.016135 -0.005964 0.000035 0.250100 -0.410480 -0.188570 0.030676 -0.025793 -0.239840 0.177760 0.171840 0.366720 0.390680 0.174430 -0.136070 -0.078899 0.461430 0.028821 -0.013580 0.558260 -0.130220 -0.066946 -0.017896 -0.099117 0.209270 0.211170 0.045654 -0.031454 0.283490 0.155110 -0.089887 -0.321080 -0.518850 0.118670 -0.107750 -0.333310 -0.212520 0.599740 -0.038082 0.296450 0.160200 -0.356250 0.207370 0.064266 -0.174730 0.498800 -0.231750 -0.200750 -0.120350 0.461920 -0.189560 -0.440500 -0.437880 -0.067073 0.527580 -0.042105
!jv_luwih 0.276610 0.223690 0.325030 -0.491110 0.017418 0.583700 0.008023 0.032837 0.342500 0.164760 0.119560 0.150320 -0.072531 0.125500 0.408760 -0.199010 -0.314630 -0.033597 -0.250640 -0.429660 0.045083 -0.141820 -0.081903 0.209510 -0.178690 0.023976 0.038728 -0.079716 0.469620 -0.073658 -0.014852 -0.063334 0.187560 -0.024636 0.092248 0.193700 -0.493380 0.100410 0.030961 0.432700 0.307580 -0.273920 0.364820 0.137670 0.452550 -0.028747 0.697220 0.214570 -0.256150 0.033815 -0.034028 0.151300 -0.200090 0.179850 -0.338340 -0.357960 -0.024271 0.308740 -0.749190 -0.199240 -0.041873 0.014982 0.179840 0.674470 -0.303250 -0.238470 0.071293 -0.260840 0.044937 -0.026203 -0.237630 0.036842 0.160760 0.181500 0.081231 -0.074217 -0.156820 0.291810 0.112800 0.167850 0.220150 -0.387880 -0.040289 -0.317920 -0.106990 -0.226320 0.059807 0.273820 -0.143820 -0.165220 0.170150 -0.510850 0.041216 -0.025169 -0.254450 -0.273430 -0.562970 -0.493410 0.213180 0.208310
!jv_kidul -0.056657 0.165180 0.310920 -0.048160 0.071060 0.231360 0.029328 0.006301 0.144610 -0.034589 -0.292450 0.011116 0.991070 -0.014661 -0.246380 0.017267 0.565960 0.364950 -0.063837 -0.444990 -0.547570 -0.512620 0.120990 0.236250 0.500160 -0.339730 -0.154200 0.044341 0.704680 0.010350 0.421890 0.164760 0.272310 -0.114860 0.135650 0.964000 -0.539940 0.647710 0.379940 -0.383970 -0.226490 0.143850 0.127480 -0.093000 0.223830 -0.001493 0.355030 -0.084096 -0.321780 -0.296110 -0.419820 -0.477150 0.052952 -0.197790 -0.040443 -0.095379 -0.116340 -0.069933 -0.597580 0.038522 0.507290 0.223680 0.048364 0.361530 -0.029557 0.266440 0.292850 0.374740 -0.445690 -0.180560 -0.040968 -0.276330 0.180150 -0.087701 0.114620 0.506970 -0.564760 -0.048163 0.076574 -0.532590 -0.627440 -0.210540 0.046028 0.490540 0.213940 0.106400 -0.201250 -0.024708 -0.277190 0.630500 -0.088898 -0.364150 0.696750 -0.181690 0.009261 -0.100530 -0.217310 -0.150230 -0.027775 -0.338700
!jv_para 0.219080 0.028865 -0.206770 -0.743400 0.022511 0.338600 -0.360640 -0.126090 -0.213500 0.018436 0.087572 0.011996 -0.197690 0.146310 -0.395750 0.251100 -0.008561 0.162050 0.241310 -0.489180 0.004803 -0.539670 0.110140 0.211500 0.538670 -0.091845 -0.382120 0.064754 0.086091 -0.294540 0.157710 0.116720 0.127980 -0.344520 -0.113940 0.162710 -0.204400 0.425200 -0.173890 -0.201950 0.300360 -0.123000 0.250730 -0.040582 0.249710 0.344790 0.074198 0.363210 -0.168720 -0.493330 -0.215330 -0.021593 -0.351550 0.501150 0.257500 0.312670 -0.029517 -0.248310 -0.036732 -0.102570 0.072203 -0.132990 0.209170 0.209070 0.414180 0.098979 0.174240 0.337890 0.090294 -0.143660 0.065527 0.047713 0.375790 0.130570 0.140670 -0.358020 -0.093752 0.313470 -0.360800 -0.211440 0.066332 0.007876 -0.265780 -0.053757 -0.000895 -0.240970 -0.027491 0.170790 -0.189620 -0.564510 0.086463 0.223790 0.003291 0.274880 0.101080 0.019351 -0.290850 -0.299710 -0.007155 0.020813
!jv_dan 0.019306 -0.018663 0.060239 -0.032491 0.002539 0.225780 -0.410880 -0.240450 -0.716610 0.306080 0.181450 -0.047702 -0.031070 -0.271100 0.637310 -0.582260 0.191330 -0.591010 0.470830 -0.407880 0.319690 0.080293 -0.142430 -0.066960 0.224640 -0.535340 -0.353610 -0.199300 0.351460 -0.422520 -0.005916 0.018912 0.172310 0.092393 0.391960 0.654850 0.194820 0.335940 0.326120 -0.125910 -0.007721 -0.277240 -0.028243 0.070926 -0.162620 0.043659 0.252910 0.187410 -0.232350 -0.110230 -0.312590 0.179330 0.224350 0.147040 0.207650 0.064193 0.575420 -0.269230 -0.136600 0.277150 0.034425 -0.134380 0.128860 0.055857 -0.538160 0.065509 -0.121480 0.491310 0.379350 0.105530 0.181660 -0.112830 0.137990 -0.076316 -0.149900 -0.126140 -0.414700 -0.019681 0.232200 0.033031 -0.248220 0.081818 -0.291610 0.212650 0.364810 -0.109400 -0.489310 0.025912 0.572200 -0.262750 -0.110260 0.033862 -0.530800 -0.174430 -0.252830 -0.425360 -0.134770 -0.143230 0.216890 -0.457880
!jv_nanging 0.354760 0.332850 -0.035622 -0.441160 -0.124820 0.356640 -0.094021 -0.109620 -0.117130 -0.064051 -0.122490 0.113670 0.018678 0.236650 0.065765 -0.146060 -0.120730 0.087744 0.023570 -0.198430 -0.012397 -0.095875 0.159500 0.043972 0.002970 0.219220 0.192460 0.031916 0.260470 0.163250 0.233990 0.104240 0.118350 0.054656 -0.035832 0.127160 -0.024402 -0.066780 -0.252460 -0.062954 -0.002718 -0.053895 0.283900 0.048078 0.025061 0.155920 0.341610 -0.227740 -0.033678 -0.185560 -0.050935 -0.240590 0.166220 -0.012952 -0.058535 0.118530 0.010196 -0.084922 -0.515740 -0.033870 -0.371620 0.074391 0.203130 0.715910 0.105800 -0.013921 0.099379 0.015197 0.149990 -0.177750 0.127730 0.021587 0.469720 0.303890 0.340090 -0.159890 -0.130850 0.028527 0.174760 0.007214 -0.025608 0.039341 -0.013096 -0.248660 -0.147330 -0.244870 -0.017954 0.042156 -0.056883 -0.183290 0.054722 0.068277 0.232770 0.015040 -0.094111 0.062683 -0.373910 -0.271250 -0.105940 0.082483
!jv_film -0.008491 0.349140 0.190820 -0.654800 -0.260490 0.645840 0.143760 0.133960 -0.358340 0.199110 0.212180 -0.153320 -0.072760 0.048130 0.505200 -0.068550 0.515860 -0.243550 0.361820 -0.540440 0.156120 -0.319780 -0.294890 0.447390 0.572120 0.071956 -0.391560 -0.224740 0.179890 -0.033659 -0.450110 -0.021880 0.334370 0.180410 -0.207670 0.620420 0.008165 -0.550530 -0.281610 0.047103 0.262970 -0.344320 0.166700 -0.240790 -0.134280 0.236800 0.490710 -0.489730 0.004910 0.631360 0.191170 0.133750 0.159940 -0.206630 0.236980 0.105480 0.289870 -0.224190 -0.077816 0.348580 -0.306660 -0.002033 0.411370 0.265460 0.549030 0.094910 0.171740 0.217910 -0.012372 -0.103120 -0.179030 -0.115770 0.241140 -0.151380 -0.611990 0.162680 -0.031352 0.395380 -0.100640 -0.544170 0.103200 -0.008054 0.415220 0.334550 -0.175990 -0.555950 0.063517 0.210760 0.022289 0.317760 0.248050 0.439300 0.008115 -0.627490 0.338690 -0.272210 0.329090 0.014640 -0.313920 -0.080487
!jv_saged 0.349260 -0.029758 -0.223080 -0.256100 -0.356410 0.672950 -0.532730 -0.237790 -0.790180 0.070872 -0.065079 0.067645 0.240180 -0.142370 0.247960 -0.116390 0.400510 -0.158080 -0.202940 -0.034758 0.062511 0.142510 0.795220 0.151810 0.355100 -0.299670 -0.261020 0.050566 -0.034674 0.367010 -0.329680 -0.103660 0.140700 0.065956 -0.277960 -0.140070 0.021427 0.158630 0.227240 -0.070215 -0.605320 -0.339040 0.190970 0.048515 0.031173 0.156360 -0.058167 0.331290 -0.247280 -0.271110 0.050235 -0.065254 -0.508150 -0.102450 0.105870 0.485910 -0.060759 0.161010 -0.372280 -0.367650 0.250700 0.318980 -0.055534 0.351000 0.005248 -0.265970 0.359270 -0.040761 0.033745 0.099119 0.262040 -0.113290 -0.022353 0.290640 0.143120 -0.100550 -0.155810 0.346890 -0.339780 -0.421240 -0.057139 0.638520 -0.447810 0.139000 -0.166610 -0.640660 -0.080705 0.012427 -0.139920 -0.029361 -0.197280 -0.108950 0.175140 0.353150 0.008121 -0.173780 -0.243680 0.075418 0.183790 -0.268720
!jv_jeneng 0.391380 0.155640 -0.129870 0.042951 -0.361110 0.712560 0.008913 -0.369120 0.427020 0.042995 0.158310 0.460650 -0.450070 0.198490 -0.012895 -0.331500 0.144260 0.124730 0.015163 -0.230820 -0.012198 -0.188260 -0.594480 0.227160 -0.353950 -0.328320 -0.430380 0.184100 0.401350 0.254160 0.060315 0.164860 0.479750 0.279560 -0.192360 0.340280 0.085414 0.019398 0.037467 0.221840 0.292240 -0.136680 0.461690 0.217370 0.359600 0.197710 0.866470 0.209390 0.223300 -0.076523 -0.200070 0.005330 0.220200 -0.206100 -0.065161 0.229060 0.094651 0.107840 -0.357460 0.231840 0.024804 -0.251210 -0.058097 0.531460 -0.562680 0.281470 -0.199200 0.221460 -0.057424 -0.297390 -0.038395 0.108410 -0.188530 -0.461430 0.061424 0.116550 -0.201620 0.236310 -0.069618 0.199660 -0.004125 0.178010 0.375420 0.025099 0.019633 0.202930 -0.321170 0.128860 0.126960 0.504550 0.195360 -0.060521 0.355050 0.077655 -0.114420 0.275670 -0.588910 -0.661070 0.135970 0.405920
!jv_nganti -0.090434 0.066723 -0.010862 -0.267960 0.283020 0.104220 0.104400 -0.400370 0.026638 0.132790 -0.230630 -0.314960 -0.086559 0.024607 0.318040 -0.325810 -0.175980 -0.344700 -0.116340 -0.041316 0.136650 -0.222610 0.289790 -0.142430 -0.091992 -0.200670 0.121690 -0.401210 0.198850 -0.039244 0.124320 0.186860 0.251410 0.069588 -0.253780 0.158360 -0.102690 -0.088529 0.183430 0.405230 0.553690 -0.165420 0.256600 -0.045916 0.246990 -0.288350 0.299350 -0.369960 -0.072172 -0.417210 -0.277320 -0.006000 0.425130 -0.003846 -0.277980 -0.030942 0.056336 -0.034580 -0.671260 0.249170 0.095283 0.294960 0.212180 0.357110 -0.175640 -0.049322 0.407680 0.115980 -0.149960 0.187910 -0.231820 -0.146680 0.531280 0.351770 -0.166220 0.019912 -0.015382 0.261090 0.241650 0.432690 -0.344180 -0.004990 -0.044620 0.106150 0.301760 -0.388890 -0.192200 0.524850 0.092328 -0.126060 0.281340 -0.459480 0.288200 -0.102010 -0.584920 -0.192170 -0.567370 -0.345190 -0.014011 0.346580
!jv_provinsi 0.654860 0.305220 0.399840 0.205560 0.090747 0.290380 -0.306390 -0.633290 -0.386820 -0.260730 0.028968 -0.747490 0.307610 0.553570 -0.211720 0.339380 0.738710 0.468190 0.454100 -0.441220 -0.068140 -0.705950 0.172900 0.550750 0.678180 -0.003049 0.235840 -0.323610 0.535090 0.355530 0.724410 -0.499900 -0.344130 0.265270 0.408940 1.026500 -0.259740 0.548320 0.081859 -0.119060 0.290880 0.420980 -0.277640 -0.106630 1.076900 0.187360 0.627230 0.269490 -0.410060 0.784240 -0.160660 0.411800 0.136460 -0.099952 -0.609680 0.121490 -0.383320 0.097997 -0.666080 -0.028774 0.154790 -0.221230 -0.766990 0.140690 -0.346830 -0.052711 0.205950 0.343020 -0.001142 0.327320 0.359140 -0.570770 0.091955 0.130270 -0.032476 0.753490 -1.065000 0.314900 -0.187250 0.110050 -0.690280 -0.047871 -0.271310 0.173690 0.464540 0.082595 0.042213 0.465520 -0.035970 0.655960 -0.679480 -0.076690 0.658970 0.166470 -0.833200 0.078351 0.153700 -0.049546 0.014862 -0.466520
!jv_marang 0.064745 0.353170 -0.143050 -0.360680 -0.304900 0.769420 -0.187140 -0.090141 -0.090287 -0.109290 -0.026580 0.415590 -0.381190 0.078914 -0.094854 0.049813 0.181790 0.102240 -0.280310 -0.251510 -0.257660 -0.493850 -0.023171 0.384030 -0.289230 -0.298120 -0.174900 -0.259060 0.125700 -0.111280 0.313230 0.015626 0.280840 -0.014433 0.020114 0.007090 -0.058408 0.440500 0.011817 -0.053738 0.334030 -0.013493 0.397910 0.472940 0.067831 -0.028733 0.273660 0.092342 0.052864 -0.111070 0.125400 0.073791 0.139950 0.147950 -0.015791 0.174660 0.175010 -0.166680 -0.195480 0.024382 -0.214460 -0.101760 -0.009696 0.278220 -0.109060 0.042585 0.484640 -0.009121 -0.114200 -0.395960 0.010995 -0.412150 0.349780 0.345950 0.364370 -0.005972 -0.238970 0.208610 -0.065699 0.235980 0.048268 -0.152410 -0.205780 -0.206650 -0.095921 -0.003632 -0.048218 0.062452 0.163530 -0.455720 -0.044644 0.218750 -0.168500 0.052566 -0.466470 -0.253020 -0.590880 -0.101150 -0.024081 0.335710
!jv_amarga 0.179430 0.419440 -0.032144 -0.433350 -0.057830 0.158220 -0.096228 -0.015578 -0.063893 0.083901 -0.139160 0.226350 -0.002207 0.227570 0.098058 -0.238580 -0.337970 -0.149400 -0.172430 -0.343850 0.059211 -0.452310 0.056845 0.204610 -0.191500 0.098756 -0.083916 -0.302400 0.223380 -0.054761 0.183400 -0.025498 0.185450 0.293630 -0.083418 0.137360 -0.261890 0.105880 -0.047854 0.145610 0.288380 -0.101250 0.433170 0.248160 -0.097788 0.079905 0.700920 -0.064598 0.051705 -0.052698 0.026062 0.438680 -0.079514 -0.015835 -0.238150 -0.022328 -0.071065 -0.104960 -0.668940 0.196660 -0.107110 -0.120220 0.165650 0.523900 -0.124930 -0.027384 -0.042158 0.056923 -0.008256 0.032914 0.060323 -0.138220 0.398080 0.371490 0.274990 -0.272060 -0.086300 -0.041466 0.118530 0.231650 0.083389 0.165360 -0.118260 -0.037134 -0.105090 -0.391160 -0.254850 -0.190080 0.101490 -0.105250 0.084559 0.036682 0.391480 -0.379870 -0.202680 -0.172230 -0.547390 -0.497750 0.199350 0.195060
!jv_banjur 0.100680 -0.048313 -0.112150 -0.279010 -0.100680 -0.029921 0.178530 -0.217600 -0.440610 -0.090632 0.051197 0.061005 -0.204600 0.281080 0.183290 -0.138630 0.010573 -0.155390 0.149240 -0.235350 -0.335210 -0.244810 -0.275450 0.242460 0.068757 -0.050563 0.051071 -0.294170 0.269120 0.023538 0.008898 0.157540 0.480230 0.304630 0.016583 -0.122870 0.089715 0.144050 -0.046866 -0.114880 0.262000 -0.596350 0.910260 0.137610 0.170950 -0.221940 0.543450 -0.244330 -0.061706 0.012060 -0.173890 0.190430 -0.125690 0.040868 -0.313630 0.179940 0.056015 0.135470 -0.386630 0.230800 0.014336 -0.222230 -0.068995 0.243820 -0.384420 -0.094452 0.286590 0.345080 -0.072143 -0.171490 0.156160 -0.179840 0.432100 0.186300 0.052755 0.069151 -0.123190 -0.031404 -0.140500 0.316700 -0.091279 -0.040685 -0.031731 0.044595 -0.046104 -0.587280 -0.011212 0.264050 -0.014470 -0.088133 0.134560 -0.027695 0.435020 -0.224630 -0.588340 -0.041145 -0.427390 -0.288890 0.264700 0.198280
!jv_wiwit 0.186140 -0.006222 -0.173440 -0.512780 0.252030 0.037679 -0.181470 -0.166100 -0.418400 0.193170 0.004696 -0.126700 0.101230 0.137050 -0.092474 -0.305400 -0.114510 -0.307860 -0.250920 -0.126360 0.127450 -0.201180 0.408920 0.205730 0.130210 -0.109730 0.123430 0.228470 0.065775 0.248780 0.263600 0.069929 0.105950 0.217720 -0.114420 0.182500 0.347260 -0.323960 0.127000 0.073081 0.264360 -0.268590 0.206500 0.045624 0.197610 0.228740 0.087834 -0.401420 0.242260 -0.012393 -0.519760 -0.282280 0.332070 0.206460 0.036583 0.159640 -0.192690 -0.057337 -0.078924 0.144320 0.042824 0.215520 -0.101180 0.390560 0.046840 -0.070449 0.142730 0.297510 -0.313350 0.191530 -0.129510 -0.051590 0.409400 0.337670 0.014532 0.230320 -0.075546 0.536510 0.101800 0.160570 -0.532830 0.070729 -0.107370 0.044777 0.374860 0.014832 0.018798 0.714300 -0.108790 0.118830 0.287710 -0.057313 0.264950 0.176010 -0.174380 0.047298 -0.304020 0.060102 -0.298830 0.159020
!jv_nagara 0.410640 0.365450 -0.079699 -0.114830 -0.065303 0.352160 0.153900 -0.176630 -0.156390 -0.039748 -0.197350 -0.279250 0.023665 0.487230 0.002036 -0.272280 0.237900 -0.083191 0.109080 -0.300480 0.281890 -0.329510 0.063449 0.495180 0.505850 -0.239560 -0.058021 -0.753120 0.438220 -0.015685 0.186200 0.015871 0.459600 -0.199870 -0.048418 -0.067151 -0.297460 0.069722 -0.194920 -0.130080 0.179800 -0.198980 -0.242560 0.069532 0.162980 0.292810 0.165210 0.073260 -0.502390 0.150210 -0.438550 -0.356570 0.120320 -0.163180 0.154950 0.094487 0.052161 -0.336110 -0.245230 0.158870 -0.328660 -0.047021 -0.353220 0.207060 0.208730 0.494550 0.070571 0.289950 -0.288850 -0.332950 0.074490 -0.323260 0.370630 0.447930 0.188590 0.329230 -0.565130 -0.072147 -0.025872 0.159510 -0.163120 0.061761 -0.070349 0.048359 0.210810 0.206870 -0.230510 0.070591 -0.112530 0.161400 -0.078288 0.274740 -0.327540 0.125140 -0.239220 -0.046033 -0.196140 -0.114340 0.349430 0.133620
!jv_boten 0.424690 -0.050874 -0.212720 -0.383100 -0.282580 0.639120 -0.588560 -0.178760 -0.419130 0.318570 0.075689 0.242950 0.210960 -0.009466 0.323970 -0.159010 0.182020 -0.173840 -0.461180 0.004266 -0.097905 0.130590 0.892970 0.089933 0.309750 -0.080009 -0.517630 -0.015577 0.166380 0.347610 -0.176910 -0.211680 0.133060 0.054822 -0.286710 -0.104590 0.046000 0.233970 0.079690 -0.297140 -0.646400 -0.300120 0.065489 0.038165 -0.149680 0.063792 0.244610 0.266530 0.061783 -0.637270 0.253860 -0.227410 -0.291540 -0.078837 0.126590 0.379270 0.126870 0.361570 -0.310860 -0.198770 0.026583 0.203030 -0.099531 0.678700 0.396970 -0.210910 0.204990 -0.065011 0.377690 0.084130 0.057328 -0.137130 0.318810 0.352130 0.455220 -0.198430 -0.440910 0.020141 -0.148680 -0.261440 -0.165400 0.367150 -0.187370 0.077071 0.080099 -0.649210 -0.085876 -0.327750 -0.240200 0.114990 -0.000715 0.020523 0.104860 0.302900 -0.096499 -0.368550 -0.143100 0.118650 0.093985 -0.503450
!jv_piyambakipun 0.392670 0.372160 -0.549390 -0.239650 -0.101740 0.395110 -0.536440 -0.540380 -0.697510 0.017891 0.503350 0.096645 0.226200 0.071970 0.168870 0.065598 0.436310 -0.231370 -0.411740 -0.129980 -0.025737 0.233110 1.062600 0.342910 0.354510 -0.412620 -0.711730 0.121370 -0.269350 0.647790 -0.296070 0.045478 0.237200 -0.153800 0.030563 -0.224930 0.147310 0.183390 0.149510 -0.299790 -0.277390 -0.434310 0.263270 -0.141380 -0.183790 -0.059750 0.150920 0.167780 0.102810 -0.082977 0.116800 0.016927 -0.153520 -0.012588 0.169540 0.411540 0.312610 0.162070 0.003716 0.406040 -0.044157 -0.012714 -0.209470 0.345460 0.350140 -0.151850 0.255520 0.212740 0.074805 -0.230310 0.141580 0.079487 0.078141 0.622250 -0.192610 -0.058215 -0.343630 0.150790 0.005108 -0.525240 -0.245740 0.134400 -0.325890 0.200310 0.129290 -0.210550 0.100470 0.125300 -0.212760 0.011310 0.161990 0.246900 0.116000 0.062134 -0.333950 -0.623060 -0.016525 0.069637 -0.033905 -0.315020
!jv_di 0.215870 0.262890 0.205740 -0.060342 -0.076486 0.173650 -0.604070 0.230800 -0.507520 0.084160 -0.048037 -0.416770 -0.062049 -0.013853 0.606110 -0.390000 0.117910 -0.359890 0.788280 -0.046539 0.409770 0.000354 -0.248120 -0.181170 0.257830 -0.325180 -0.348590 -0.288210 0.227080 -0.413430 -0.043309 0.131380 0.173860 -0.075339 0.199230 0.642260 0.043714 0.489740 0.242230 -0.074805 0.159030 -0.239530 0.216730 -0.167260 -0.323580 -0.295240 0.195120 0.218500 -0.142930 0.191020 0.061202 0.122670 0.377910 0.038646 0.225910 -0.162250 0.559910 -0.145930 -0.309730 0.165840 0.077383 0.026267 0.125540 0.129310 -0.533080 0.140210 -0.052891 0.440350 0.487270 -0.262490 0.190990 0.312460 0.076769 -0.067594 -0.177850 0.336780 -0.491890 0.041720 -0.106970 0.327250 -0.091837 0.199950 -0.297510 0.368730 0.310810 -0.243750 -0.282370 -0.140320 0.482050 -0.001872 -0.026799 -0.253080 0.170120 -0.257820 -0.270600 -0.082511 -0.151790 -0.216030 -0.209090 -0.523650
!jv_sampun 0.476140 0.040452 -0.049693 -0.385410 -0.139230 0.703720 -0.512620 -0.385300 -0.683790 0.242630 0.402890 -0.059505 0.322250 0.270710 0.200310 -0.200320 0.132600 -0.431480 -0.166620 -0.169820 -0.198320 0.082914 0.870910 0.302930 0.184970 -0.300550 -0.098392 0.314330 -0.111220 0.278870 -0.177030 -0.114700 0.098656 -0.020932 -0.216830 -0.006247 0.202460 -0.074705 0.041570 -0.200010 -0.341240 -0.311570 0.257560 0.287380 -0.122880 -0.019499 -0.071230 0.030765 -0.062117 -0.373650 0.142840 -0.023246 -0.318790 0.095359 0.343700 0.343100 -0.050580 0.222300 -0.021215 -0.002457 -0.032192 0.109670 -0.226710 0.514910 0.091465 -0.026588 0.381500 0.299590 0.084446 0.005277 0.411730 0.190780 0.081910 0.622380 0.049597 -0.027866 -0.453620 0.243210 -0.058998 -0.358230 -0.057949 0.408680 -0.202910 0.168010 0.146620 -0.470230 -0.155490 0.091698 -0.035577 0.359540 0.199980 -0.175750 -0.183180 0.257100 -0.075294 -0.351070 -0.037213 -0.288130 0.002374 -0.265530
!jv_donya 0.503820 0.483700 -0.075247 -0.852200 0.288480 -0.009396 -0.223950 -0.025745 -0.016050 0.160350 -0.449950 -0.223850 0.022805 -0.167600 -0.272430 -0.244050 0.457790 -0.169000 -0.173540 -0.407280 0.050021 0.114260 -0.070736 0.334040 0.373260 0.262040 -0.051347 0.166400 0.202820 0.551490 -0.023744 -0.628610 0.159510 -0.153120 -0.495870 0.011036 -0.200930 0.145090 -0.009966 0.316530 0.264010 -0.165850 -0.076109 0.335530 0.021133 -0.103480 0.173780 -0.364690 0.175480 -0.112740 -0.030369 -0.159240 0.130640 -0.028867 -0.094452 -0.123880 -0.274260 -0.577800 -0.433860 -0.092081 0.104370 0.119350 -0.301540 0.061483 0.166330 0.125740 -0.201780 0.423270 -0.190160 -0.091175 0.092410 0.249600 0.569560 0.255260 -0.374890 -0.050181 -0.228060 0.119070 0.538280 -0.077853 0.114500 0.155090 0.344160 0.020053 0.229640 -0.236980 -0.416790 0.166750 -0.112230 -0.141500 -0.049808 -0.089971 0.218360 0.263030 0.039475 0.091253 -0.412570 -0.313480 0.173460 -0.060184
!jv_ananging 0.252820 0.096919 -0.023869 -0.683700 0.081084 0.317680 -0.385340 -0.321290 -0.389130 -0.019948 -0.217550 0.124830 0.139940 0.092233 -0.063145 -0.242880 -0.005535 -0.004980 0.051143 -0.059605 -0.163240 0.093015 0.390280 -0.150760 0.261720 0.176930 -0.252710 -0.081436 0.168170 0.211490 0.107620 0.152230 0.240490 0.048978 0.004947 -0.062079 -0.044541 0.061843 -0.094575 -0.290560 -0.250070 -0.083380 0.368380 0.139480 -0.354370 0.198810 0.402310 -0.151060 0.002577 -0.314720 -0.070552 -0.381510 0.003044 0.000559 -0.073085 0.101780 0.113710 0.072490 -0.285670 -0.229040 -0.178940 0.016895 0.127340 0.578290 0.283910 -0.212860 -0.090412 0.076590 0.209280 0.189780 -0.173270 -0.025132 0.467220 0.468530 0.238900 0.125600 -0.155140 0.161780 0.015847 -0.194070 0.104240 0.192480 -0.080282 -0.015344 -0.144080 -0.427200 -0.013977 -0.100750 0.004950 -0.030387 0.255010 0.172760 -0.125890 0.005013 0.033100 -0.040567 -0.216320 -0.026016 -0.140430 -0.044547
!jv_ning 0.061210 0.102150 0.093768 -0.236110 0.345620 0.424300 -0.065631 -0.413210 -0.153300 0.326920 -0.008047 0.253270 0.150320 -0.207060 0.481730 -0.148350 -0.379310 -0.637450 0.075356 -0.319750 0.196200 -0.331320 -0.262770 -0.385380 0.298850 -0.157520 -0.342750 -0.143200 0.262680 -0.086622 0.375110 0.128390 0.554910 -0.054280 -0.001813 0.082792 -0.268820 0.143810 0.250300 -0.206540 0.577960 -0.175460 0.610040 -0.151770 0.137620 -0.444840 0.708990 -0.164610 0.174890 -0.125190 0.379660 0.072008 0.310110 -0.344270 0.039163 -0.015567 0.245590 0.142080 -0.063086 0.492530 0.036268 0.185950 0.239310 0.337800 0.049799 -0.096339 -0.246940 0.462340 -0.319280 0.316960 -0.283960 -0.118500 0.331420 -0.084343 -0.468910 0.263030 -0.427610 0.205150 0.256940 0.312730 0.074951 0.126520 0.066698 0.121210 -0.137650 -0.328000 0.236170 -0.006081 0.449560 0.265830 -0.072862 0.002837 0.335850 -0.571000 0.116820 -0.610430 -0.074017 -0.345970 0.179740 0.299570
!jv_kasebut 0.387090 0.219990 0.087858 -0.442710 0.103350 0.122280 -0.426090 -0.057762 -0.050206 0.131050 0.022543 0.232350 0.357500 -0.158010 -0.101840 -0.170430 0.072235 -0.047646 0.076373 -0.265980 0.079057 -0.045608 -0.072418 0.230440 0.195770 0.196320 -0.335170 0.185300 -0.140560 0.173360 0.487590 0.156750 0.273470 -0.007385 0.046453 -0.231210 -0.321290 -0.040285 0.173780 -0.421720 0.113440 -0.203590 0.365530 0.306750 0.002402 0.326690 0.292030 0.116300 0.054667 -0.319430 -0.015180 0.069395 -0.285310 0.014535 -0.013233 0.307600 0.299320 -0.137430 -0.316980 -0.256910 -0.157200 0.042144 0.222350 0.346010 -0.108440 -0.057072 -0.106730 -0.011320 0.099069 0.104260 -0.146680 -0.030354 0.313230 0.156840 0.213110 -0.094666 -0.096040 0.094148 -0.134750 0.250630 0.053237 0.344250 -0.201150 0.168190 -0.155110 -0.147410 -0.004282 -0.190550 -0.149870 0.078808 0.235460 -0.061688 0.208580 0.128480 -0.182200 0.239280 -0.322340 -0.069921 -0.047635 0.215720
!jv_kaping 0.464600 -0.258250 0.304310 -0.324520 -0.011338 0.178110 -0.212720 -0.383890 -0.569360 0.090814 -0.266210 0.177210 0.517380 -0.215360 -0.215440 0.324970 0.226690 -0.157520 -0.016128 -0.159250 -0.335610 0.017805 -0.171770 0.052687 0.446250 -0.017043 -0.106360 0.206200 0.384320 0.319840 0.265870 0.186280 0.008612 0.085154 0.257740 -0.069266 0.233770 -0.231200 -0.033128 0.155870 -0.091199 -0.278870 0.086686 -0.258220 0.080850 -0.067073 0.314760 -0.266260 -0.263990 -0.169220 0.051557 0.213620 0.074744 0.182230 -0.060018 -0.085805 0.288560 0.043741 0.241180 -0.172110 0.166650 0.337890 0.478180 0.342370 0.382560 0.239080 0.614980 0.208440 -0.368290 -0.266440 0.039427 0.033191 0.744200 0.589700 -0.528960 -0.061671 0.131510 0.243830 0.108310 0.001224 -0.101110 0.616410 -0.216710 0.199460 0.346950 -0.015294 -0.441410 0.586830 0.043570 0.530170 0.277710 0.116040 0.297760 -0.056295 -0.298370 -0.095087 -0.400100 -0.095207 0.105830 -0.046080
!jv_sisih 0.234920 0.017602 0.481980 -0.013593 -0.387160 0.278630 -0.010532 0.084616 -0.168170 -0.219490 -0.593630 -0.132850 0.772260 0.061147 -0.137540 0.438640 0.701300 -0.092473 0.033954 -0.192860 -0.384930 -0.302110 0.521430 0.150700 0.637860 0.113030 0.066032 -0.315680 0.932710 -0.207920 0.289680 0.109660 0.236550 -0.118390 0.095848 0.656100 -0.302080 0.681400 0.128690 -0.193420 0.185490 0.108140 0.158110 -0.409270 0.174820 0.107170 0.416190 -0.270930 -0.396510 -0.356000 -0.091609 -0.965700 0.106370 -0.223150 -0.388760 0.251720 0.330700 0.262020 -0.465990 -0.239680 0.302910 0.289370 0.164910 0.521800 -0.414150 0.062421 -0.045984 0.438160 0.134790 -0.262490 -0.636840 -0.340920 0.238790 0.003814 -0.133560 0.226100 -0.687220 -0.030455 -0.340030 -0.410490 -0.447110 -0.291700 0.017592 0.482110 0.392120 0.223970 0.140900 0.177940 -0.053753 0.226020 -0.159670 -0.561790 0.721740 -0.016012 -0.069219 0.275730 -0.224410 0.046198 0.003393 -0.151510
!jv_siji 0.432450 -0.133690 -0.082216 -0.172290 0.192690 0.418710 -0.068234 -0.370510 0.155060 0.204840 -0.032059 -0.065264 0.050727 -0.019458 0.417050 0.075943 -0.199580 0.207140 0.114490 -0.134560 0.394650 -0.301330 -0.107580 0.273180 0.137420 -0.168110 0.121740 -0.170800 0.485930 -0.026907 0.068841 -0.098306 0.466520 -0.111120 -0.086000 0.181810 -0.135740 0.507190 0.141290 0.124130 0.491860 0.015048 0.064855 -0.223310 0.264040 -0.130650 0.556120 0.012562 -0.114050 0.121630 -0.341370 0.262500 0.041839 0.246920 -0.201770 0.067097 -0.129720 0.497700 -0.370850 -0.105000 -0.228870 -0.794530 0.022488 -0.055228 -0.292450 0.003667 0.188730 0.208550 -0.138200 0.000058 0.149960 -0.357900 0.397070 -0.404050 -0.189050 0.177990 0.140530 0.076979 0.188070 0.243660 0.149570 0.028134 0.052584 0.191870 0.075477 -0.190130 -0.040414 0.106450 -0.261780 0.163990 -0.146090 0.017323 0.802030 0.419470 -0.770280 0.232150 -0.739880 -0.545880 0.066707 0.218890
!jv_kaya 0.121410 0.188950 -0.022082 -0.088261 -0.485290 0.453750 -0.329160 -0.300300 -0.115020 0.132120 0.163590 0.161530 -0.247110 0.165370 0.257670 0.228240 -0.549740 -0.265370 0.070314 0.151010 0.054163 0.045352 -0.055352 0.104550 0.056011 -0.196280 0.019184 -0.274680 0.329490 -0.242770 0.259630 0.460100 0.327010 -0.201880 -0.301630 0.397790 -0.068341 0.356280 -0.136150 0.295850 0.064221 0.201440 0.447890 0.084247 0.198990 0.235510 -0.001364 -0.112480 0.066282 0.000488 0.044643 -0.144890 -0.016602 0.024339 -0.178500 -0.259070 0.225460 0.132680 -0.681360 -0.023681 0.029924 -0.213040 0.160640 0.584130 -0.347100 -0.003046 -0.322710 0.028336 0.129290 -0.126750 0.002378 0.079836 0.374500 0.225350 0.029590 0.115020 -0.117560 -0.298420 0.268880 0.188640 0.121510 -0.088053 0.055908 -0.117020 -0.263430 -0.358490 -0.191270 0.067108 0.596050 0.014369 -0.124220 -0.156890 0.446330 -0.334350 -0.405680 0.192960 -0.719310 -0.412890 0.211050 0.381270
!jv_papan 0.311290 0.056119 0.125830 -0.157180 -0.338540 0.305960 -0.513080 -0.105630 -0.405200 0.260890 -0.701840 0.124150 0.055487 0.100200 -0.126420 0.102870 0.338690 -0.184450 0.262940 -0.255930 -0.098173 -0.087913 0.052961 -0.057557 0.326140 -0.079194 0.045155 0.082771 0.242150 0.383660 0.022784 -0.479020 0.119660 0.183990 0.015029 -0.131830 -0.645300 0.212320 0.172600 -0.443900 0.459170 0.106480 0.032962 -0.018141 -0.182850 0.030566 -0.020839 -0.050302 0.247010 0.136940 -0.644580 -0.101430 -0.113720 0.505250 -0.350580 0.169190 0.117990 -0.215200 -0.770370 0.246450 0.138680 -0.025852 0.084534 0.116700 -0.066675 -0.042236 0.231970 0.283850 0.179500 -0.495880 -0.428270 -0.172130 0.110220 0.244790 -0.016014 0.058447 -0.425620 0.193310 -0.341170 -0.496260 0.192520 0.409980 0.210890 -0.149980 -0.005931 -0.311880 -0.293380 -0.179320 -0.120730 0.425250 -0.221300 0.065094 0.270060 0.541120 0.128550 -0.055785 -0.233130 -0.275010 -0.276090 0.311080
!jv_saha 0.305450 -0.150120 -0.063435 -0.233410 -0.287970 0.436370 -0.341400 -0.462550 -0.626150 0.041245 0.070982 0.009996 0.138370 -0.179220 0.358600 -0.258790 0.266130 -0.421360 -0.344350 -0.214620 0.079596 0.054895 0.782370 0.117670 0.215270 -0.268180 -0.404470 -0.178620 0.436350 -0.240510 -0.038967 -0.129610 0.305050 0.031645 -0.182480 0.163280 -0.032323 0.088457 -0.064179 -0.205170 -0.374690 -0.142720 0.132520 0.162030 0.013268 0.055626 -0.129040 -0.187060 -0.113940 -0.324730 0.055400 -0.132370 -0.467080 0.413430 0.234010 0.518840 0.060735 0.148270 -0.048325 -0.013579 0.301200 0.090096 -0.394050 0.177840 -0.355050 -0.136170 0.121120 0.140580 0.240990 0.041521 0.006702 -0.052426 0.237700 0.672160 -0.294340 -0.470630 -0.562070 0.170480 -0.081492 -0.315980 -0.098266 0.322660 -0.136980 0.040296 0.159560 -0.207450 0.029401 0.157010 0.067234 0.268890 -0.135180 -0.007218 -0.148570 0.221530 -0.070771 -0.231910 -0.179630 -0.012075 -0.080940 0.030213
!jv_for 0.170170 0.383770 0.489540 -0.016558 -0.057759 0.823570 -0.534570 0.141730 -0.372710 -0.119840 0.633090 0.462140 0.233660 -1.207600 -0.309160 -0.377360 -0.002928 -0.198330 0.474260 -0.687670 -0.083549 -0.285770 0.265500 0.145570 0.336560 -0.395150 -0.082409 -0.053411 -0.103400 0.481330 -0.651010 -0.374990 -0.171230 0.075536 -0.250990 0.855880 0.439440 -0.227510 -0.022013 0.102970 -0.233370 0.376780 0.643210 -0.399890 0.104880 -0.282420 0.506330 0.212310 -0.130380 0.282180 -0.056799 0.282760 -0.344980 0.448560 -0.443700 -0.179500 0.209780 -0.067176 -0.261610 0.390630 -0.063117 0.061134 0.424600 -0.087999 -0.080632 -0.054741 -0.344070 0.012518 -0.180800 -0.363350 0.065857 0.166920 0.116040 -0.379240 -0.119920 -0.042309 -0.182350 0.223230 0.173190 0.060962 -0.528010 -0.787630 -0.244390 0.541650 0.164910 -0.477380 0.365490 0.142210 0.556630 0.160340 -0.253600 0.381700 -0.327980 -0.480160 -0.436870 0.284510 -0.148840 0.193750 0.238840 -0.203100
!jv_lor -0.211750 -0.092347 0.392160 -0.020943 0.084118 0.419440 -0.019597 -0.157870 -0.027088 -0.194930 -0.113650 -0.066388 0.978890 0.172340 -0.122080 0.132500 0.455410 0.320230 0.062578 -0.196450 -0.298760 -0.528450 -0.139900 0.384880 0.463450 -0.302570 -0.109850 -0.380290 0.709320 -0.213860 0.493460 -0.016210 0.159210 -0.309140 0.098938 0.925500 -0.305470 0.660540 0.378000 -0.069323 -0.243140 0.228570 0.267740 -0.247880 0.269250 -0.060689 0.448420 -0.096577 -0.023048 -0.316270 -0.438440 -0.465920 0.251570 -0.393420 -0.145980 0.087601 -0.066786 0.135370 -0.699360 0.226610 0.541110 0.163900 -0.134290 0.281960 -0.174150 0.238180 0.321900 0.426770 -0.154060 -0.151790 0.080418 -0.302860 0.355640 -0.039786 -0.030056 0.591800 -0.363280 0.069440 -0.128700 -0.350490 -0.457210 -0.175160 0.133100 0.335700 0.327240 -0.028392 0.056992 0.144150 -0.176360 0.537840 -0.141910 -0.479710 0.779260 -0.055491 -0.018250 -0.099107 -0.099477 -0.043108 -0.073607 -0.391290
!jv_satunggaling 0.384380 -0.120310 -0.303710 -0.300600 -0.272670 0.579590 -0.636500 -0.365540 -0.256730 0.171280 0.150780 0.156470 0.250420 -0.149170 0.038009 -0.285410 0.342020 -0.106590 -0.297910 -0.391890 0.283350 -0.150250 0.899160 0.374320 0.294350 -0.496940 -0.441820 0.326230 -0.162120 0.123000 -0.089040 0.054436 -0.078429 -0.277500 -0.030736 -0.023292 0.194230 0.386700 0.141860 -0.226800 -0.336210 0.065223 0.036255 0.001669 -0.346170 0.129520 0.200600 -0.106650 -0.528190 -0.221310 0.130590 0.021587 -0.470510 0.140430 -0.157970 0.422230 0.182670 0.261260 0.028936 0.265210 0.429120 -0.663610 -0.354510 0.449860 -0.007000 0.096600 0.172230 0.298990 -0.108130 0.062364 0.128440 -0.253880 0.125990 0.102280 -0.316810 -0.196990 -0.418560 0.168180 -0.077989 -0.525480 0.162720 0.521420 -0.300500 0.322640 0.426150 -0.141090 0.335400 0.294870 -0.122990 0.778240 -0.061894 -0.073151 0.150350 0.423080 -0.120370 -0.067534 -0.182250 -0.303290 0.126130 -0.346920
!jv_indonesia 0.234140 0.341620 0.235000 -0.454860 -0.522130 0.099938 -0.145420 -0.255300 -0.112500 0.023583 0.330500 0.100960 -0.360260 -0.381450 0.844580 -0.666240 0.048334 0.662780 0.377020 -0.282270 0.323620 -0.217490 -0.036809 0.258300 0.468290 -0.438660 0.007769 0.051381 0.517200 0.254010 0.363350 0.356210 0.220860 -0.060607 0.324320 0.375080 -0.054685 -0.255010 0.378610 0.141940 -0.071327 0.205840 0.205510 -0.270530 0.011085 0.085098 -0.063173 -0.234540 0.525730 -0.026487 -0.160950 -0.200860 -0.118400 0.027134 0.427600 0.197630 0.179530 -0.132860 -0.084603 0.040733 -0.140150 -0.059191 -0.171590 0.121640 -0.261770 -0.130360 -0.108660 0.349880 -0.461330 -0.019687 0.054011 0.171570 0.070060 -0.019020 -0.729470 0.123250 -0.299310 0.173310 0.089542 -0.217230 0.320450 0.206440 -0.252720 -0.068956 0.199530 -0.094812 -0.152630 0.397950 -0.065746 0.144760 0.032677 0.120760 -0.271040 0.377040 0.138670 -0.081926 -0.091392 -0.155330 0.042109 -0.208790
!jv_gunung 0.925790 -0.042406 0.233280 -0.396890 -0.270540 0.413750 -0.624370 0.228500 0.302610 -0.415770 -0.044266 0.180470 0.084687 0.831510 -0.519220 -0.359720 0.215720 0.131960 0.483310 -0.058794 0.061237 -0.075460 0.639760 -0.088849 0.713100 0.201080 -0.233430 -0.126050 -0.080586 -0.337370 0.090125 -0.250470 0.366810 0.043131 -0.236340 0.741060 -0.763770 -0.030517 0.618910 -0.392970 0.134020 -0.015360 0.400420 -0.877160 -0.139350 -0.011487 0.230940 -0.306220 -0.231390 -0.496310 -0.213460 -0.090178 -0.333860 0.281240 -0.208100 0.034957 0.375700 -0.519810 -0.268160 -0.122430 0.039886 0.502630 -0.647720 0.064819 -0.206090 0.150450 0.078444 0.083528 0.231740 0.317940 0.134460 -0.223920 0.144670 0.478630 -0.419700 0.304820 0.047339 0.333100 -0.516460 -0.712730 -0.222190 0.080211 -0.148950 -0.046123 0.300270 0.006561 0.208320 0.209250 -0.244810 0.058643 -0.288970 -0.418900 0.621210 -0.103210 0.153190 0.290200 -0.083637 -0.124190 0.072402 -0.014971
!jv_inggris 0.068382 0.211230 0.089786 -0.319830 -0.301670 -0.136100 -0.496450 -0.080365 -0.091189 -0.077222 0.388900 0.111760 0.248520 -0.154610 0.069560 -0.282180 0.399070 0.444080 0.211650 -0.288200 0.303640 0.248660 -0.106750 0.375210 0.308220 -0.234680 -0.216930 0.105360 0.272010 0.267080 -0.077365 -0.082326 -0.105500 -0.197350 -0.230240 -0.336210 -0.261780 -0.155120 -0.221250 0.035090 0.029803 0.113810 0.186190 -0.158590 0.066628 -0.068685 0.781130 -0.032924 0.437950 0.062693 -0.623400 -0.134990 0.343050 -0.015073 0.114080 0.370380 -0.120160 -0.195980 -0.262810 -0.022210 0.048262 -0.252970 0.430960 0.451710 0.139250 0.320940 -0.131420 0.123530 -0.301020 -0.160670 0.190590 0.323430 0.124460 -0.023381 -0.146740 -0.135210 -0.366750 -0.034719 0.342370 0.305530 -0.093029 0.123410 0.189320 -0.066980 0.134330 -0.010542 0.310800 0.480920 0.005573 -0.094070 -0.167630 0.250030 -0.305040 0.376490 -0.045695 0.262440 -0.394610 -0.393140 0.158050 -0.056235
!jv_miturut 0.760000 -0.171790 0.153990 -0.485890 0.393700 0.549180 -0.161680 -0.271040 0.096502 -0.038754 -0.308060 0.069934 0.295200 0.158010 -0.122000 -0.185360 -0.041882 -0.560440 0.397790 -0.494770 0.057726 -0.027670 -0.249740 0.012318 -0.178430 0.063050 -0.111280 0.523000 0.252620 0.231850 0.570630 -0.157660 -0.085746 -0.159080 -0.196310 0.135190 0.046750 -0.198750 0.044898 -0.079355 -0.313660 0.020024 -0.212500 0.251600 0.150380 0.117490 0.164730 0.324750 -0.212550 -0.151510 -0.333950 -0.217690 -0.240530 0.381620 -0.345660 0.389510 0.488710 -0.101770 -0.021983 -0.013687 -0.045307 -0.250880 -0.152670 0.484810 0.053850 0.259740 0.144610 -0.109700 0.124350 -0.087126 0.465770 -0.163060 0.628520 0.478330 -0.012946 -0.213970 0.040213 0.057400 0.291920 0.144040 -0.274090 -0.113650 -0.004829 -0.098767 0.206130 -0.092814 -0.184140 0.220040 -0.122100 0.185140 -0.068106 -0.068465 0.159790 -0.000100 0.263040 0.074344 -0.391150 -0.288060 0.063692 0.356370
!jv_laladan 0.300730 -0.109800 0.165290 -0.158920 -0.036677 0.228150 -0.101180 -0.205270 -0.209040 -0.016732 -0.226460 0.132960 0.431630 0.149270 -0.001175 -0.178470 -0.198620 0.181810 0.194190 -0.339120 0.119820 -0.124420 0.631850 0.078447 0.503690 -0.132040 -0.007882 -0.175350 0.449020 -0.149400 0.419250 0.112990 0.205240 0.122450 0.207940 0.417210 -0.222680 0.240320 0.139340 -0.284980 0.171430 -0.002750 0.017322 0.275450 0.108790 0.245390 0.159140 0.515310 -0.095945 -0.231030 -0.354630 -0.574970 -0.040507 -0.004230 -0.007575 -0.051603 0.102220 -0.566390 -0.433260 0.400810 0.106710 0.099523 -0.485960 0.181060 -0.071513 0.511050 0.018513 0.173650 0.016152 -0.004834 -0.331900 -0.490770 0.306420 0.394160 -0.245920 0.387670 -0.252880 -0.005911 -0.322710 -0.105570 -0.248250 0.015284 -0.137550 -0.191150 0.172040 -0.325250 -0.360470 -0.268270 -0.259480 0.402970 -0.184060 -0.125310 -0.065313 0.031838 0.026999 0.180070 -0.078112 0.049892 0.048633 0.065044
!jv_kulon 0.070270 0.213730 0.213750 -0.002064 0.060927 0.358490 -0.263150 -0.076109 -0.017957 -0.302150 -0.219180 -0.138120 0.624830 0.081737 -0.281720 0.149140 0.345990 0.398120 -0.068239 -0.071047 -0.019219 -0.769490 0.075185 0.354520 0.428860 -0.304200 -0.120300 -0.137520 0.813250 -0.135260 0.396790 0.095358 -0.025931 0.142140 0.011026 0.771620 -0.269220 0.660120 0.265620 0.037223 0.132500 0.244890 0.192420 -0.114710 0.183440 0.149270 0.594470 -0.253510 -0.063675 0.013655 -0.447460 -0.507700 0.289440 -0.194270 -0.131660 0.068325 0.245830 0.229000 -0.679460 0.329040 0.329620 0.510540 -0.469670 0.622020 -0.412570 0.023669 0.351410 0.703820 -0.135020 -0.069843 -0.330570 -0.424530 0.153520 0.151910 -0.035950 0.056514 -0.294580 -0.043986 0.146250 -0.430000 -0.434750 -0.254340 -0.104260 0.204070 0.459080 0.180880 0.173320 0.114050 -0.137950 0.602710 -0.142280 -0.212500 0.505570 -0.236100 -0.326210 0.038340 0.214230 -0.160740 0.052361 -0.075003
!jv_nganggo -0.035182 0.102600 -0.060378 0.218590 -0.271670 0.725010 -0.262190 -0.181860 -0.000781 -0.006943 0.042828 -0.186630 -0.474810 -0.021041 0.408400 -0.143100 -0.358760 -0.258170 0.207990 -0.068724 0.101420 0.163390 -0.417500 -0.044991 -0.230270 0.266100 -0.231750 -0.043348 0.462200 0.000302 0.221630 0.024164 0.324250 0.166340 -0.231490 -0.080198 -0.254240 0.010174 0.081775 0.098556 0.332830 -0.208420 0.724600 0.167140 0.260900 -0.030603 0.296190 0.157300 -0.114280 -0.048917 -0.147520 -0.001473 -0.098225 -0.074152 0.017752 0.000875 -0.223890 0.246630 -0.697790 -0.058919 0.017242 0.081622 0.372960 0.875380 -0.483900 0.222670 0.195600 0.382690 0.156150 -0.010206 0.322280 -0.330410 0.561480 -0.029307 -0.040776 0.081671 -0.235260 0.017962 0.254030 0.417150 -0.072445 -0.216120 -0.176880 -0.132640 -0.049237 -0.420410 0.383490 0.165980 0.345690 -0.016466 -0.276710 0.027461 0.366740 -0.104820 -0.074746 0.079463 -0.299460 -0.211750 0.209930 0.242890
!jv_kangge 0.071407 0.046736 -0.142920 0.034883 -0.238960 0.740650 -0.713310 -0.585800 -1.002100 0.265460 -0.115230 0.154630 0.100960 -0.280280 0.103760 -0.031733 0.229970 -0.692010 -0.112710 -0.261240 0.088578 -0.185010 0.787380 0.254410 0.422650 -0.326540 -0.461350 -0.009051 -0.149760 -0.038501 -0.015010 -0.066754 0.482250 0.019360 0.025322 -0.267580 0.004254 0.040612 0.179480 -0.183040 -0.312960 -0.178030 -0.062384 0.236560 0.103400 -0.172620 -0.157610 0.056159 -0.171780 -0.443880 -0.071537 0.070472 -0.703510 0.282590 0.370240 0.568630 0.275890 0.013132 -0.117250 0.131970 0.024137 0.085819 -0.068759 0.355830 -0.024478 0.028569 0.127510 0.171080 0.094613 -0.135580 0.044913 0.123470 0.096344 0.260560 -0.458430 -0.026534 -0.484180 0.507320 -0.047866 -0.536770 0.018385 0.519480 -0.563990 -0.097994 -0.296360 -0.136230 0.051140 -0.055147 -0.084207 0.034269 -0.052663 -0.116390 -0.295490 0.303420 -0.210940 -0.235930 0.095428 0.018580 0.391350 -0.153720
!jv_bakal 0.105780 0.092579 -0.130080 -0.329100 -0.089149 0.443070 -0.029844 -0.006729 -0.367700 -0.177440 -0.208950 0.436810 -0.157940 -0.110910 0.005442 0.031191 -0.025273 -0.032641 -0.135150 -0.359680 -0.199680 0.081371 -0.412540 0.257640 0.127710 -0.142980 0.560490 -0.180070 -0.037729 0.096633 0.409530 0.239160 0.286930 -0.066269 0.075488 0.077903 -0.327260 0.179270 0.053878 -0.138840 0.159460 -0.250720 0.206710 0.351670 0.223960 0.178790 0.569310 -0.345810 0.241900 -0.045746 0.141880 0.201140 0.014699 0.104340 -0.101710 -0.149740 0.101920 0.135220 -0.443740 -0.129750 -0.318210 0.106210 0.173790 0.225370 -0.174170 -0.281700 0.384760 -0.155630 0.025222 -0.317330 0.158050 0.002954 0.268000 0.344970 0.179970 -0.280770 0.005456 0.271820 -0.206420 0.050320 -0.008984 0.357260 -0.337720 0.181740 -0.288420 -0.815720 -0.265830 -0.275660 -0.148740 -0.209570 0.286680 0.114230 0.376850 -0.106700 -0.521950 -0.025482 -0.113390 -0.340170 0.184440 0.187010
!jv_tiyang 0.191880 0.002732 0.002606 -0.297970 -0.363210 0.815260 -0.561020 -0.351790 -0.316760 0.191900 -0.246820 -0.004188 0.181330 0.254890 -0.225150 -0.148800 0.359780 -0.123410 -0.046974 0.029766 0.089650 -0.165170 1.129300 0.302440 0.040934 -0.216680 -0.755270 0.283060 0.043368 0.231420 0.012374 -0.104420 0.028223 -0.208240 -0.219880 -0.110990 0.004971 0.116210 0.193210 -0.275380 -0.317610 -0.192540 -0.067058 -0.116060 0.113760 -0.098047 0.040026 0.041190 0.028754 0.053054 0.287320 -0.218050 -0.056220 0.151090 0.046772 0.271670 0.000381 -0.111870 -0.298420 -0.265800 0.243760 0.202570 -0.135220 0.576910 0.460510 -0.151330 0.378550 0.293880 0.311850 0.001785 0.320560 0.094854 0.186730 0.491770 0.106370 0.064632 -0.408750 0.160430 -0.183420 -0.501910 -0.155150 0.189160 -0.514260 0.216360 0.020444 -0.144300 -0.217540 0.008753 -0.304930 0.200200 -0.141890 0.387530 -0.268250 0.240480 0.004690 -0.645210 -0.163410 -0.135560 0.497760 -0.299060
!jv_pulo 0.366590 -0.144590 0.365930 -0.545500 -0.058058 0.617630 0.212410 0.106300 0.397670 -0.243780 0.085524 -0.142130 0.422700 0.447540 -0.205090 0.032004 0.460850 0.014122 0.997090 -0.029593 0.322200 0.084956 0.576210 0.536930 0.480170 0.099264 -0.083319 -0.191620 0.410980 -0.210500 0.169730 -0.452460 0.131760 -0.224320 -0.004481 0.201790 -0.445460 0.492090 0.174960 -0.130180 0.051473 0.138960 0.296300 -0.210930 -0.331320 -0.120600 0.896650 -0.448850 0.275750 0.126970 -0.711950 0.027436 0.251670 0.553790 0.264440 -0.272200 0.313010 0.097997 -0.620980 -0.083218 -0.307810 0.114560 -0.763120 0.562920 -0.604200 0.058003 0.432550 0.119880 0.344790 -0.033545 -0.144690 -0.322840 0.274590 0.250200 0.191180 0.168090 -0.493650 0.053314 -0.307480 -0.694200 -0.412380 0.106290 0.071536 -0.425780 0.240680 -0.077717 -0.398040 0.721010 -0.351000 0.508390 -0.827950 -0.227600 0.066046 0.133500 0.008751 0.612350 -0.077295 -0.351010 -0.302690 -0.334250
!jv_tembung -0.038136 0.226090 0.460000 -0.842820 -0.968600 0.508720 -0.192780 -0.467890 0.643180 -0.015239 -0.272200 0.345060 0.040890 0.580590 -0.149800 -0.280860 0.507980 0.154330 -0.074374 0.124910 -0.111340 0.145250 -0.000434 0.037215 -0.234690 -0.129920 -0.181950 0.612430 0.461600 0.201830 0.371110 0.179450 0.627370 0.182720 -0.125790 0.287700 -0.426520 -0.279430 -0.076032 -0.352930 -0.341060 -0.201720 0.099233 -0.458280 0.183830 0.432800 0.595270 0.204070 0.169230 -0.041793 -0.043034 -0.111200 -0.249670 0.022787 -0.023634 -0.020101 0.361830 0.193050 -0.415130 0.131520 -0.164400 0.020514 0.490400 0.628010 -0.262480 0.397710 0.215600 0.063343 0.157640 0.185380 0.227270 0.011629 0.020565 0.299080 -0.066256 0.138950 -0.200440 -0.324400 -0.200260 -0.130130 -0.052534 0.257800 0.106770 0.539100 -0.054398 -0.320620 0.131380 0.216490 -0.270810 -0.355470 -0.342240 0.553250 0.057599 0.130510 -0.281940 0.793090 -0.174180 0.191050 0.256760 0.168900
!jv_amargi 0.469910 0.161210 -0.121510 -0.377210 -0.246880 0.377710 -0.605460 -0.178920 -0.466050 0.357990 0.072245 0.276800 0.339630 0.154800 0.040403 -0.384790 0.059311 -0.205240 -0.440520 -0.019679 -0.117090 -0.162150 1.010400 0.294660 0.180840 -0.154260 -0.611050 -0.029803 -0.049826 0.245620 -0.219150 -0.277560 0.009699 0.086222 -0.135400 0.022244 -0.084087 -0.069991 0.036354 -0.229590 -0.419460 -0.192200 0.022506 0.091054 -0.234310 0.072602 0.266630 0.082059 -0.235570 -0.353810 0.350120 0.079797 -0.325060 -0.121810 0.279050 0.370160 0.187410 0.016592 -0.263970 0.015999 0.237150 0.201330 -0.227650 0.529720 0.241150 -0.282190 -0.113010 -0.060998 0.107870 0.042800 0.209260 -0.083305 0.273980 0.577510 0.144800 -0.158150 -0.536150 0.123140 -0.163470 -0.365010 -0.083058 0.542970 -0.160940 0.152860 0.009714 -0.444930 -0.153280 -0.009347 0.041059 0.054837 -0.192810 -0.045492 0.177330 0.205410 -0.036500 -0.450630 -0.205650 -0.151190 0.189200 -0.402050
!jv_master 1.089700 0.789240 0.248020 -0.348070 0.391770 1.623700 -0.050320 -0.083060 -0.527480 -0.551590 -0.575560 0.446080 -0.287950 0.105000 0.413430 0.324280 0.914190 0.062620 1.019400 -1.005900 -0.221210 -0.105740 0.541240 0.654580 0.842460 -0.600160 -0.178810 -0.164000 -0.345970 0.946630 -0.645820 0.142460 0.224970 -0.434860 0.202070 0.079166 -0.258230 0.220810 -0.255900 -0.314480 -0.500670 0.291670 0.200640 -0.754310 0.162540 -0.273940 0.833150 0.346260 0.382910 0.209810 -0.318640 -0.273880 0.127810 -0.389260 -0.667340 0.133310 0.768540 0.035543 0.597110 0.560400 0.985290 -0.084224 -0.573740 -0.088556 0.334070 0.232730 0.236180 -0.141160 -0.614410 0.158130 -0.153740 0.648080 0.220570 -0.665050 -0.092285 -0.360480 -0.284490 0.475590 0.142950 0.857660 -0.542220 -0.347100 -0.203700 0.504750 0.258970 -0.602350 -0.147180 0.529210 0.340910 -0.457040 -0.184980 0.330900 0.551600 -0.155500 0.215030 0.182870 -0.448260 0.212050 -0.263960 -0.438340
!jv_de 0.148720 0.375280 -0.210470 0.026387 -0.225600 0.141590 0.040118 -0.144720 0.108520 0.033033 0.512360 -0.010535 0.287900 -0.552700 -0.166510 0.283050 0.154680 0.171930 -0.289660 -0.559450 -0.036877 0.091905 -0.043596 0.347110 0.365180 -0.509970 -0.061064 0.036988 0.303310 0.494940 -0.209210 0.127080 0.099261 -0.154670 -0.011214 0.079949 0.504290 -0.343160 0.068617 -0.602050 0.472120 -0.207020 0.325530 -0.015516 -0.235620 -0.429740 0.594850 0.267440 0.120390 0.523060 -0.881670 -0.152770 0.181980 0.151430 0.198040 -0.425330 -0.230330 -0.012359 0.320220 -0.146510 0.267330 0.039438 0.003656 0.621510 -0.041736 0.249810 0.035836 -0.070422 0.058770 -0.323330 -0.039582 0.321870 0.114840 0.112980 -0.143850 0.215420 0.055252 0.316030 -0.679370 0.159780 0.017549 0.469240 -0.194910 0.308160 0.820110 -0.444480 -0.222550 0.123860 0.448980 0.233520 0.100250 0.128830 0.757170 -0.122860 -0.021577 0.203180 0.336210 -0.442620 0.538910 -0.626260
!jv_perang 0.351990 0.249620 -0.233680 -0.526770 -0.193930 -0.214930 -0.595130 0.010692 0.185550 -0.143840 0.052996 0.370110 -0.215990 0.368020 -0.362110 0.555340 0.204580 -0.137750 -0.235380 0.280280 -0.368790 -0.340370 0.042191 0.627050 0.519320 -0.473930 -0.643800 -0.304560 0.512660 -0.031901 -0.033111 -0.181000 0.406590 -0.514480 -0.010826 0.207670 -0.361480 -0.183150 -0.158220 -0.146250 0.153990 -0.735130 -0.427230 0.008696 -0.016682 -0.085924 0.073907 -0.496680 0.010028 -0.043447 -0.195020 -0.035302 0.187180 0.080785 -0.288470 0.145150 0.307550 -0.390510 -0.600440 -0.089512 -0.251020 0.428960 0.144010 -0.312170 0.197630 0.170880 -0.071704 0.647560 -0.103980 0.240410 0.198710 -0.253080 0.485180 0.665180 -0.028443 -0.021866 -0.297110 0.134880 0.256550 0.096674 -0.047632 -0.114640 0.219720 0.316600 0.236740 -0.272970 0.083939 0.182360 0.284000 -0.280190 -0.004571 0.297120 0.099541 0.321440 -0.019968 0.188790 -0.353120 -0.383970 -0.105610 -0.330150
!jv_nasional 0.700270 0.034647 -0.394420 -0.084833 -0.254560 -0.047054 -0.174860 -0.042310 -0.772840 -0.179390 -0.234710 -0.210600 0.269400 -0.301790 0.222490 -0.162440 -0.034815 -0.062125 -0.142950 -0.598980 0.649070 -0.278200 -0.204080 0.247730 0.381530 -0.656440 -0.272150 -0.347920 0.431000 0.132320 0.477960 -0.063092 0.201610 0.044431 -0.066821 0.623790 -0.458810 -0.129760 0.317870 0.097724 0.281230 0.209610 0.061736 0.323210 -0.102970 -0.200350 0.140050 -0.054018 -0.213170 0.034204 -0.577780 0.166040 -0.519040 0.371120 -0.062841 0.164570 -0.043767 -0.162770 0.053525 0.173000 -0.016908 0.117810 -0.104590 0.209330 0.100850 0.209840 -0.110190 0.178360 -0.198120 0.016366 0.508740 0.242080 -0.471870 0.343640 -0.339550 0.246690 -0.715600 0.170520 0.138320 0.040707 -0.186920 0.074262 -0.032760 -0.239780 0.371640 -0.124770 -0.266050 0.377840 -0.217390 0.014103 0.188280 0.119600 0.151110 0.374510 -0.083333 -0.154160 -0.038671 0.294820 -0.133610 0.156140
!jv_lajeng 0.428970 -0.127620 -0.174300 -0.119210 -0.273990 0.035819 -0.377830 -0.622270 -0.759870 -0.110960 0.142480 0.165090 0.287650 0.215600 0.144110 -0.218880 0.156890 -0.248220 -0.068493 -0.219650 -0.291650 0.054522 0.743120 0.315540 0.203490 -0.500080 -0.337840 0.040908 -0.082473 0.343600 -0.303420 0.027427 0.110300 0.191410 -0.028119 -0.202990 0.355870 0.322900 0.248010 -0.421530 -0.339070 -0.669590 0.523820 0.176610 -0.240620 0.003750 0.162610 -0.119390 -0.152850 -0.234830 0.121960 0.056150 -0.317760 0.072560 0.086239 0.513470 0.192310 0.360720 -0.065953 0.037958 0.166260 -0.041920 -0.035523 0.404920 0.054786 -0.271100 0.128140 0.215290 0.129740 -0.170180 0.297040 -0.027270 0.336640 0.664250 -0.090440 0.085740 -0.616730 -0.056505 -0.476570 -0.322400 -0.101140 0.225930 0.058186 0.272640 0.015329 -0.673250 0.124240 0.172010 -0.035981 0.214800 -0.024529 -0.054512 0.047457 0.365750 -0.364320 -0.228630 -0.116340 0.121930 0.173500 -0.236410
!jv_dhateng 0.391770 0.103380 -0.376980 -0.321430 -0.558800 0.403220 -0.507160 -0.148050 -0.505250 -0.291990 0.103220 0.563070 0.163310 -0.043292 -0.165040 -0.336430 0.922240 -0.107630 -0.312240 -0.279760 -0.098405 -0.291100 0.887970 0.312690 -0.002113 -0.471530 -0.155270 -0.170690 -0.120150 0.101960 -0.301570 -0.151350 0.257480 -0.030893 0.044384 -0.179160 0.160070 0.655750 0.494240 -0.349870 -0.299200 -0.295420 0.476150 0.121680 -0.060062 -0.209400 0.057892 0.138540 0.012234 -0.292050 0.085618 -0.095836 -0.202130 -0.131980 0.320180 0.386140 0.201330 0.203000 0.149260 -0.000295 0.437370 0.130360 -0.141300 0.236320 0.087040 -0.338840 0.330240 0.130410 -0.168910 -0.382350 0.265190 -0.281210 0.534910 0.456670 0.043445 0.067215 -0.675010 0.231400 -0.584640 -0.112540 -0.316290 0.083115 -0.252610 -0.012202 0.018452 -0.331800 -0.003298 0.412140 0.165550 0.328990 -0.403500 0.167350 -0.123370 0.678300 -0.384750 -0.559310 0.003894 0.078820 0.143520 -0.285090
!jv_kayata -0.144860 0.230160 -0.187740 -0.443850 -0.212980 0.480060 -0.290070 -0.251350 -0.259440 0.513120 0.167290 0.061456 -0.022237 -0.145960 0.346550 0.137690 -0.372330 0.088991 -0.132780 -0.006582 0.247620 -0.264230 -0.014257 0.011536 0.203350 0.116620 -0.255730 -0.214280 0.460100 -0.515540 -0.004757 0.046203 0.310580 -0.211440 0.118320 0.426830 -0.065149 0.013034 -0.008293 0.194820 0.233070 0.172340 0.319200 0.145170 0.215110 0.107230 0.069598 0.132290 -0.061332 0.156580 -0.188320 -0.099112 -0.241150 0.127450 -0.069935 0.086651 0.175430 0.185480 -0.446620 -0.070938 0.403190 0.045957 0.056289 0.294910 -0.453280 -0.021314 -0.340330 0.099391 -0.072041 0.002455 0.023224 0.127830 0.285570 0.046533 -0.221620 0.073125 -0.175750 0.016242 0.127960 0.079315 -0.045665 0.181830 0.143580 0.050410 -0.371530 -0.337690 -0.101600 -0.061010 0.724570 0.255970 -0.011938 -0.042115 0.083269 -0.406430 -0.266650 -0.165080 -0.518520 -0.362400 -0.001585 0.504810
!jv_jinis 0.012523 0.264870 0.104520 -0.671720 -0.303080 0.557790 -0.520580 -0.346170 0.046907 0.367310 -0.136380 -0.187180 0.132200 -0.214920 -0.002678 -0.073322 -0.133510 0.244670 0.186560 0.001791 -0.012360 0.163840 0.191700 -0.266860 0.119630 -0.034393 -0.169340 0.406290 0.029349 0.129980 0.173990 0.183430 0.292820 -0.065862 0.173190 0.351090 0.038145 -0.012697 -0.120660 0.525150 0.081026 0.225800 -0.049709 0.118920 -0.160200 0.437340 0.281650 -0.011189 -0.248710 0.052294 -0.382180 -0.645940 -0.434160 0.059239 -0.002017 -0.206900 -0.048064 -0.381360 -0.789780 -0.782990 0.095077 0.077234 0.058275 0.275640 -0.254290 0.101560 0.509380 -0.073117 -0.022051 0.112440 0.051205 -0.564820 -0.126920 0.206850 -0.313440 0.012960 -0.228470 -0.129330 -0.031141 0.022360 -0.137850 0.479460 0.206750 -0.186940 -0.317960 -0.730610 -0.095724 -0.158820 -0.046282 0.369260 -0.448640 0.061801 -0.040733 0.071516 0.030963 0.197080 -0.457480 -0.390760 -0.092870 0.007024
!jv_kali 0.099862 0.320400 -0.065314 0.036315 -0.255490 -0.063978 -0.163200 -0.161920 -0.126190 0.076121 -0.369010 0.101270 0.543610 0.297450 -0.407160 -0.113110 0.101880 0.022273 0.003076 -0.138770 -0.466800 -0.317740 0.142760 0.650260 0.056395 0.214410 -0.114060 -0.392350 0.922280 0.293610 0.354680 -0.044133 0.346900 -0.127060 -0.193640 0.164590 -0.446240 0.368410 0.335880 0.025570 0.305820 0.082731 0.397070 -0.851860 0.219840 0.113150 0.556080 0.247610 -0.278450 0.117740 -0.524470 0.043099 0.120400 0.254140 -0.106820 0.139380 0.616880 -0.403460 -0.593010 0.096822 -0.188420 0.005410 -0.096994 0.235960 0.248780 0.196730 0.139420 0.620990 0.201570 0.209020 -0.289680 -0.161920 0.440660 -0.044865 -0.401370 0.294140 0.147930 0.039793 -0.077728 0.099797 -0.439180 0.210180 0.146080 -0.241960 0.373740 -0.416260 0.267480 -0.565200 -0.253850 0.563590 0.014261 -0.782690 0.000312 -0.019922 0.110950 0.044759 0.259300 0.172510 0.158480 0.272390
!jv_jakarta 0.105310 0.183060 0.222790 -0.132080 -0.254510 0.276140 -0.258420 0.073470 -0.544230 -0.024831 0.452530 0.223420 -0.167250 -0.001523 0.633170 -0.393920 -0.162960 0.070311 0.026813 -0.648230 -0.188860 0.136130 -0.148820 -0.084377 -0.030288 -0.427500 -0.164890 0.145560 0.812770 0.214120 -0.187030 0.048218 -0.508440 0.258390 0.354150 0.417510 -0.760880 -0.222350 0.308840 -0.341890 0.105090 0.157940 0.439220 -0.036578 0.325760 -0.237450 0.225650 -0.724570 0.398520 0.058447 -0.378820 -0.117190 -0.052577 -0.063710 0.514550 0.218990 0.121280 -0.395990 0.164380 0.044816 0.250500 0.224390 -0.606230 0.137410 -0.261140 -0.396730 0.066195 0.151430 -0.215120 0.030810 0.118260 -0.385970 0.488970 0.198310 -0.579200 0.263940 -0.136630 0.002798 0.133840 -0.350400 -0.464500 0.136750 0.211490 0.003551 0.291660 -0.084032 -0.348080 -0.365450 -0.087194 0.266740 0.405890 0.332540 0.144770 0.195380 -0.396550 -0.413360 0.101460 -0.296000 0.204530 -0.500360
!jv_saiki 0.068900 0.043606 -0.240520 -0.396650 0.167290 0.297650 -0.148060 -0.288330 -0.287710 0.300320 -0.227450 0.155000 0.137550 0.243950 0.358360 0.007964 -0.401310 -0.138490 -0.123210 -0.132810 0.187400 -0.047426 -0.150830 0.072481 0.147870 -0.262300 0.174700 0.144100 0.307250 -0.023199 0.414270 0.435040 0.226120 0.149180 -0.348380 0.480280 -0.109840 -0.135080 -0.004931 0.164320 0.545580 0.178000 0.529580 0.050925 0.209400 -0.106070 0.430260 -0.039521 0.081809 -0.175000 -0.302070 -0.173820 0.037377 -0.252900 -0.413870 -0.221070 -0.055599 0.119640 -0.673530 0.402730 -0.093614 -0.123320 0.068663 0.507880 -0.173310 -0.039979 0.209730 0.428970 -0.185580 -0.002360 0.002057 0.078799 0.193330 -0.334260 0.380250 0.192910 -0.053997 0.082484 0.133670 0.074235 -0.297170 -0.011277 0.069165 -0.115450 0.130980 -0.024594 0.057587 0.287400 0.093948 0.080686 0.408500 -0.104570 0.155860 0.014073 -0.213180 -0.041386 -0.376490 -0.588200 -0.118820 -0.111870
!jv_sarta 0.043557 0.238960 -0.023678 -0.383270 -0.259930 0.142430 -0.158390 -0.262620 -0.352310 -0.102230 0.016875 0.073880 0.321040 -0.130140 0.248900 0.030203 -0.026774 0.076067 -0.266990 -0.193140 -0.034152 -0.186600 0.271600 0.079123 0.163050 -0.052318 -0.275020 -0.296520 0.197240 -0.286290 -0.030586 0.093385 0.323020 -0.261210 -0.035877 0.146040 -0.058548 0.127210 0.344210 -0.232860 0.177110 0.129070 0.108960 0.529540 -0.205720 0.179890 0.212040 -0.066329 -0.135330 -0.184780 -0.098033 -0.202110 -0.221450 0.198040 -0.014324 0.230950 0.040303 0.060001 -0.023677 -0.108030 0.106080 0.145940 -0.117490 0.297190 -0.391010 -0.170010 0.052383 0.152340 0.260830 -0.370730 -0.085963 0.067699 0.313060 0.602780 -0.214420 -0.178470 -0.329450 0.214280 0.079335 -0.002114 -0.114850 0.164730 -0.049574 0.015029 0.007978 0.015519 -0.146920 -0.034388 0.087785 -0.303830 0.010125 0.234160 0.038541 -0.014755 -0.015720 -0.122550 -0.453610 -0.172010 0.235540 0.366900
