1791 100
!fr_ing 0.274390 0.122490 0.179260 -0.233930 -0.170930 0.120740 -0.029434 -0.283800 -0.284850 0.052943 -0.163410 0.022108 0.272220 0.112370 0.109310 -0.194740 0.254670 -0.216430 0.057907 -0.252220 0.094065 -0.198480 0.237680 0.155520 0.239230 0.110340 0.027627 -0.102720 0.328480 0.037259 0.292290 0.198400 0.156700 -0.069422 0.215300 0.077423 -0.058446 0.272390 -0.071298 -0.297230 0.028681 0.033490 -0.023285 0.041237 -0.118700 0.160330 0.184050 -0.372340 -0.060587 0.032864 -0.197850 -0.514100 0.203730 -0.019490 -0.089861 0.245230 0.337700 0.071822 -0.173470 0.197730 0.311020 0.060914 -0.141920 0.191120 -0.147280 0.090238 0.148920 0.233970 -0.229460 0.017503 -0.048268 0.270380 0.280800 0.279080 -0.089476 -0.138820 -0.364520 0.341590 0.023056 0.053297 -0.026320 -0.066703 -0.163850 0.124430 0.105790 -0.148800 0.295960 0.111070 -0.027611 0.239370 0.050758 -0.105860 0.300200 0.071294 -0.166960 -0.124370 -0.245230 -0.042740 -0.190130 0.229000
!fr_lan -0.025314 0.206380 0.229570 -0.212510 -0.116550 0.229640 -0.150510 -0.174420 -0.283680 -0.021268 -0.087549 -0.008727 0.172550 -0.066223 0.155660 -0.097526 0.075835 -0.150730 -0.236600 -0.283230 0.065706 -0.186380 0.142380 0.120150 0.163640 -0.040894 -0.207270 -0.266180 0.166090 -0.256630 0.074949 0.005660 0.205270 -0.081085 0.121750 0.017788 -0.065358 0.072942 -0.084249 -0.201540 0.017379 0.029273 0.142810 0.352350 -0.039982 0.244390 0.295320 -0.142450 -0.270760 -0.179390 -0.225890 -0.331630 0.026438 0.170050 -0.099748 0.204620 0.181250 0.086840 -0.182060 -0.008356 0.036608 -0.162190 -0.022703 0.218990 -0.167480 0.120360 0.134750 0.227080 0.000802 -0.208240 -0.035756 -0.131400 0.354020 0.260760 -0.083775 0.010612 -0.238630 0.084670 0.062883 -0.026460 -0.081537 0.016581 0.017206 -0.074170 -0.030835 -0.160800 0.031529 0.185000 -0.014708 0.030744 -0.035745 -0.117540 -0.078084 -0.022831 -0.030437 -0.030312 -0.347490 -0.165260 0.057447 0.106550
!fr_kang 0.064026 0.037667 -0.052602 -0.268250 -0.171620 0.474380 -0.098993 -0.301030 -0.020819 0.244430 -0.045621 0.252940 -0.117940 0.030179 0.310990 -0.336160 -0.189550 -0.154700 0.101290 -0.259690 0.101360 -0.176550 -0.028374 0.017339 0.189960 0.174710 -0.233760 -0.321130 0.201990 -0.141490 0.389240 0.017170 0.673510 0.033260 -0.134410 0.019129 -0.244560 0.150000 0.063273 0.122570 0.189220 -0.033620 0.293470 0.170620 -0.069005 0.013306 0.455020 -0.166960 -0.266950 -0.066059 0.006188 0.061767 -0.047557 0.022672 -0.085482 0.142050 0.021923 0.108590 -0.347700 -0.083449 -0.012591 -0.211840 -0.149910 0.501910 -0.256660 0.150010 0.176450 0.006182 -0.041986 -0.006036 -0.103570 0.073838 0.329240 0.038566 -0.025605 0.111820 -0.001014 0.288300 0.172960 0.115980 0.107640 0.105010 -0.161120 -0.138220 -0.075287 -0.135780 -0.058714 -0.077381 0.092113 -0.023668 0.080074 -0.130210 -0.040790 -0.346770 -0.291360 0.022016 -0.535830 -0.509720 0.231920 0.346270
!fr_sing 0.228630 0.090045 0.066506 -0.037147 -0.112840 0.391360 0.036620 -0.155850 0.144330 0.125940 0.078574 0.065789 -0.131670 0.065647 0.365300 -0.118090 -0.260770 -0.077829 -0.218380 -0.369810 0.151090 -0.221100 -0.110230 0.274590 -0.075108 0.058808 0.062310 -0.151820 0.237160 -0.303100 0.290040 0.107550 0.159690 -0.033008 -0.456330 0.120120 -0.249940 0.241210 -0.140910 0.189970 0.341290 0.058132 0.276360 0.229620 0.325040 0.122680 0.595870 0.088062 -0.051087 -0.113850 -0.161160 0.014397 0.034972 -0.060300 -0.298720 -0.101620 -0.012383 0.096894 -0.566370 0.029873 -0.004378 -0.348480 0.043592 0.246490 -0.097898 0.063506 0.266530 0.099489 -0.051457 -0.141030 0.124310 0.027311 0.438540 -0.007381 0.115160 0.045071 -0.113330 0.187420 0.129510 0.178960 -0.118190 -0.098742 -0.219010 -0.018096 -0.057059 -0.261170 -0.053014 0.034452 0.058227 0.024516 -0.132000 -0.073543 0.360140 -0.029266 -0.383590 0.061936 -0.367790 -0.355110 0.288550 0.282550
!fr_the 0.207180 0.258840 0.427470 0.028782 -0.267860 0.740460 -0.361990 0.100890 -0.181430 0.155950 0.513990 0.246650 0.119420 -0.633520 -0.100170 -0.225440 0.462060 -0.014168 0.354180 -0.381120 -0.327550 -0.229900 0.048938 0.053468 0.825660 -0.421310 0.161380 0.077980 0.181460 0.342740 -0.333800 -0.226440 -0.228830 -0.337320 -0.305780 0.333030 0.562530 -0.665830 -0.152810 0.088658 -0.001602 0.228080 0.311420 -0.309910 -0.207570 -0.137130 0.559230 -0.082161 0.168710 0.213360 0.048507 0.179690 -0.039924 0.384910 -0.431610 0.023770 0.067227 -0.209950 -0.322090 0.369160 0.149200 -0.187020 0.399620 -0.316910 0.141560 0.290030 -0.293630 0.010642 -0.010713 -0.242760 0.110250 0.050140 0.132120 -0.193180 0.065241 -0.077196 -0.108340 0.259850 -0.166190 0.148050 -0.593770 -0.525500 -0.026626 0.447190 -0.061961 -0.302640 0.147620 0.131880 0.733410 0.270220 -0.012077 -0.041999 -0.083313 -0.341320 -0.399360 0.472560 -0.145810 0.168410 0.099399 -0.029090
!fr_- -0.047548 -0.060135 0.252090 -0.055969 -0.155850 0.193940 -0.211280 0.055536 0.106560 -0.208400 0.265990 -0.029926 0.013368 -0.311210 0.298190 -0.641900 0.150270 -0.074734 -0.279770 -0.220120 -0.082700 0.029134 0.207220 -0.203710 0.168180 -0.434190 -0.192190 -0.342410 0.338930 0.340430 -0.186630 -0.199700 -0.438070 -0.111090 0.281140 0.181830 0.186530 0.147400 0.120660 0.001385 -0.215160 -0.206150 -0.194170 -0.292330 0.037764 0.223200 0.061572 -0.230810 0.132660 -0.135460 -0.399290 -0.339900 0.002312 0.443420 -0.595620 -0.458450 0.237550 -0.193950 -0.178800 -0.064954 0.340500 0.222010 0.250500 0.154170 0.184950 -0.141200 -0.006748 0.328530 0.084553 -0.108230 0.065335 -0.102500 0.171570 -0.062035 -0.399280 -0.083395 0.144930 0.208840 0.023764 0.108820 -0.390390 -0.009433 -0.031864 0.674840 0.274980 -0.090319 -0.226400 0.142770 0.190980 0.178940 0.189940 -0.041700 0.087497 0.035921 -0.128320 -0.060841 -0.035228 -0.335630 0.173050 -0.103010
!fr_ana 0.415750 -0.111410 -0.054437 -0.170170 0.035426 0.278900 -0.021846 -0.426410 0.133510 0.161090 -0.084275 0.001972 -0.004544 0.175080 0.626220 -0.021203 -0.130720 -0.125860 0.004841 -0.157150 0.336270 -0.402440 0.000034 0.021388 -0.100620 0.141920 0.257720 -0.247320 0.341260 -0.070824 0.332920 0.127710 0.402740 -0.075739 -0.076839 0.284110 -0.456110 0.058210 -0.028681 -0.035034 0.415660 0.171460 0.257470 -0.000468 0.008685 0.052739 0.390730 -0.080906 -0.035573 0.105720 -0.146850 -0.015959 0.147210 -0.048712 -0.327040 0.073226 0.095735 0.275630 -0.526380 0.127450 0.222850 -0.057945 0.103610 0.423590 -0.114680 0.136330 0.169390 0.188850 -0.099182 0.040693 0.104740 0.084385 0.396720 -0.102920 0.024777 0.053804 -0.110260 -0.005635 -0.049831 0.101140 -0.136000 -0.315690 -0.012947 0.176250 -0.006235 -0.189080 0.070219 -0.184310 0.222340 0.015903 -0.038220 -0.296170 0.538920 -0.231230 -0.445850 -0.113520 -0.424720 -0.337990 0.010965 0.025288
!fr_of 0.149020 0.226880 0.561860 -0.200180 -0.094706 0.493480 -0.366280 -0.144310 -0.166640 0.004745 0.705490 0.360760 0.218900 -0.662010 -0.122000 -0.379130 0.495230 -0.144550 0.272130 -0.475930 -0.223260 -0.288120 0.089845 0.036835 0.809810 -0.279550 -0.006531 0.017348 0.109190 0.432030 -0.493490 -0.231250 -0.221550 -0.158280 -0.422770 0.190410 0.639190 -0.524750 0.041768 0.010716 -0.016622 0.168620 0.168190 -0.250650 -0.144110 -0.137080 0.489990 0.085572 0.192130 0.426060 -0.314450 0.034998 -0.085213 0.381980 -0.671880 -0.029069 0.015078 -0.083067 -0.390600 0.292150 0.004076 0.010670 0.244900 -0.238680 0.084264 0.190370 -0.161860 -0.105690 -0.195510 -0.397060 -0.039549 0.078953 0.004036 -0.157940 0.086736 0.001691 -0.037188 0.279510 -0.108680 0.205840 -0.572040 -0.395790 -0.177570 0.428350 0.035381 0.064539 0.031276 0.242150 0.749860 0.258000 -0.191270 0.217340 -0.137440 -0.377450 -0.451180 0.260960 -0.205020 0.228900 0.006697 -0.140350
!fr_karo 0.067940 0.124270 -0.051628 -0.254730 0.136350 0.435380 -0.142930 -0.043441 0.005525 0.152170 0.147530 0.191780 -0.014812 0.029888 0.538140 0.091752 -0.273500 0.070551 -0.170640 -0.153040 -0.048430 -0.436070 -0.199420 0.194220 -0.219800 0.098058 -0.282550 -0.463550 0.440750 -0.163770 0.274120 -0.100690 0.415540 0.384720 0.078308 0.275670 0.212220 0.234520 -0.016970 -0.001220 0.375850 -0.150090 0.625700 -0.079864 0.141030 -0.076613 0.513820 -0.114980 0.041845 -0.416400 -0.125010 -0.083143 0.499440 -0.177740 -0.173690 0.000677 0.301090 0.470890 -0.437290 -0.228600 0.112140 -0.478990 0.307300 0.289370 -0.443470 0.019369 -0.179050 0.145650 -0.082346 -0.295240 -0.098901 -0.017428 0.431060 0.013856 0.129290 -0.010394 -0.251010 -0.080161 0.415100 -0.082490 -0.044719 -0.504980 -0.075134 0.135380 0.086146 -0.139040 0.043034 -0.308500 0.125880 0.122300 -0.155780 -0.385060 0.132580 -0.200290 -0.338960 -0.142640 -0.284290 -0.424740 0.395090 0.432760
!fr_salah 0.351660 -0.150250 -0.283820 -0.652850 0.223480 0.378200 -0.486990 -0.138010 -0.153780 0.045717 -0.056592 -0.077471 0.050686 -0.011398 0.089774 -0.173050 0.035410 0.522860 -0.153920 -0.437870 -0.058128 -0.184100 0.309300 0.097221 0.649260 -0.065713 0.078420 0.169560 0.249970 0.123200 0.453230 -0.091818 -0.020657 -0.206220 0.186050 0.290780 0.018073 0.198780 -0.091629 -0.354050 0.031818 0.264390 -0.383430 -0.059855 -0.187280 -0.021416 0.484150 -0.230870 -0.284100 0.271380 -0.190570 -0.056769 -0.325660 0.095702 -0.129300 0.309770 -0.009629 0.034589 -0.178790 -0.068951 0.147980 -0.900970 -0.080436 0.073058 -0.179100 0.148880 0.051855 0.376100 -0.116900 0.244140 -0.021161 -0.360540 -0.007826 -0.314330 -0.312430 0.025106 -0.142380 0.201940 0.080653 -0.174100 0.185370 0.609560 -0.115150 0.333820 0.220310 0.056918 0.348770 0.174010 -0.269140 0.476370 -0.101100 -0.075524 0.478450 0.123450 -0.040266 0.114370 -0.609340 -0.435150 -0.051614 -0.121180
!fr_and 0.187290 0.387670 0.413520 0.063131 -0.263620 0.748480 -0.648760 -0.127010 -0.207990 -0.072481 0.484060 0.276610 0.126480 -0.841230 0.080523 -0.109360 0.320540 -0.160130 0.456690 -0.257570 -0.130970 -0.261620 0.042507 0.014229 0.523560 -0.486070 -0.024727 -0.019825 0.084447 0.283640 -0.334770 -0.202970 -0.220720 -0.158010 -0.268070 0.445260 0.696890 -0.781240 0.037516 -0.034962 -0.159910 0.355440 0.429570 -0.395270 -0.138260 -0.278120 0.643780 0.186270 0.058565 0.265480 -0.334510 0.091510 -0.116950 0.507430 -0.500110 -0.127410 0.044534 -0.060690 -0.408830 0.320370 0.082990 -0.056884 0.308030 -0.122050 0.011646 -0.058770 -0.219210 -0.035379 -0.214430 -0.303120 0.019699 0.160450 0.201080 -0.419210 0.036910 0.038147 -0.062324 0.161000 0.020261 0.144070 -0.674100 -0.659940 -0.170160 0.524840 0.086907 -0.274020 -0.182830 0.165750 0.852980 0.189280 -0.219390 -0.167050 -0.265720 -0.485430 -0.315240 0.116370 -0.143710 0.027946 0.155220 -0.095850
!fr_a -0.174410 0.499780 0.338560 0.123250 -0.318020 0.476570 -0.103810 0.055622 -0.178650 0.176540 0.494070 0.064545 0.207930 -0.570440 0.024564 -0.349510 0.285940 0.080086 0.236050 -0.268010 0.021105 -0.073436 0.116750 0.028629 0.387000 -0.509760 -0.031774 0.400830 0.243160 0.402830 -0.287650 -0.211660 0.160380 -0.112270 0.047554 0.178700 0.414750 -0.357610 0.246540 0.155940 0.245920 0.643220 0.322340 -0.182340 -0.245430 0.063314 0.377650 0.139100 0.080876 0.196500 0.043947 0.019862 -0.211580 0.275010 -0.319020 -0.103040 0.142510 -0.078683 -0.358810 0.039965 0.112320 -0.199610 0.918280 -0.476170 0.205430 0.005144 -0.231860 -0.130270 0.032215 -0.221920 0.175320 0.346330 0.225990 -0.200980 -0.093918 -0.074114 -0.092759 0.420300 -0.193610 0.079699 -0.303450 -0.098941 0.017061 0.568100 0.160210 -0.526550 -0.146860 0.021942 0.581200 -0.330320 0.087166 0.015713 0.163810 -0.256920 -0.585830 0.371900 -0.147300 0.202710 0.021283 -0.177270
!fr_in -0.013768 0.213880 0.186910 0.009275 -0.231960 0.399300 -0.365070 -0.090523 -0.244950 0.060966 0.627860 0.270530 0.238110 -0.559570 -0.228480 -0.175070 0.467000 -0.065409 0.645930 -0.411140 -0.104340 -0.424440 0.041191 0.117770 0.352160 -0.400200 0.083831 0.140430 0.385210 0.188180 -0.465480 -0.091092 -0.246340 0.007791 -0.242280 0.700530 0.667900 -0.184010 -0.302730 0.134640 -0.081070 0.280000 0.107970 -0.219600 -0.076609 -0.048277 0.626080 0.204570 -0.214050 0.383310 -0.099597 -0.601590 -0.172350 0.504660 -0.487900 -0.204350 0.301230 -0.118280 -0.338630 0.515070 0.226260 0.174530 -0.140260 -0.392720 -0.338730 -0.027854 -0.235260 0.187940 0.012796 -0.372990 0.275990 0.204270 0.460030 -0.503570 0.083697 -0.027359 -0.161970 0.356010 0.104630 0.208770 -0.604050 -0.473790 -0.064817 0.491760 0.625400 -0.685990 0.609480 0.110020 0.994220 0.431460 -0.199510 -0.105430 0.073444 -0.272910 -0.661890 0.127300 0.019758 -0.006724 0.061262 0.131120
!fr_to 0.258060 0.416800 0.370950 0.105660 -0.370280 0.850220 -0.699290 0.091054 -0.411160 0.304520 0.628140 0.157840 0.079718 -0.868870 -0.037920 -0.223180 0.255510 -0.045125 0.209760 -0.206650 -0.429680 -0.341400 0.619080 0.208550 0.376570 -0.199060 -0.051962 -0.020018 0.131880 0.579600 -0.096756 -0.323650 -0.296180 -0.259500 -0.162070 0.286510 0.766340 -0.633180 -0.201750 -0.028322 0.063793 0.250140 0.268650 -0.571510 0.203880 -0.328270 0.564540 0.138470 -0.059958 0.218390 0.218560 0.274910 -0.008193 0.527070 -0.646070 -0.142600 0.206230 -0.455390 -0.340560 0.460330 0.280810 0.073608 0.694820 -0.273660 -0.372920 -0.017122 -0.226400 -0.194480 -0.062953 -0.278270 0.224760 0.094431 0.424810 -0.478010 -0.135470 -0.062308 -0.240290 0.181880 -0.027748 0.055016 -0.689540 -0.632110 0.070950 0.612030 0.294710 -0.515300 0.075607 -0.015437 0.703260 0.029043 -0.362020 0.101870 -0.121460 -0.578720 -0.438280 0.616630 0.030479 0.112470 0.520210 -0.034894
!fr_dan 0.019306 -0.018663 0.060239 -0.032491 0.002539 0.225780 -0.410880 -0.240450 -0.716610 0.306080 0.181450 -0.047702 -0.031070 -0.271100 0.637310 -0.582260 0.191330 -0.591010 0.470830 -0.407880 0.319690 0.080293 -0.142430 -0.066960 0.224640 -0.535340 -0.353610 -0.199300 0.351460 -0.422520 -0.005916 0.018912 0.172310 0.092393 0.391960 0.654850 0.194820 0.335940 0.326120 -0.125910 -0.007721 -0.277240 -0.028243 0.070926 -0.162620 0.043659 0.252910 0.187410 -0.232350 -0.110230 -0.312590 0.179330 0.224350 0.147040 0.207650 0.064193 0.575420 -0.269230 -0.136600 0.277150 0.034425 -0.134380 0.128860 0.055857 -0.538160 0.065509 -0.121480 0.491310 0.379350 0.105530 0.181660 -0.112830 0.137990 -0.076316 -0.149900 -0.126140 -0.414700 -0.019681 0.232200 0.033031 -0.248220 0.081818 -0.291610 0.212650 0.364810 -0.109400 -0.489310 0.025912 0.572200 -0.262750 -0.110260 0.033862 -0.530800 -0.174430 -0.252830 -0.425360 -0.134770 -0.143230 0.216890 -0.457880
!fr_film -0.008491 0.349140 0.190820 -0.654800 -0.260490 0.645840 0.143760 0.133960 -0.358340 0.199110 0.212180 -0.153320 -0.072760 0.048130 0.505200 -0.068550 0.515860 -0.243550 0.361820 -0.540440 0.156120 -0.319780 -0.294890 0.447390 0.572120 0.071956 -0.391560 -0.224740 0.179890 -0.033659 -0.450110 -0.021880 0.334370 0.180410 -0.207670 0.620420 0.008165 -0.550530 -0.281610 0.047103 0.262970 -0.344320 0.166700 -0.240790 -0.134280 0.236800 0.490710 -0.489730 0.004910 0.631360 0.191170 0.133750 0.159940 -0.206630 0.236980 0.105480 0.289870 -0.224190 -0.077816 0.348580 -0.306660 -0.002033 0.411370 0.265460 0.549030 0.094910 0.171740 0.217910 -0.012372 -0.103120 -0.179030 -0.115770 0.241140 -0.151380 -0.611990 0.162680 -0.031352 0.395380 -0.100640 -0.544170 0.103200 -0.008054 0.415220 0.334550 -0.175990 -0.555950 0.063517 0.210760 0.022289 0.317760 0.248050 0.439300 0.008115 -0.627490 0.338690 -0.272210 0.329090 0.014640 -0.313920 -0.080487
!fr_f 0.259030 0.538940 0.501690 0.101310 0.452560 0.571460 -0.741080 -0.353810 0.142260 0.497360 -0.443820 -0.304010 0.076030 -0.516330 -0.191540 -0.030836 0.269570 0.204170 0.024449 -0.335040 0.008181 -0.116710 0.236890 0.207830 -0.217760 -0.590100 0.172470 -0.061094 0.296930 1.459800 0.091942 -0.883150 0.301530 0.050665 0.132220 0.293890 0.594170 -0.176310 0.829360 0.373520 -0.749250 -0.135350 0.840020 -0.522460 0.090316 -0.366600 0.359240 0.329690 -0.147410 0.037458 0.075878 -0.747490 -0.062610 0.725130 0.001731 -0.508160 -0.269670 -0.357670 -0.553600 0.169120 0.023911 -0.424990 0.619060 -0.081378 0.019377 0.293300 0.462170 0.067320 0.209760 -0.692490 0.409040 0.303280 -0.195700 0.257620 -0.395130 0.151360 -0.327310 0.526410 0.142920 -0.658500 -0.453760 -0.084022 0.283350 0.519230 0.635920 -0.443030 -0.511920 -0.435890 0.906670 -0.354720 0.523370 -0.102740 0.626380 -0.323280 -0.099983 0.495860 -0.003269 0.699950 -0.316340 -0.263270
!fr_di 0.215870 0.262890 0.205740 -0.060342 -0.076486 0.173650 -0.604070 0.230800 -0.507520 0.084160 -0.048037 -0.416770 -0.062049 -0.013853 0.606110 -0.390000 0.117910 -0.359890 0.788280 -0.046539 0.409770 0.000354 -0.248120 -0.181170 0.257830 -0.325180 -0.348590 -0.288210 0.227080 -0.413430 -0.043309 0.131380 0.173860 -0.075339 0.199230 0.642260 0.043714 0.489740 0.242230 -0.074805 0.159030 -0.239530 0.216730 -0.167260 -0.323580 -0.295240 0.195120 0.218500 -0.142930 0.191020 0.061202 0.122670 0.377910 0.038646 0.225910 -0.162250 0.559910 -0.145930 -0.309730 0.165840 0.077383 0.026267 0.125540 0.129310 -0.533080 0.140210 -0.052891 0.440350 0.487270 -0.262490 0.190990 0.312460 0.076769 -0.067594 -0.177850 0.336780 -0.491890 0.041720 -0.106970 0.327250 -0.091837 0.199950 -0.297510 0.368730 0.310810 -0.243750 -0.282370 -0.140320 0.482050 -0.001872 -0.026799 -0.253080 0.170120 -0.257820 -0.270600 -0.082511 -0.151790 -0.216030 -0.209090 -0.523650
!fr_data 0.319430 0.604300 0.336390 0.257200 0.267670 1.585800 -0.151200 0.060244 -0.463100 0.079511 -0.138970 -0.009852 0.205530 -0.233920 -0.195190 -0.226070 0.450670 0.007611 0.407960 -0.504480 0.200310 0.422320 0.291110 0.771910 -0.021112 -0.281440 0.072367 -0.155270 -0.191000 0.274930 0.029113 -0.182560 0.178560 -0.188200 -0.176750 -0.181090 -0.885220 -0.614500 0.133950 -0.182100 -0.032446 -0.320530 0.068718 -0.434570 0.433130 0.066100 0.196690 0.404100 -0.138580 0.164680 -0.402990 -0.241490 -0.289550 -0.234940 -0.861650 -0.152410 0.435030 -0.196500 0.466560 0.185410 0.064822 0.217690 -0.335850 -0.472100 -0.229370 0.072761 0.090884 -0.627290 -0.168420 0.185830 -0.390610 0.044892 0.318680 -0.510900 -0.100600 -0.047176 -0.141500 0.247190 0.099755 0.530740 -0.345610 -0.475900 0.148370 0.106900 0.241240 -0.713820 -0.318070 0.070341 0.070151 -0.429560 -0.057901 0.434790 -0.133580 0.080318 0.106010 0.475790 -0.222890 -0.042017 -0.615470 -0.067072
!fr_for 0.170170 0.383770 0.489540 -0.016558 -0.057759 0.823570 -0.534570 0.141730 -0.372710 -0.119840 0.633090 0.462140 0.233660 -1.207600 -0.309160 -0.377360 -0.002928 -0.198330 0.474260 -0.687670 -0.083549 -0.285770 0.265500 0.145570 0.336560 -0.395150 -0.082409 -0.053411 -0.103400 0.481330 -0.651010 -0.374990 -0.171230 0.075536 -0.250990 0.855880 0.439440 -0.227510 -0.022013 0.102970 -0.233370 0.376780 0.643210 -0.399890 0.104880 -0.282420 0.506330 0.212310 -0.130380 0.282180 -0.056799 0.282760 -0.344980 0.448560 -0.443700 -0.179500 0.209780 -0.067176 -0.261610 0.390630 -0.063117 0.061134 0.424600 -0.087999 -0.080632 -0.054741 -0.344070 0.012518 -0.180800 -0.363350 0.065857 0.166920 0.116040 -0.379240 -0.119920 -0.042309 -0.182350 0.223230 0.173190 0.060962 -0.528010 -0.787630 -0.244390 0.541650 0.164910 -0.477380 0.365490 0.142210 0.556630 0.160340 -0.253600 0.381700 -0.327980 -0.480160 -0.436870 0.284510 -0.148840 0.193750 0.238840 -0.203100
!fr_is 0.209740 0.463620 0.440920 0.055973 0.039735 0.952220 -0.275270 -0.130530 -0.072379 0.446460 0.763420 0.536660 0.124270 -1.055200 0.004348 -0.355840 0.047818 -0.000168 0.401410 -0.450670 0.022925 -0.556650 0.286600 -0.003927 0.406310 -0.501330 0.098142 0.121700 0.328160 0.639600 -0.373610 -0.535370 0.059069 -0.094640 -0.160640 0.434710 0.441410 -0.528490 -0.272000 0.070558 0.021256 0.522460 0.328800 -0.244050 -0.143560 -0.326450 0.585140 0.018776 -0.465630 0.138820 0.239370 0.024558 -0.152750 0.502680 -0.290490 -0.092065 0.059407 -0.141110 -0.491610 0.747960 0.113160 0.091123 0.432150 -0.257740 -0.107360 0.079186 -0.324610 -0.119830 0.493480 -0.275320 0.458950 0.183750 0.316740 -0.765720 -0.012105 0.334740 -0.428460 0.225770 0.077081 0.356950 -0.938180 -0.630210 -0.224600 0.780100 0.216680 -0.635640 0.006346 -0.137020 0.860770 0.139060 -0.135630 -0.165090 -0.126980 -0.379130 -0.549170 0.533060 -0.005221 0.119910 0.155950 -0.198530
!fr_yang 0.299210 0.082347 0.269530 -0.089179 0.157140 0.344690 -0.672630 0.086617 -0.515720 0.339990 -0.008191 0.161050 0.013222 -0.196540 0.587970 -0.782290 0.015494 -0.519200 0.694830 -0.361160 0.276420 0.143410 -0.133300 -0.042609 0.328510 -0.603700 -0.415480 -0.319850 0.203410 -0.405700 -0.024570 0.026051 0.012281 0.135570 0.084504 0.365430 0.145820 0.583710 0.478790 0.047328 0.019439 -0.540050 -0.259860 -0.204900 -0.088986 -0.111240 0.318550 0.298510 -0.591070 -0.123780 0.165600 0.303990 0.118300 0.279540 0.454490 0.058214 0.770930 -0.606020 -0.538090 0.193750 -0.199960 -0.185430 0.147290 0.239190 -0.584330 0.181620 0.050605 0.294710 0.587820 -0.033494 0.166490 0.145390 0.169270 -0.131060 0.193890 0.151030 -0.490260 0.045895 0.191860 0.225540 -0.317350 0.547870 -0.446710 0.086834 0.234560 -0.073009 -0.335290 -0.174580 0.449790 -0.277130 -0.373360 0.127080 -0.247770 -0.090839 -0.404440 -0.244340 -0.114040 -0.199100 0.087568 -0.375800
!fr_master 1.089700 0.789240 0.248020 -0.348070 0.391770 1.623700 -0.050320 -0.083060 -0.527480 -0.551590 -0.575560 0.446080 -0.287950 0.105000 0.413430 0.324280 0.914190 0.062620 1.019400 -1.005900 -0.221210 -0.105740 0.541240 0.654580 0.842460 -0.600160 -0.178810 -0.164000 -0.345970 0.946630 -0.645820 0.142460 0.224970 -0.434860 0.202070 0.079166 -0.258230 0.220810 -0.255900 -0.314480 -0.500670 0.291670 0.200640 -0.754310 0.162540 -0.273940 0.833150 0.346260 0.382910 0.209810 -0.318640 -0.273880 0.127810 -0.389260 -0.667340 0.133310 0.768540 0.035543 0.597110 0.560400 0.985290 -0.084224 -0.573740 -0.088556 0.334070 0.232730 0.236180 -0.141160 -0.614410 0.158130 -0.153740 0.648080 0.220570 -0.665050 -0.092285 -0.360480 -0.284490 0.475590 0.142950 0.857660 -0.542220 -0.347100 -0.203700 0.504750 0.258970 -0.602350 -0.147180 0.529210 0.340910 -0.457040 -0.184980 0.330900 0.551600 -0.155500 0.215030 0.182870 -0.448260 0.212050 -0.263960 -0.438340
!fr_doc 0.383290 0.370820 0.367720 -0.057984 -0.128090 1.885000 -0.344370 0.262420 -0.440080 -0.255450 -0.905810 0.276140 -0.153450 0.394490 0.742840 0.234430 0.383920 0.384530 1.089000 -0.197400 0.302210 0.505870 0.483200 0.814220 0.573040 -0.894030 0.040507 0.035734 0.053986 0.619140 -0.139430 0.196630 0.080498 -0.204420 0.051054 -0.013829 -0.345280 -0.418520 -0.299420 -0.345660 -0.993660 0.112810 0.104450 -0.351710 0.193510 0.274660 0.306100 0.722430 0.171490 0.231890 -0.083711 0.040937 0.160320 -0.460900 -0.904960 0.249420 1.008800 -0.145030 0.157770 0.427350 0.615710 0.258450 -0.316560 -0.415020 -0.303650 -0.140850 -0.471160 -0.786830 -0.727780 0.879820 -0.304370 0.355290 0.334230 -0.463130 -0.107920 -0.336460 -0.583850 0.722640 0.418680 0.891310 -0.146520 -0.426510 0.000291 0.579390 1.134300 -1.409200 -0.826380 0.412660 0.612800 -0.288280 -0.428950 -0.079323 0.154610 -0.536170 -0.500340 0.719290 -0.552190 -0.322270 -0.060828 -0.654520
!fr_de 0.148720 0.375280 -0.210470 0.026387 -0.225600 0.141590 0.040118 -0.144720 0.108520 0.033033 0.512360 -0.010535 0.287900 -0.552700 -0.166510 0.283050 0.154680 0.171930 -0.289660 -0.559450 -0.036877 0.091905 -0.043596 0.347110 0.365180 -0.509970 -0.061064 0.036988 0.303310 0.494940 -0.209210 0.127080 0.099261 -0.154670 -0.011214 0.079949 0.504290 -0.343160 0.068617 -0.602050 0.472120 -0.207020 0.325530 -0.015516 -0.235620 -0.429740 0.594850 0.267440 0.120390 0.523060 -0.881670 -0.152770 0.181980 0.151430 0.198040 -0.425330 -0.230330 -0.012359 0.320220 -0.146510 0.267330 0.039438 0.003656 0.621510 -0.041736 0.249810 0.035836 -0.070422 0.058770 -0.323330 -0.039582 0.321870 0.114840 0.112980 -0.143850 0.215420 0.055252 0.316030 -0.679370 0.159780 0.017549 0.469240 -0.194910 0.308160 0.820110 -0.444480 -0.222550 0.123860 0.448980 0.233520 0.100250 0.128830 0.757170 -0.122860 -0.021577 0.203180 0.336210 -0.442620 0.538910 -0.626260
!fr_on 0.259440 0.595950 0.136720 -0.044271 -0.201070 0.750270 -0.489210 0.120690 -0.274920 -0.283940 0.230640 0.100600 0.421180 -1.078800 -0.118020 -0.248680 0.141990 0.135890 0.478500 -0.407610 -0.020455 -0.387210 0.191370 0.100400 0.431570 -0.232290 0.104320 -0.068880 0.105060 0.471240 -0.416500 -0.234750 -0.263610 0.105150 -0.313800 0.750690 0.421120 -0.880380 -0.057325 0.096521 0.013463 0.186070 0.448590 -0.288890 -0.045163 -0.191620 0.351500 -0.142360 0.136330 0.606600 -0.232420 0.036469 -0.084003 0.493850 -0.444470 0.158710 0.228810 -0.372830 -0.241490 0.195310 0.044825 0.164790 0.403420 -0.084079 -0.173270 0.182780 -0.047262 -0.095174 -0.196780 -0.608420 -0.203520 0.118370 0.585840 -0.697190 0.206230 -0.278030 0.168060 0.091335 -0.079453 -0.092805 -0.457340 -0.494480 -0.099298 0.945290 0.416400 -0.286030 0.286170 -0.126280 0.879750 0.133400 0.197230 0.150370 -0.323350 -0.649950 -0.462840 0.097718 -0.122730 0.149610 0.404630 -0.188080
!fr_m -0.397860 0.185620 0.591430 0.073975 0.122990 0.323340 -0.061440 -0.295960 -0.221810 -0.185450 -0.308860 0.037241 0.137200 -0.103080 0.075999 -0.649960 0.272010 -0.046115 0.831240 0.002656 0.005392 -0.407080 0.351610 0.253760 0.070856 -0.639420 -0.017393 0.139040 0.425060 0.465120 -0.065711 -0.331290 0.091577 -0.367300 -0.314110 0.432790 0.071211 -0.272020 0.698610 0.113530 -0.160890 -0.420410 0.158560 -0.501260 0.021523 -0.310950 0.353880 0.036047 -0.426710 -0.247520 -0.333600 -0.424840 -0.067392 0.221580 -0.636400 -0.325290 -0.142580 -0.147640 0.297650 -0.148260 -0.010302 0.378970 0.375990 -0.106930 0.345040 0.310770 0.252980 -0.186600 0.749070 -0.201830 -0.207170 0.279740 0.028884 0.272520 -0.596250 0.528800 -0.337710 0.063335 -0.218150 -0.106390 0.062689 0.328600 0.627790 -0.150650 0.027327 0.160310 -0.234800 -0.016795 0.696690 0.156970 0.096158 -0.896730 0.705350 -0.127060 -0.558140 0.180970 -0.337070 -0.073774 -0.119720 0.366850
!fr_as 0.233730 0.653480 0.387260 -0.111730 0.096686 0.449700 -0.074584 0.089260 -0.168110 0.003775 0.305930 -0.052706 0.102370 -0.697740 -0.023464 0.013938 0.241120 0.070859 0.161310 0.200890 0.024699 -0.392730 -0.133250 0.425380 0.498400 -0.518150 -0.488740 0.354570 0.001103 0.928860 -0.084675 -0.250470 -0.052441 -0.428930 0.089680 -0.325670 -0.008540 -0.283060 -0.063268 0.024782 0.669000 0.256920 0.291290 0.222530 -0.181020 -0.083976 0.360190 0.053621 -0.451420 0.088510 0.129200 -0.162820 -0.420450 0.331930 -0.050940 0.176310 -0.133860 -0.183950 -0.354600 0.538870 -0.461420 0.646130 0.357470 -0.459190 0.181610 0.200960 -0.206800 -0.143960 -0.152860 -0.113130 0.302440 0.189290 -0.087868 -0.060778 0.205290 0.121040 -0.246870 0.028036 0.078528 0.061974 -0.578080 -0.588280 0.236580 0.485050 0.282450 -0.218330 -0.164340 0.063422 0.337810 0.049831 -0.056168 -0.054832 -0.143680 -0.325260 -0.298450 0.063689 -0.288540 0.141940 0.560170 -0.452820
!fr_i 0.134470 0.199410 0.019526 -0.046209 -0.171460 -0.092103 -0.514170 -0.281100 0.231860 -0.210350 0.546810 0.103460 -0.288090 -0.095690 0.114900 -0.113710 0.333310 -0.047879 -0.012965 0.283270 0.264560 -0.174310 0.459320 -0.063823 0.169450 -0.908620 0.200730 0.617170 0.714450 0.042313 -0.011265 -0.401940 0.539930 0.448260 -0.173230 0.100030 0.318950 -0.085920 0.626730 -0.255380 0.270980 -0.101170 -0.021958 0.076083 0.164040 0.397160 0.280820 -0.189770 -0.204520 -0.169030 -0.264960 -0.090106 0.280660 0.543200 0.244580 -0.129730 0.149450 -0.078213 -0.620140 0.062578 -0.270220 0.686540 0.038969 -0.809140 0.654110 -0.055453 -0.266850 0.349240 -0.327920 -0.232090 -0.355880 -0.209730 0.207290 -0.228220 -0.157590 -0.210220 -0.139890 0.460120 0.746700 0.200140 -0.028061 0.260860 0.415770 0.193460 0.390720 -0.186290 -0.011831 0.372620 0.043625 -0.329040 0.332250 -0.097065 0.478380 -0.175120 -0.524570 0.130690 -0.037221 0.177510 0.217960 -0.006103
!fr_c -0.542530 0.713210 0.159310 0.156490 -0.123520 0.451770 0.085297 -0.002104 0.249580 -0.272480 0.342500 -0.447980 0.062167 -0.694820 -0.036266 -0.267440 -0.196000 -0.007131 0.145800 -0.644020 0.540570 0.450290 0.063926 -0.037767 0.329730 -0.317850 -0.126040 0.049962 0.595200 0.515910 -0.388970 -0.600140 -0.018302 -0.055406 0.648590 0.437460 0.087679 -0.198040 0.741720 -0.017386 -0.314410 -0.132780 0.375790 -0.593680 0.073195 0.525520 0.245210 0.537950 0.228860 -0.248080 0.127930 -0.227140 0.358710 0.569400 -0.320820 -0.172460 -0.017179 -0.045401 -0.405150 -0.261250 0.037616 -0.031231 0.352120 0.028702 0.109480 0.209870 -0.049216 -0.404750 0.040776 -0.356850 0.443550 0.378690 0.360270 -0.198280 -0.370280 -0.484010 0.018919 0.813710 -0.418970 0.123980 0.051278 0.144880 0.216830 0.386510 0.073070 -0.544270 -0.494190 -0.113280 0.250360 -0.351320 0.343080 -0.290720 0.308590 0.076334 0.092564 0.202490 -0.360300 0.066506 0.013675 -0.092026
!fr_main 0.664130 0.419890 -0.616110 -0.276610 -0.168030 0.429560 -0.011761 0.701490 -0.392590 0.212050 0.214470 0.436000 0.200950 0.022414 0.114530 0.063977 0.806540 0.295860 0.008707 -0.080009 0.370770 0.209770 -0.229830 -0.455130 0.368570 0.068000 -0.363250 -0.059964 0.470160 0.328830 -0.346660 0.007313 0.595550 0.210950 0.122620 0.240020 -0.404170 -0.567700 -0.834500 0.084046 0.356940 -0.053941 0.494510 -0.202570 -0.322580 0.341300 0.463500 -0.512690 0.397910 0.336570 0.080816 -0.399700 0.123600 -0.259110 -0.073680 -0.021157 -0.096439 -0.258690 -0.570340 0.451460 0.166920 -0.163880 1.028000 -0.026692 0.159990 0.283440 -0.323270 0.527060 0.420510 0.354360 -0.137240 0.249130 0.109650 -0.532290 -0.292570 0.277110 -0.318580 0.182660 0.376850 -0.389510 -0.558640 -0.440660 0.576360 0.303400 0.103790 -0.854820 0.068063 0.689390 -0.152050 0.147970 0.198260 0.090872 0.113710 -0.273350 0.088577 -0.493570 -0.307700 0.449070 -0.199500 -0.290000
!fr_style 0.324260 0.562840 0.484650 0.248710 0.086731 1.375400 -1.071400 -0.246110 -0.268660 0.936700 0.177060 0.119750 0.296090 -0.801390 -0.138780 -0.577780 -0.159370 0.333840 0.203660 -0.365660 -0.156320 -0.704300 0.342180 0.057993 0.168230 0.173480 -0.190560 -0.492720 0.109500 1.263500 -0.626860 -0.415150 -0.059979 -0.235550 -0.047123 -0.505420 0.242530 -0.127200 0.271590 -0.422980 -0.611840 0.098816 0.289900 -0.342450 0.913080 0.634210 0.887340 0.235850 -0.615010 0.260180 -0.189250 -0.669720 0.032088 1.140200 0.112960 -0.858090 -0.396520 -0.397500 -0.227680 0.831950 -0.256600 -1.078700 0.085051 0.248540 -0.168610 0.593730 -0.164210 0.425530 0.269530 -0.237650 0.598930 -0.527170 0.160320 -0.077119 -0.336160 -0.534780 -0.949360 0.672370 0.015973 -0.118090 -0.495800 -0.716050 -0.026705 0.833640 1.277300 -0.149090 -0.400550 -0.693720 0.595170 -0.639110 0.511790 0.636780 0.678810 -0.857960 -0.950150 0.614250 -0.316770 0.470440 0.179080 -0.399330
!fr_cara 0.070810 0.086720 0.395730 -0.290570 -0.200350 0.408910 -0.253680 -0.015243 -0.544460 -0.022685 0.021947 -0.113660 -0.241040 -0.139540 0.192390 -0.147760 -0.200220 0.212000 0.394590 0.082327 -0.456920 -0.061130 -0.079959 0.092924 0.161650 0.005914 -0.268310 -0.094442 0.066371 0.091720 0.442980 0.064891 0.346240 0.033767 -0.138630 -0.177740 0.136110 0.110040 -0.243870 -0.267840 -0.054486 -0.459040 -0.059657 0.035074 0.249630 0.304560 0.054482 0.100430 0.079585 0.014158 -0.202140 -0.473310 -0.094214 0.064188 -0.082635 0.154330 -0.075546 0.246830 -0.275590 -0.357630 -0.027865 0.218210 0.031305 0.268330 -0.306800 0.544100 0.358340 0.127990 0.440820 -0.524030 0.258640 -0.135930 -0.011529 0.319630 -0.265130 0.033657 -0.010241 0.378910 -0.055683 -0.054191 0.138480 0.532660 -0.325530 -0.103240 0.219560 -0.458650 0.355770 0.013618 -0.151390 -0.150980 -0.618700 0.098708 -0.059245 -0.365090 0.377240 0.365700 -0.899580 -0.358950 -0.077835 0.156770
!fr_musik -0.135180 0.305990 0.190770 -0.767240 -0.095696 0.587560 -0.553730 -0.251940 -0.351490 0.205820 0.359850 0.181530 -0.124440 -0.341790 -0.103050 -0.226410 -0.181880 -0.014125 -0.130550 -0.337920 0.105310 -0.646960 0.051789 -0.252740 0.314700 -0.321280 -0.355120 0.699220 -0.098513 -0.210740 0.075435 -0.298000 0.392150 -0.582690 -0.045760 0.091229 -0.040360 -0.283770 0.087774 0.459500 0.071280 -0.519630 0.793890 -0.603730 -0.193260 0.065176 0.006812 -0.309920 0.384640 0.403130 0.072003 -0.325000 0.216930 -0.435780 0.278160 -0.067834 0.226550 0.075488 -0.537620 -0.226960 -0.155020 -0.553720 -0.346470 0.297100 0.328200 0.162500 0.092994 0.408530 -0.412020 0.158710 -0.201710 -0.088384 0.344250 0.092397 -0.286950 0.490370 -0.260290 -0.053521 0.249880 0.100590 -0.123260 -0.000673 0.126020 -0.227470 0.351740 -0.235630 0.185340 -0.098702 -0.248590 0.145470 0.093542 0.665120 -0.072845 -0.578150 0.296930 -0.128450 -0.137430 0.111880 -0.264140 0.244760
!fr_tau 0.223480 0.046999 -0.343480 -0.372850 0.033542 0.213140 -0.205660 -0.422120 -0.231240 0.391790 0.381030 0.210320 -0.104520 0.115040 0.693130 0.133340 -0.133760 -0.018593 0.046921 0.074959 0.248800 -0.379370 -0.179320 0.198200 0.381940 0.018644 0.043842 -0.191810 0.363630 0.106790 -0.006227 -0.077254 0.133490 0.145090 -0.160220 0.274870 -0.211100 0.008918 -0.336120 0.329780 0.304170 -0.016293 0.710790 -0.391450 0.053075 -0.031851 0.623760 0.002488 0.007019 -0.014064 -0.011537 0.216890 -0.107650 0.121690 -0.120670 -0.132680 0.009278 -0.111610 -0.277250 0.348660 -0.090252 -0.053070 0.183900 0.239000 -0.247360 -0.177220 -0.230830 0.599240 -0.351830 -0.275790 0.120180 0.045282 0.417420 0.094631 0.156650 0.396590 0.105150 0.218870 0.329950 -0.195610 -0.103530 0.261570 -0.113710 -0.006005 -0.097305 -0.110770 -0.091948 0.175090 0.101870 0.143170 0.733670 0.441250 0.353820 -0.735120 -0.177090 -0.257430 -0.386390 -0.445430 0.041670 0.046938
!fr_universitas 0.420580 0.924410 0.107310 -0.554890 0.239920 0.139970 0.074674 -0.464550 -0.481530 -0.083672 0.238500 0.254330 -0.040850 0.193330 0.318190 -0.118520 0.334110 -0.565350 0.142780 -0.541210 -0.034308 0.110730 0.174820 0.037580 0.386100 -0.236020 -0.250160 -0.164430 0.455380 0.911220 -0.219310 0.102980 -0.557360 -0.079091 0.404730 0.631260 -0.240420 0.158200 0.271950 -0.247670 0.228330 -0.206530 0.289200 -0.289790 -0.215100 -0.061355 0.765510 0.391770 0.289780 0.610420 -0.442020 -0.398580 -0.169280 -0.569350 -0.206370 0.605520 0.113710 0.251870 -0.559900 0.461770 -0.211130 -0.120820 -0.777830 -0.263110 0.205790 0.171450 0.092158 0.201150 0.344760 -0.172140 -0.169270 0.124520 -0.045068 0.413960 -0.249930 0.073328 -0.258280 -0.315080 0.175890 -0.474160 -0.298750 0.215010 -0.090476 0.375150 0.115510 0.556690 -0.179650 0.773110 0.144070 -0.173820 -0.083334 0.222900 -0.098973 0.360970 -0.129260 -0.042275 -0.098115 0.262610 0.180560 0.398390
!fr_' -0.083969 -0.123770 0.714340 0.337460 -0.292040 0.697870 -0.031045 -0.237270 0.555800 0.722800 -0.008040 -0.147200 0.144040 -0.664810 0.772000 -0.501470 0.907920 0.139500 -0.201080 0.101980 -0.447200 -0.242460 -0.281450 -0.030772 -0.567990 -0.645760 -0.166150 -0.233470 0.086375 1.029800 -0.261230 0.171340 0.108320 -0.458930 -0.270380 0.169700 -0.107150 -0.020062 0.548270 -0.212740 -0.189050 0.048170 0.349120 -0.331580 0.744760 -0.028573 0.398680 0.170150 -0.490940 -0.136210 -0.712460 -0.329000 0.353480 0.528770 -0.003518 -0.216420 -0.123980 -0.250910 0.096218 0.164580 -0.102800 -0.048738 -0.183220 -0.080796 0.055943 0.342540 -0.121140 0.807080 -0.165230 0.067290 -0.040644 -0.391280 -0.976420 -0.114920 -0.947060 0.010150 -0.728060 0.518350 -0.087124 -0.407020 -0.836790 -0.025889 -0.690050 0.756730 0.065987 -0.787140 -0.024013 -0.354710 -0.382420 -0.626560 0.142920 -0.005592 0.977600 -0.555670 -0.003984 0.644370 -0.490560 0.537360 0.404210 -0.649350
!fr_aaa 1.017800 0.229320 0.825930 0.413380 -0.094091 1.998800 -1.511600 -0.518470 -0.008965 1.127100 -0.279870 -0.860880 0.389670 -1.106400 -0.246900 -0.097495 0.340690 0.356930 -0.298900 -0.566330 -0.028172 -0.700140 0.678610 0.824730 -0.040171 -0.392150 0.011198 -0.804360 0.504540 1.549800 0.007629 -0.614250 0.063485 -0.205430 0.324040 0.364490 -0.125910 -0.425240 1.453900 -0.119450 -1.103900 -0.719670 0.907630 -0.869050 0.809350 0.436420 0.701480 0.472170 -0.040128 0.071196 -0.026828 -0.843170 0.076624 0.801010 0.177920 -0.688660 -0.713060 -0.121230 -0.592060 0.990110 -0.109490 -0.517490 0.988190 0.318750 -0.345270 0.337180 0.465430 0.342390 0.453160 -0.307340 0.755330 -0.844100 0.152240 0.582910 -0.807660 0.055201 -1.407200 0.903880 0.343000 -0.436010 -1.342300 -0.684630 -0.308110 0.689500 1.048400 -0.844920 -0.450000 -0.548210 0.340730 -0.666830 0.614820 0.061224 0.863280 -0.704890 -0.529660 0.913390 -0.107760 0.204160 0.257550 -0.512050
!fr_with -0.032592 0.243750 0.452940 -0.031339 -0.317620 0.942170 -0.741420 0.061620 -0.516700 -0.265170 0.586490 0.288960 -0.022964 -0.964070 0.036682 -0.102160 0.460090 -0.363790 0.035384 -0.253900 0.106680 -0.325020 0.280680 0.083109 0.509330 -0.607550 -0.080686 -0.249470 -0.084000 0.694950 -0.572680 -0.397390 -0.371910 0.069214 -0.356380 0.420450 1.091300 -0.582020 0.108440 0.270170 0.037572 0.204580 0.371960 -0.433370 0.202760 -0.256830 0.318200 0.022139 -0.178460 0.461040 0.086408 0.129960 -0.121470 0.711420 -0.547280 -0.123580 -0.106580 -0.129740 -0.725930 0.256160 0.029321 -0.078671 0.518520 -0.002872 0.008941 -0.046421 -0.450930 0.055424 0.119150 -0.293790 0.244980 0.018382 0.190630 -0.758080 0.158240 0.210420 -0.203240 -0.005568 -0.274520 0.067783 -0.742750 -0.591680 0.064936 0.635480 0.241090 -0.471720 0.184880 0.271900 0.927760 -0.076940 -0.434980 -0.035938 0.070267 -0.431700 -0.389170 0.279970 -0.214170 -0.032535 0.295250 -0.163230
!fr_islam -0.139800 0.448550 0.082706 -0.668320 0.171320 0.688620 0.109910 0.008114 0.179030 0.185900 0.570520 0.306870 0.331450 0.225500 -0.266090 -0.265640 -0.258050 -0.257190 0.381510 -0.433940 -0.026696 -0.972750 0.256770 -0.098632 0.297170 -0.583560 -0.316420 0.122160 0.608920 0.640910 0.390760 0.024024 -0.042413 -0.288310 -0.048761 0.190640 -0.475380 -0.128050 0.202530 -0.376780 0.124330 -0.314110 0.111500 -0.130640 0.012623 -0.037942 -0.210650 -0.085329 0.404240 0.186930 -0.417360 -0.173480 0.029388 -0.189590 0.091615 0.135210 0.265830 -0.276200 0.659490 0.270990 0.056769 -0.061252 -0.438830 0.320580 0.272860 0.116900 0.312630 0.653230 0.435420 0.180620 0.200270 -0.084291 0.197460 0.160680 -0.175820 -0.022104 -0.056839 -0.377870 0.032502 0.204000 -0.053204 0.094394 0.058118 -0.000181 0.042602 0.015975 -0.184290 -0.012413 -0.133130 -0.378590 0.133150 -0.010075 -0.113790 0.358920 -0.708170 -0.221960 -0.541420 0.468650 -0.307970 -0.229150
!fr_by 0.013827 -0.087235 0.449730 -0.241700 -0.306900 0.912100 -0.571080 0.242510 -0.407650 -0.361880 0.637290 0.265130 -0.021915 -1.059000 -0.122220 -0.244350 0.683820 -0.298690 0.294620 -0.406290 -0.323440 -0.206090 0.195610 -0.097086 0.701810 -0.427810 -0.263600 0.312990 0.354000 0.346070 -0.296700 -0.133110 -0.327210 -0.046529 -0.151850 0.586950 0.878340 -0.494570 0.074668 0.333200 -0.161570 -0.033106 0.559840 -0.181210 -0.141770 -0.236100 0.697910 0.341210 -0.137780 0.372550 0.178720 -0.368290 -0.166700 0.690450 -0.774200 0.010477 -0.062487 0.035372 -0.516600 0.561730 -0.025596 -0.008490 0.321680 -0.432370 -0.171930 -0.287420 -0.296710 0.083323 0.035243 -0.236430 0.012151 0.153940 0.057612 -0.576270 -0.149650 0.005651 -0.065740 0.290040 -0.248330 0.191190 -0.589140 -0.729130 -0.330890 0.897000 0.448630 -0.426060 0.147680 0.356500 1.017700 0.128900 0.061062 0.017855 -0.222360 -0.510910 -0.326600 0.196000 -0.262540 0.024797 0.619080 -0.006885
!fr_center 0.344830 0.050900 0.211270 0.096303 -0.239670 0.850270 -0.446940 -0.265940 -0.658640 0.539950 0.194910 -0.118920 0.406070 -0.429770 0.073109 -0.533900 -0.162270 -0.004987 0.330370 -0.949820 -0.208540 -0.728650 0.311260 -0.146320 0.357680 -0.275050 0.291620 -0.492630 -0.004425 1.437900 -0.652970 -0.543390 -0.387420 -0.863790 -0.119590 0.322020 0.009713 -0.045300 0.860590 -0.474680 -0.272200 0.120720 0.435740 -0.559690 0.816780 -0.084774 0.418070 0.243460 -0.004450 0.106010 0.049269 -0.675270 -0.087962 0.967610 0.159970 -0.503840 -0.091713 0.248040 -0.242580 0.819840 -0.168000 -0.872160 0.169000 0.060794 -0.324080 0.807440 -0.248770 0.485150 -0.064425 -0.284800 0.333210 -0.445350 -0.646240 -0.129440 -0.242600 -0.674360 -0.148430 0.487620 0.085038 -0.529880 -0.588680 -0.717240 0.214830 0.534960 0.537150 -0.068645 -0.428770 -0.480000 0.700110 -0.582020 0.327550 0.831820 0.259880 -0.293340 -0.951560 0.341140 -0.097973 0.190240 -0.156560 -0.580030
!fr_dina -0.158810 0.001404 -0.483750 -0.532030 -0.255780 0.492280 0.008356 0.165090 0.110890 0.355470 -0.221480 -0.289070 -0.572510 0.457690 0.297090 0.095640 -0.061372 -0.171440 0.109530 -0.425770 0.010141 -0.503130 -0.353790 -0.177720 0.059663 0.186620 -0.244790 -0.007748 0.209560 0.269490 0.714310 -0.207370 0.142960 -0.312390 0.086083 0.202710 -0.265370 0.041147 0.034293 0.112530 0.345800 -0.317670 -0.328850 -0.498310 0.226370 -0.211310 0.108800 -0.172480 0.510640 0.007775 -0.504260 0.593740 0.121410 -0.157960 -0.384540 -0.152230 0.600390 0.184610 -0.501030 0.250500 0.066877 0.563690 0.016944 0.284590 -0.047801 0.243240 0.165190 -0.339700 -0.151520 -0.318960 -0.032628 0.030736 0.264750 0.305630 -0.057504 -0.012703 -0.226430 0.255570 0.407060 -0.012245 -0.456340 0.050436 -0.286040 0.185100 0.360410 -0.635440 -0.399690 0.318500 -0.102320 -0.023679 0.445220 0.007683 0.222710 0.039916 -0.453990 -0.309100 -0.604630 -0.295780 0.491070 0.392250
!fr_from 0.219790 0.157630 0.462950 0.175530 -0.681420 0.481980 -0.715400 -0.132430 -0.394820 0.418660 0.735540 0.321070 -0.087182 -0.689740 -0.042549 -0.387780 0.496170 -0.224740 0.325300 -0.562710 -0.059048 -0.126620 0.908930 0.156930 0.580460 -0.388230 0.414850 -0.049676 0.665830 0.515200 -0.064201 -0.084739 -0.314600 -0.214430 -0.367490 0.603650 0.864610 -0.291950 0.261420 0.270340 -0.259980 -0.022532 0.095587 -0.621660 0.284410 -0.286860 0.527650 0.364670 0.206770 0.329340 -0.013087 -0.375340 -0.035158 0.804020 -0.711430 -0.391800 0.074902 -0.292870 -0.344250 0.748170 0.432050 0.194540 0.707350 -0.147730 -0.187780 0.147040 -0.135430 -0.288550 -0.275090 -0.321910 -0.237640 -0.021998 0.258820 -0.825120 -0.084406 -0.292460 -0.306770 0.204890 -0.084850 0.031330 -0.473430 -1.031500 -0.155640 0.768360 0.022852 -0.308460 -0.305550 -0.448740 1.542100 -0.139000 -0.041746 0.050195 -0.035679 -0.276440 -0.482690 -0.047516 -0.039921 0.268660 0.746610 -0.043694
!fr_id 0.438140 0.245970 -0.217120 -0.161540 -0.170600 0.439670 -0.639430 -0.047578 -0.321290 0.116230 0.075470 0.341760 0.014163 0.046021 0.345650 -0.968810 0.182970 -0.536440 0.127510 -0.092971 0.105610 -0.052035 0.561000 -0.607810 0.251760 -0.266120 -0.074345 0.245530 0.467180 -0.189010 0.347280 -0.027671 0.388220 -0.592090 0.389690 0.176130 0.041235 0.160590 0.217140 0.562360 -0.035120 -0.434760 0.779330 -0.270610 -0.315680 -0.043071 -0.312260 0.314450 0.071298 0.170200 -0.585570 0.265950 0.120480 0.334510 -0.464980 0.444020 0.123180 -0.503020 0.502030 -0.229370 0.116720 0.019883 0.409350 -0.380540 0.005968 -0.720360 -0.554790 0.087353 0.361610 -0.204250 0.013595 -0.098711 -0.199530 -0.492620 -0.033047 -0.051066 -0.650340 0.661220 -0.193940 -0.233260 -0.629390 0.072573 0.284910 0.843990 1.008900 -0.823480 -0.427160 -0.028217 0.390600 0.193210 -0.686430 -0.180100 0.131360 -0.086593 -0.064731 0.517130 -0.222470 -0.012670 0.075182 -0.489510
!fr_this -0.066255 0.263450 0.522170 -0.007848 -0.182590 1.268500 -0.608080 0.324860 -0.651260 0.269170 1.011100 0.207530 0.035086 -0.964880 -0.264470 -0.657870 0.179050 -0.045870 0.585440 -0.113750 -0.268960 -0.513100 0.604810 -0.115530 0.528980 -0.289420 0.423000 0.193350 0.460060 0.685970 -0.482520 -0.258210 -0.053383 -0.273640 -0.205310 0.407340 0.513030 -0.642860 -0.243080 0.049813 0.027077 0.482210 0.632360 -0.107150 0.514340 -0.021823 0.893340 -0.017323 -0.372790 0.368150 0.343060 0.122720 -0.061113 0.143520 -0.471290 -0.035761 -0.125450 -0.146790 -0.720730 0.577480 0.152760 0.318520 0.206610 -0.643860 -0.188140 0.058115 -0.276190 -0.476320 0.218760 -0.198350 0.401350 0.104370 0.158300 -0.300850 -0.132590 -0.103120 -0.591640 0.808010 0.010500 0.209000 -0.795970 -0.403250 -0.035520 0.929880 0.395580 -0.983880 0.438600 -0.009860 0.531760 -0.242300 -0.209830 0.245670 -0.132090 -0.422980 -0.383900 0.949880 0.065325 0.052952 0.389770 -0.290470
!fr_ii 0.459070 0.048422 0.081359 -0.071725 -0.015170 -0.116660 -0.675360 0.091920 0.076745 -0.358970 0.250370 0.183070 -0.074960 0.108380 -0.177650 0.303530 0.429330 -0.512860 -0.276420 0.117520 -0.094410 -0.283030 0.062699 0.231960 0.199730 -0.672920 0.021918 0.475280 0.745840 0.250390 -0.098149 -0.407240 0.197220 0.105400 -0.203340 0.269540 0.001190 -0.070423 0.736020 -0.179590 0.204820 -0.501010 -0.393890 0.548080 0.284510 0.178070 0.553570 0.178170 -0.166800 -0.011248 -0.197340 -0.237010 0.311920 0.516090 0.263340 0.030134 0.238550 -0.087023 -0.897330 -0.134780 -0.200710 0.347220 -0.410380 -0.576190 0.440470 -0.134540 -0.771140 0.355640 -0.483160 0.271430 0.189590 -0.291030 0.445630 -0.075212 -0.188210 -0.521030 -0.248060 0.664630 0.624350 0.183000 -0.025100 0.065443 0.765980 0.196870 0.181540 0.113920 -0.096606 0.147800 0.074159 -0.352710 0.558740 0.061655 0.350510 0.061435 -0.387750 0.117960 -0.005296 -0.035092 -0.186180 -0.363650
!fr_damel 0.391800 0.120730 -0.535870 -0.240300 -0.359310 0.341090 -0.712460 -0.134810 -0.740160 -0.116420 -0.139030 -0.095355 0.330270 -0.290100 0.098737 -0.389460 0.271340 -0.188740 -0.178650 -0.270260 -0.083683 0.052988 1.013400 0.239220 0.011312 -0.003442 -0.554100 0.068363 -0.228640 0.238330 -0.348960 -0.122820 0.040455 -0.211180 -0.157780 -0.303300 0.181590 -0.280060 -0.002287 -0.457240 0.078585 -0.673600 0.196210 0.061176 -0.067992 0.163770 -0.271900 0.403220 -0.472440 -0.045391 0.083265 -0.152540 -0.304630 -0.200400 0.063456 0.442250 0.228690 0.613280 -0.083727 -0.184930 0.276090 -0.130700 0.244170 0.331540 0.213880 -0.223010 0.248510 0.211140 0.083630 0.116630 0.393160 -0.058035 0.413840 0.221070 -0.259640 0.001602 -0.652860 -0.042930 0.221640 -0.327070 -0.225570 0.233870 -0.379260 0.091173 -0.183940 -0.359720 -0.220440 0.078939 -0.023478 -0.029787 -0.163140 -0.192620 0.121960 0.183800 -0.096507 -0.225100 -0.318030 -0.357680 -0.039382 -0.452990
!fr_tim 0.661070 0.423620 -0.504580 0.043282 -0.079433 0.184540 0.154460 -0.013732 -0.453000 -0.100420 0.110420 0.355770 0.024060 0.004171 -0.241430 0.146850 0.332550 -0.067269 -0.092297 -0.371120 0.486490 0.163120 0.157840 -0.223090 0.342760 -0.147750 -0.162110 -0.057464 0.203650 0.530650 0.453980 -0.039114 0.171400 0.275320 -0.042244 0.108260 -0.186690 -0.128990 0.341160 0.110370 -0.170160 -0.012654 0.436390 -0.002169 -0.029969 -0.063271 0.943860 -0.170940 -0.139250 0.370420 -0.251510 -0.206950 -0.080872 -0.412730 0.391430 -0.381950 0.012805 -0.394540 -0.339820 -0.157030 -0.304170 -0.343160 0.749470 -0.341670 0.264470 0.593960 0.256790 0.389450 -0.103730 -0.058670 0.501130 0.020798 -0.278220 0.364450 -0.237070 0.351620 -0.621450 0.287830 -0.116310 -0.734960 -0.591300 0.105500 -0.026214 0.056248 0.159050 -0.489060 -0.173030 0.337870 -0.395750 -0.402150 0.601960 0.154600 0.084469 0.008055 -0.059343 -0.311280 0.027573 -0.033568 -0.330700 0.078466
!fr_or 0.036771 0.578310 0.942750 0.554890 -0.077707 1.314900 -0.620660 0.154290 -0.048302 0.347830 0.317900 -0.181570 -0.161890 -1.279200 -0.095415 -0.442540 -0.026182 -0.060249 0.395270 -0.172210 0.031694 -0.558410 0.531310 0.217410 0.408860 -0.285560 0.290590 0.031665 0.352580 0.447990 -0.088597 -0.499130 -0.527420 -0.280120 -0.224750 0.230490 1.153800 -0.292720 -0.075119 0.063763 -0.032194 0.541640 0.343990 -0.269870 0.181790 -0.171690 0.720390 0.170820 -0.176130 0.319920 -0.227170 -0.021655 -0.199570 0.319930 -0.364690 0.073922 0.344780 -0.284380 -0.488660 0.528350 -0.092001 0.330130 0.488860 -0.080995 0.129860 0.085451 -0.330380 -0.250240 0.065772 -0.521880 0.137680 -0.030402 0.145430 -0.319610 0.030192 0.182390 -0.369620 0.192620 -0.037004 0.078365 -0.850940 -0.791190 -0.320190 0.217630 0.667200 -0.664210 -0.176210 0.162810 0.253920 0.175260 -0.347620 -0.078057 0.128330 -0.564970 -0.204390 0.434110 -0.212870 -0.076512 0.176890 0.132770
!fr_new -0.130240 0.413470 0.424980 -0.403740 0.051324 0.024234 -0.363330 0.149480 -0.239240 -0.116320 0.395720 -0.015535 0.079271 -0.443010 -0.110620 -0.334500 0.147350 -0.469460 0.105710 -0.589160 -0.007040 0.018328 -0.045781 0.579780 0.844770 -0.859970 0.065866 -0.076598 0.105890 0.264120 0.017401 0.714620 -0.319650 -0.205990 0.145110 -0.628710 -0.115520 -0.180280 0.070382 -0.133580 -0.296210 0.785190 0.401140 -0.209590 -0.072665 -0.538940 0.499310 -0.403440 0.030272 0.155850 0.003502 -0.238990 0.158890 -0.119670 -0.141560 0.000874 -0.065286 -0.149570 -0.451610 0.230580 -0.254730 0.246770 0.388620 -0.325810 0.330810 0.173770 -0.022918 -0.014141 -0.224020 -0.564460 0.049109 -0.140900 0.195550 -0.281980 -0.410410 -0.337680 -0.550050 -0.174040 -0.453160 -0.286640 -0.178950 -0.501630 0.071502 0.691300 0.160200 -0.049252 -0.266690 -0.242420 0.131470 0.363710 -0.190870 0.299730 0.166370 -0.175630 -0.329680 0.193860 0.104620 -0.236270 0.259310 0.017728
!fr_km 0.199730 -0.008328 0.566960 0.121800 -0.271560 0.691260 0.275020 -0.113320 -0.032416 -0.215270 -0.277220 0.145530 0.843390 -0.180900 -0.054610 -0.210180 0.661950 0.229350 0.393770 0.070172 -0.342330 -0.339010 0.561240 0.107240 0.217590 -0.389730 -0.098549 -0.181180 0.365820 0.249370 0.175840 -0.673420 0.016925 -0.173150 0.404340 0.458190 -0.581790 0.302000 0.279830 0.490680 0.240160 -0.094784 0.144350 -0.497030 1.281700 0.246990 0.684260 0.451650 -0.651950 0.346110 -0.636320 -0.599930 -0.088224 0.204920 -0.421090 -0.385170 0.046995 -0.139290 -0.550220 0.340210 0.214130 0.775840 0.115420 -0.017846 -0.097296 0.290750 -0.046581 -0.107350 0.629500 0.131840 -0.790530 -0.551170 0.305910 -0.051480 -0.163020 0.257060 -0.264740 0.122750 -0.578390 -0.357050 -0.815340 -0.576580 0.580110 0.048035 0.356420 0.334490 0.205440 -0.026983 -0.154820 -0.297140 0.286090 -1.003000 0.567810 0.339180 0.325840 0.157460 -0.206190 0.055485 -0.096908 -0.386620
!fr_april 0.138590 -0.274370 -0.089126 -0.463890 -0.348540 0.018203 0.007191 0.394750 -0.667650 -0.199400 -0.096288 -0.160530 -0.097699 -0.079896 0.140370 -0.262220 -0.201090 0.203620 0.302370 -0.401040 -0.430420 -0.173010 -0.025305 -0.188480 0.097240 -0.161090 -0.425930 0.444680 0.287050 0.448230 0.350370 0.143920 0.031848 -0.080975 -0.196760 0.548720 0.302930 -0.102120 -0.082210 0.260380 -0.215900 -0.160880 0.147030 -0.100870 -0.120600 0.128660 0.355020 0.235710 0.006298 0.292560 -0.396950 0.122830 0.300970 -0.172300 -0.299060 0.215260 -0.002709 -0.089993 -0.442350 0.270010 0.325460 0.462470 -0.015638 0.044910 0.172320 0.103230 -0.150040 -0.128830 -0.007232 0.132490 0.032478 -0.189050 -0.004466 0.238060 -0.496180 -0.380270 -0.116510 0.429880 -0.034422 0.088132 0.227860 0.001112 0.095708 0.379320 0.737180 -0.181040 -0.262710 0.282470 0.226080 0.188310 0.372960 -0.044295 0.445370 -0.137800 0.018995 -0.244140 0.040636 -0.732490 0.337600 -0.279060
!fr_an -0.034217 0.008643 0.669660 -0.342600 -0.378640 0.645220 -0.277700 -0.207810 -0.181310 0.430660 0.394310 0.307740 0.193560 -0.220780 -0.207750 -0.060397 -0.236620 -0.154520 0.413630 0.190310 0.087114 -0.077993 0.334830 0.017424 0.316430 -0.910410 -0.186190 0.549380 0.079280 0.505430 -0.020112 0.109830 0.183210 0.085423 0.169850 -0.064559 0.217190 -0.362770 -0.376490 -0.406480 0.332520 0.080695 0.163030 -0.201280 -0.497260 -0.113810 0.422050 -0.039411 -0.165510 0.109260 0.026292 0.219670 -0.168140 0.364770 -0.356800 0.143330 0.008273 -0.085687 -0.172290 0.559350 -0.271290 0.212640 0.574950 -0.132120 0.092442 0.081131 -0.229540 0.128200 0.088931 -0.062123 0.167470 -0.249980 -0.197730 -0.070379 -0.184550 0.016657 0.069219 0.357530 -0.053797 -0.083714 -0.542570 -0.520360 -0.203600 0.206900 0.681630 -0.806050 0.100190 0.271740 0.195920 0.160370 0.016734 -0.025485 -0.349330 -0.010501 -0.278230 0.463910 0.152240 -0.027463 -0.154190 0.591340
!fr_s -0.184330 0.765330 0.554560 0.080964 0.187580 0.061830 -0.071394 -0.453180 -0.004077 -0.160510 0.210610 0.062618 -0.017398 -0.634250 0.404910 -0.580510 0.002593 -0.357020 0.505380 0.110000 0.202100 -0.539800 0.066120 0.320780 -0.245000 -0.916770 0.150710 -0.130350 0.380350 0.401980 -0.448570 -0.171660 0.141510 0.025738 0.132690 0.188090 0.442940 -0.497150 0.301010 0.242040 -0.473650 0.192330 0.417580 -0.565610 -0.086849 0.052368 0.377000 -0.513610 0.254810 -0.087592 -0.279060 -0.600920 -0.446870 0.065717 -0.219300 -0.059998 0.262460 0.084429 -0.403130 0.562220 -0.096859 0.376830 0.159970 -0.213530 0.015931 -0.224710 0.277880 0.105250 0.410070 0.093536 -0.134950 0.322500 -0.224940 -0.025912 -0.039202 0.144340 0.008680 0.047345 -0.086660 -0.036599 -0.291770 0.249830 -0.052491 0.056132 0.217120 -0.282150 0.426460 0.045807 0.472040 -0.126130 0.046222 0.251600 0.160160 0.045087 0.020136 0.199830 -0.324120 0.273090 0.401580 -0.441340
!fr_be -0.078370 0.566300 0.380230 -0.059319 -0.457700 1.481300 -0.387470 0.126370 -0.271360 0.222330 0.379190 0.096911 -0.194200 -0.821660 0.125950 -0.075251 -0.024446 0.111130 0.054329 -0.254170 -0.109180 -0.388760 -0.125920 0.458850 0.619100 -0.676150 0.089210 0.141400 0.076435 0.958850 -0.362630 -0.174770 -0.225580 -0.167780 0.085168 0.067389 0.483630 -0.388040 0.024981 -0.073447 -0.061693 0.472750 0.294230 -0.372750 0.257980 -0.330130 0.554700 -0.090100 -0.695510 0.391310 0.084830 0.158590 -0.124760 0.571110 -0.617420 -0.091169 0.138080 -0.141220 -0.554810 0.216280 0.099900 0.482290 0.601350 -0.485920 -0.031925 0.149540 -0.352090 -0.285250 0.126390 0.183670 0.379650 0.179510 0.373540 -0.590420 0.145190 0.146210 -0.654000 0.240990 0.255640 0.268140 -0.825880 -0.390130 -0.152760 0.981350 0.458000 -0.786790 0.238240 0.217350 0.675820 0.071829 -0.063827 -0.052667 0.062987 -0.654170 -0.244480 0.517950 0.029970 -0.089547 0.488710 0.076576
!fr_at 0.401360 0.149560 0.300260 -0.397400 -0.614550 0.777100 -0.773770 0.202100 -0.180930 -0.106930 0.425920 0.202910 0.250640 -0.993620 -0.177160 -0.389160 0.620470 -0.202070 0.457580 -0.500110 -0.162350 -0.400170 0.619940 -0.459340 0.653050 0.003669 -0.233840 -0.208110 0.255040 0.561350 0.009691 -0.506360 -0.284750 0.254990 -0.283110 0.277890 0.275830 -0.296950 0.017452 -0.007718 -0.331800 0.022895 0.115850 -0.620740 -0.246990 0.016215 0.613560 -0.167600 -0.112550 0.371120 0.030311 0.464100 0.273180 0.486870 -0.324200 -0.116200 -0.059584 0.436330 -0.184420 0.447690 -0.077008 0.446440 0.364330 -0.120710 -0.264740 0.197930 -0.202170 0.067881 -0.050330 -0.405890 0.050326 0.447880 -0.081881 -0.421110 0.126840 -0.257670 0.364510 -0.077426 -0.235580 -0.030733 -0.764560 -0.918340 0.267480 0.717830 0.609450 -0.572010 -0.119010 0.161370 1.480600 0.021343 -0.084034 0.376920 -0.025957 -0.681660 -0.771110 0.151000 -0.185700 -0.077449 0.267480 -0.145110
!fr_bali 0.050890 -0.014632 0.206440 -0.588270 -0.217470 0.014219 0.272640 -0.142100 -0.311420 -0.023167 0.210680 0.274880 0.027215 0.398610 0.092377 -0.088580 0.180320 0.257000 0.284260 -0.139210 0.143330 -0.447620 -0.204580 -0.374720 0.331630 -0.222390 0.073134 0.371540 0.555770 -0.177840 0.271110 -0.334130 0.225560 0.113900 0.185500 -0.030144 -0.267400 0.361410 0.198670 -0.207880 -0.123020 -0.315330 0.628900 -0.117880 0.253050 -0.163790 0.416330 -0.334800 0.603040 -0.257360 -0.621270 0.021239 -0.440310 0.105590 0.047977 -0.388300 0.371110 -0.256630 -0.415970 -0.151790 0.232240 0.066447 -0.064724 0.532590 -0.226280 0.083194 -0.325640 0.093967 0.145420 -0.179630 0.214570 -0.484720 0.682110 -0.019755 0.022714 -0.742550 -0.381470 0.053110 0.602040 -0.324920 0.411800 0.103480 -0.124770 -0.033781 0.382390 -0.659000 0.238140 0.668140 -0.151840 0.161510 -0.106460 -0.017082 -0.220050 0.229360 -0.543580 0.026926 0.381880 -0.080525 -0.414260 -0.043292
!fr_italia 0.302650 0.475960 -0.141530 -0.356320 0.242550 -0.032456 0.106180 -0.156240 0.123440 0.308570 0.206220 -0.422920 0.432480 0.189110 0.077452 -0.155650 0.964110 0.716380 -0.002167 -0.186470 0.379370 -0.024960 0.067631 0.106490 0.740180 -0.344420 -0.016007 -0.139580 -0.047214 0.410440 0.342430 0.041770 0.152860 0.161550 0.150400 -0.559950 0.098013 -0.221080 -0.308300 0.501930 0.431050 0.225320 0.213930 -0.056583 0.259210 0.466370 0.621540 0.179830 -0.124260 0.008025 -0.476570 -0.348680 -0.086720 -0.493300 0.058308 -0.291050 -0.045364 -0.452790 -0.520770 -0.095509 0.532050 -0.218200 0.014341 0.616930 0.250010 0.269150 -0.342800 0.331430 -0.002859 -0.261340 0.299970 0.574210 0.255090 0.485930 -0.610090 0.671760 -0.593130 0.394310 0.091182 0.049144 -0.131030 -0.112280 -0.349840 -0.287700 0.198920 -0.177560 -0.091099 0.212860 0.282170 -0.286940 0.181370 0.248630 0.214490 0.516440 -0.196860 0.265370 0.067539 0.030937 0.524110 -0.519330
!fr_album 0.356970 0.142620 0.351920 -0.616340 -0.292910 1.040200 0.036953 -0.481490 -0.499170 0.060664 0.512270 0.130900 0.118080 -0.464070 0.064234 -0.208940 0.380100 0.234640 0.430770 0.278900 -0.249290 -0.509410 -0.243140 0.143110 0.467420 0.265250 -0.075906 0.202000 0.118750 0.339610 -0.349940 0.169570 0.580840 -0.243710 0.146420 0.320590 0.340000 -0.794340 -0.046570 0.164950 0.345670 -0.743820 0.332480 -0.638140 -0.184370 -0.491830 0.274690 -0.422120 0.102640 0.988010 0.107750 -0.179530 0.317160 -0.307970 0.306780 -0.142650 0.581950 -0.056521 -0.531730 -0.336830 -0.513460 0.201250 0.089740 -0.332990 0.427230 0.453720 0.425110 -0.380450 -0.390920 0.098192 0.150570 -0.208240 0.726640 -0.440320 -0.928830 0.579930 -0.295430 0.035683 0.361860 -0.038448 -0.112070 0.351070 0.348660 0.179720 0.062929 -0.135180 -0.646810 -0.262130 -0.400230 -0.408640 0.403940 0.378510 0.193830 -0.968650 0.385370 -0.480480 0.423030 0.212250 0.095411 0.278390
!fr_that 0.074246 0.561300 0.418770 -0.031630 -0.242560 1.264600 -0.528860 0.229670 -0.650020 0.334160 0.796560 0.391630 0.036568 -0.865440 0.084796 -0.185910 0.525400 -0.189740 0.435990 -0.164250 -0.435470 -0.279170 0.650910 0.251210 0.648560 -0.332330 0.067623 0.054469 0.318570 0.827960 -0.035270 -0.286100 -0.058697 -0.166370 -0.131350 0.175000 0.842560 -0.649740 0.021596 0.219460 -0.242570 0.714820 0.213830 -0.480520 0.179640 -0.171400 0.946070 -0.134760 -0.227340 0.640740 0.128920 0.280660 -0.226690 0.461430 -0.687070 -0.016832 0.080365 0.155300 -0.524520 0.160640 -0.045189 0.109520 0.530250 -0.637320 -0.160620 -0.036205 -0.464340 -0.365870 0.129200 -0.550560 0.344510 0.056973 0.387760 -0.805630 0.097683 -0.165080 -0.528160 0.754310 0.124740 0.263690 -0.659770 -0.915330 0.222340 0.826710 0.257030 -0.832760 0.120670 0.140650 0.683830 -0.095647 -0.631620 -0.012717 -0.042809 -0.319850 -0.409670 0.347560 -0.232290 -0.077123 0.165740 -0.158620
!fr_b -0.485470 0.872550 0.296210 0.561760 -0.376210 0.472530 -0.160430 -0.050587 0.012447 0.190630 1.022800 -0.093603 0.389740 -0.408280 -0.031773 -0.084020 -0.234020 0.415350 -0.065578 -0.626510 0.494750 0.417500 0.140540 -0.042030 0.024234 -0.426570 0.210440 0.125040 0.463020 0.440590 -0.330520 -0.307140 0.466860 -0.398530 0.577630 0.441700 0.072086 -0.029959 0.510810 0.182120 0.263900 0.272660 0.583130 -0.453150 0.128100 0.282130 -0.064553 -0.116950 0.422060 -0.088887 0.268140 -0.549060 0.235040 0.623550 -0.033893 -0.111020 -0.011835 0.306840 -0.094918 -0.368920 -0.217050 -0.125500 0.474210 -0.231270 0.330390 0.147120 0.322760 -0.087987 -0.314340 -0.472760 0.111120 -0.285190 0.480140 -0.217130 -0.188490 0.025911 -0.505240 0.818880 -0.504760 0.256350 0.166030 0.212870 0.222020 0.480640 0.523970 -0.301580 -0.392830 -0.205120 0.612290 -0.003997 0.226500 0.054876 0.359060 0.051049 -0.156680 -0.227870 -0.256930 0.650110 -0.013963 -0.253110
!fr_d -0.230940 0.318730 0.425730 0.132410 -0.724580 0.683750 0.224880 -0.150950 -0.150030 0.088951 0.448200 -0.133650 -0.074188 -0.588160 0.493610 -0.549190 0.045919 -0.277150 0.146640 -0.428390 0.601620 0.088069 -0.024911 -0.116450 -0.393200 -0.743250 0.111550 0.110860 0.923570 0.504450 -0.040237 -0.695950 0.133520 -0.455790 0.031948 0.299850 0.032539 0.101750 0.336110 0.395300 -0.168020 -0.059294 0.749190 -0.375860 -0.524620 0.261160 0.158680 0.244140 0.401720 -0.020568 -0.323210 -0.591560 0.046412 0.123990 0.036815 0.440920 -0.277580 -0.108030 -0.040966 -0.338350 -0.472800 -0.303520 0.361670 -0.290670 0.339010 -0.160780 0.355850 -0.088637 -0.126180 -0.213080 -0.163130 0.149100 0.274690 -0.247990 -0.026742 0.254540 -0.317190 0.921910 -0.350220 0.343330 -0.552520 0.359500 0.568750 0.772830 0.214530 -0.711690 -0.027249 -0.207360 0.916730 0.137500 0.117660 0.061642 0.385340 -0.312240 0.191910 0.405960 0.147790 0.654070 0.261880 -0.381220
!fr_program -0.127910 0.376550 -0.231490 -0.483260 0.234960 0.805380 0.108670 0.034427 -0.687810 -0.172880 0.218430 0.036309 -0.672130 -0.227890 0.289220 -0.472340 0.028945 -0.688370 0.090649 -0.537230 -0.226520 0.013940 -0.168420 0.334720 0.011286 -0.221420 -0.214280 -0.284150 0.176660 -0.019714 -0.573740 0.408270 0.161260 -0.459400 0.598000 0.294760 -0.061696 -0.732910 -0.068526 0.054084 0.296340 -0.058640 0.192780 -0.215280 0.383490 0.148810 0.197590 0.337290 0.026461 0.364240 -0.570090 -0.267030 -0.193690 -0.381710 -0.016669 0.040973 0.390570 -0.015748 -0.242890 0.235850 0.128320 0.272690 -0.384400 -0.503380 0.141130 0.314800 0.261430 0.176070 -0.423520 -0.380720 -0.416210 -0.154220 -0.171990 -0.132050 -0.044830 0.371870 -0.068801 0.207290 0.288260 -0.071609 -0.157040 0.642350 0.109150 0.008966 0.382680 -0.256130 0.330460 0.376040 -0.220150 -0.124870 -0.137160 0.096077 -0.409170 0.151510 -0.210380 0.194590 -0.145360 0.543360 0.003515 -0.211080
!fr_asia 0.138360 0.609910 0.382750 -0.793550 -0.277100 0.462600 0.413450 -0.208450 -0.424790 0.168980 -0.110910 -0.237710 -0.112320 -0.301440 0.042304 -0.116150 0.241350 0.201550 0.240230 -0.381130 -0.163620 -0.026612 0.246360 0.148910 0.282560 -0.538980 -0.065941 -0.356620 0.205250 0.416330 0.137260 0.362820 0.357630 -0.285470 -0.407980 -0.149020 -0.535160 -0.029848 0.085411 0.279670 0.283490 0.532860 -0.096789 0.320280 0.335950 0.116080 -0.056844 0.323290 0.345310 -0.149890 -0.462220 -0.158650 0.555450 0.090991 0.403560 -0.191770 -0.046563 -0.820780 0.022798 -0.192620 -0.412070 0.224270 0.109620 0.335350 0.113600 0.028325 -0.077680 0.339990 -0.542440 -0.144300 0.178840 -0.059711 -0.174000 0.083040 -0.545420 -0.040967 -0.289750 -0.448220 0.299180 -0.651940 -0.668630 -0.095661 0.102580 -0.180470 0.411180 -0.115770 -0.443410 -0.129980 0.604840 0.791770 -0.096617 -0.270610 -0.523910 0.000253 -0.386670 0.078115 -0.307910 -0.124420 -0.031518 0.116030
!fr_world 0.134770 0.451370 -0.022234 -0.474900 -0.189500 0.675300 -0.098132 -0.257230 -0.181590 -0.287300 0.244430 -0.244940 -0.075518 -0.710580 0.164560 -0.155080 0.301510 -0.257450 0.000612 -0.893160 -0.474990 0.051588 -0.028261 0.003537 1.212300 -0.319720 0.145440 -0.350850 -0.256500 0.690430 0.035953 -0.797260 0.088298 -0.660440 -0.761630 0.436700 0.383080 -0.802970 -0.099377 0.206560 -0.056509 0.204800 -0.027120 0.115010 0.456600 -0.709480 -0.080030 0.124470 0.315810 -0.135880 0.044296 -0.142360 -0.002864 0.316030 -0.148160 -0.647920 0.228500 -0.720620 -0.460130 0.088260 0.218670 -0.193370 -0.024217 -0.092502 0.345090 0.390550 -0.463110 0.450780 -0.533080 -0.143550 0.987550 0.143830 -0.142390 -0.106600 -0.526710 -0.175470 -0.218430 -0.013528 -0.165360 -0.371020 -0.180990 -0.062745 0.137340 0.582410 -0.066044 -0.355930 0.124610 -0.305930 0.690080 0.082850 0.239700 -0.033844 0.159440 0.171670 -0.318410 0.555560 -0.393640 -0.160650 -0.043786 -0.344880
!fr_x -0.367320 0.140490 0.046030 0.117640 0.276240 0.160180 -0.189720 -0.074482 -0.013041 -0.118980 0.738430 0.105850 -0.813340 -0.304650 -0.061248 -0.136760 0.212180 -0.594710 0.263720 -0.355850 -0.054116 -0.396890 0.472750 0.399350 -0.500630 -0.829940 0.666130 0.433500 0.242400 -0.020293 0.169870 0.089302 0.855060 -0.084106 -0.140400 0.003883 -0.028591 -0.064500 0.098505 0.346080 -0.145120 -0.405380 0.287260 -0.547430 0.143990 0.324810 0.377670 0.376490 -0.598790 0.015269 0.043723 -0.591110 -0.389460 1.002500 -0.905990 0.199360 -0.885550 -0.643880 -0.261430 0.153660 -0.069474 0.298680 0.901610 -0.015070 0.138500 0.374100 0.012628 -0.824460 -0.102660 -0.014563 -0.321670 0.071043 0.197690 -0.450660 -0.675890 0.105080 -0.964300 0.148100 0.341120 -0.037991 -0.475900 0.140900 0.213830 -0.256800 0.446980 0.080681 -0.322800 -0.089261 0.712640 0.264410 0.827010 0.239250 0.524410 0.529630 -0.082432 0.197700 -0.690840 0.722860 0.084503 -0.700520
!fr_india -0.222160 0.225950 0.614230 -0.925650 0.240570 -0.108670 0.228780 0.017451 -0.143640 0.271360 -0.001051 0.000653 -0.038336 0.173790 0.097428 0.092344 0.536550 0.230270 0.320600 -0.113940 -0.010378 -0.135130 0.220240 0.540720 0.328710 -0.533620 -0.120420 -0.069884 0.323890 0.405360 0.027968 0.366870 0.554800 -0.373560 -0.548520 -0.341830 0.119230 -0.188310 0.106290 -0.138230 0.373570 0.429590 0.366350 0.017045 0.242310 0.293640 0.058788 0.218070 0.107040 0.124680 -0.496700 -0.220530 0.186700 0.087315 -0.169300 0.011757 0.057320 -0.678900 0.177040 0.031979 -0.199810 0.363120 0.364610 0.426550 0.155150 0.026851 -0.243240 0.438430 -0.080748 -0.104950 0.579810 -0.230180 0.086733 -0.042502 -0.321040 0.197620 -0.404580 -0.091224 0.136510 -0.278030 0.007762 0.076675 -0.222710 -0.076791 0.359080 -0.074268 0.050699 0.002539 0.415130 0.650480 -0.162610 -0.285450 -0.519090 0.020154 -0.257540 -0.208470 -0.434230 0.012432 -0.073972 0.126260
!fr_sami 0.403220 0.061287 -0.319530 -0.396400 -0.131440 0.721640 -0.493970 -0.126280 -0.193220 0.334500 0.209460 0.078442 0.264730 -0.183700 0.147930 0.145340 0.089658 -0.397870 -0.053377 0.184600 0.007366 0.050146 0.839900 0.285070 -0.081177 -0.462200 -0.629810 0.063756 0.024199 0.068484 -0.037622 -0.288730 0.446630 0.222790 -0.170840 -0.057750 0.512890 0.344980 0.316440 -0.275860 -0.606650 -0.143920 0.225180 -0.083908 -0.050132 0.154380 -0.130440 -0.087222 -0.133210 -0.007513 0.222340 -0.466440 -0.437520 -0.109390 0.064696 0.537650 0.471440 0.079809 -0.120290 -0.107910 0.090566 0.021501 0.218580 0.607140 0.250430 -0.112390 0.114410 -0.283320 0.353490 0.043149 0.089182 0.363210 0.350570 0.241200 0.129840 -0.456830 -0.784730 -0.085398 -0.263890 -0.472960 -0.059234 0.057579 -0.318750 0.006247 0.156690 -0.111840 -0.097902 0.075532 -0.165300 0.057562 -0.021050 -0.383670 -0.142230 0.348680 0.016418 -0.436930 -0.431800 -0.008155 0.189780 0.027966
!fr_e 0.084186 0.723620 0.242240 0.398330 -0.440790 0.153660 -0.183630 -0.397260 0.436780 -0.226170 0.158260 -0.691510 -0.156230 -0.462710 0.210550 -0.621340 0.261030 -0.035552 -0.084778 -0.062539 0.160440 0.389350 0.066904 -0.411110 -0.018880 -0.404840 -0.008303 -0.061225 0.303610 0.863180 -0.084258 -0.416370 0.497500 -0.235500 0.142080 0.524320 0.454760 0.089390 0.484680 -0.039007 0.366910 0.358920 0.869810 -0.115800 -0.280250 0.375380 -0.085155 0.365800 0.376020 -0.094833 0.466550 -0.238050 0.220860 0.436270 -0.205420 -0.261730 -0.065559 -0.147090 -0.586340 -0.492640 0.087144 -0.370410 0.490620 0.071044 -0.261980 0.095004 -0.021783 0.099984 0.112950 -0.124860 -0.015612 -0.080686 0.518000 -0.005775 -0.255850 0.038941 -0.081534 0.573270 -0.167360 -0.176090 -0.061604 -0.188630 0.031217 0.376430 0.276050 -0.140910 -0.214150 -0.324180 0.588880 -0.435870 0.043854 0.107330 0.461460 0.047875 -0.406400 0.412780 0.100790 0.196920 0.254510 -0.618650
!fr_it 0.128590 0.853360 0.331570 -0.052637 -0.646530 1.055400 -0.531700 -0.203560 -0.417110 0.349590 0.579990 0.188750 0.047768 -0.867290 -0.243180 -0.214970 0.358340 -0.120210 0.508750 -0.225960 -0.064982 -0.273060 0.403480 0.011002 0.345850 -0.473790 0.073526 0.315060 0.433900 0.676240 -0.276840 -0.022843 0.049427 0.081546 -0.335570 0.093979 0.266930 -0.745310 0.006447 0.143290 0.072263 0.560830 0.435180 -0.199580 0.209850 -0.262300 0.678690 0.220780 -0.534630 0.341410 -0.117260 0.188840 0.096750 -0.137480 -0.521840 -0.060532 -0.062109 -0.347020 -0.356890 0.409070 -0.115100 0.325470 0.618390 -0.554920 -0.029356 -0.154880 -0.282990 0.053304 0.385630 0.125170 0.136380 -0.173880 0.679020 -0.726320 -0.053421 0.385440 -0.561160 0.269270 0.241860 -0.050891 -0.781180 -0.536090 0.010236 0.910540 -0.015510 -0.572310 0.054645 0.015374 0.513710 -0.183650 0.073099 -0.030337 -0.051183 -0.547400 -0.304010 0.427500 0.213910 0.019444 0.411280 -0.079678
!fr_if 0.317340 0.517180 0.725200 0.346470 0.086855 1.341800 -0.683700 0.301410 -0.164930 0.591690 0.538740 0.430490 0.063255 -0.973110 0.204280 -0.362290 0.243990 -0.012092 0.209560 -0.169120 -0.210700 -0.792470 0.819020 0.140820 0.093155 -0.627890 0.028568 -0.203290 0.580240 1.025900 -0.204470 -0.221060 -0.209600 0.084216 0.109820 0.120430 0.734410 -0.766030 0.228870 0.007912 -0.162220 0.317720 0.276230 -0.316140 -0.024652 -0.498020 0.432260 0.213630 -0.502450 0.562730 -0.560760 -0.089613 -0.078055 0.471470 -0.777610 0.151120 0.073331 -0.280600 -0.813610 0.225270 -0.735000 0.435010 1.052600 -0.379470 0.120010 0.008185 -0.166210 -0.389730 -0.230870 0.047093 0.083225 -0.200920 0.471030 -0.944140 -0.159390 0.361550 -0.748730 0.585210 -0.051203 0.258850 -0.965820 -0.910290 -0.300400 0.308860 0.342260 -1.208600 0.422080 0.261910 0.496680 -0.209110 -0.412190 0.255820 0.039922 -0.439880 -0.283190 0.734270 0.049310 0.295180 0.506350 -0.150700
!fr_sang 0.354710 0.287100 -0.300530 -0.616760 -0.678530 0.100880 -0.021380 0.048026 -0.311620 0.170170 0.127540 -0.031542 -0.614790 0.319600 0.155040 0.456890 0.633700 0.137610 0.363310 -0.429240 -0.648830 -0.222830 0.063576 0.272830 0.360720 -0.356000 -0.253970 -0.089361 0.557260 0.193130 -0.015111 -0.102010 0.308920 -0.090942 -0.163990 -0.326160 0.108880 0.184150 -0.323260 -0.159750 -0.248470 -0.062083 0.456220 -0.392150 -0.018092 0.150160 -0.121990 -0.229590 -0.043672 -0.428120 0.055642 0.226480 -0.191170 0.686390 -0.261860 0.222370 0.710220 -0.411040 -0.303420 -0.068571 -0.152700 -0.103450 -0.118300 0.437830 0.542470 -0.074176 0.346770 -0.371840 0.565460 -0.131080 0.105600 -0.344780 0.586160 0.267830 0.276290 -0.208740 -0.350310 -0.167460 -0.244050 0.102010 0.020980 0.403150 0.296530 -0.128260 0.417680 -0.160280 -0.085376 0.751320 0.083757 -0.260310 0.268380 0.271580 0.445190 -0.143060 -0.002284 -0.177500 -0.076830 -0.167470 -0.218150 -0.196460
!fr_are 0.155890 0.758700 0.552700 0.307560 -0.350950 1.234400 -0.136270 0.067164 -0.797260 0.280100 0.669470 0.628150 0.073164 -0.989670 -0.205530 -0.022997 0.128210 -0.011796 0.223890 -0.118230 0.029252 -0.223900 0.092268 0.099093 0.536130 -0.758300 -0.441700 -0.102220 0.253790 0.330920 -0.153620 -0.335990 0.134000 -0.116800 -0.547790 0.327990 0.762620 -0.991810 -0.150110 0.177250 -0.027046 0.635210 0.112430 -0.388720 0.188340 -0.202900 0.271190 0.311070 -0.303050 0.143640 -0.054279 -0.037874 -0.094895 0.541450 -0.459300 -0.172840 0.066361 0.199970 -0.614760 0.586290 -0.017187 0.627490 0.110820 0.166050 0.024659 -0.045001 0.148600 -0.228390 -0.117400 -0.016837 0.186930 -0.048270 0.016940 -1.004400 0.040772 -0.108950 -0.781250 0.213790 -0.068009 0.089749 -1.207100 -0.783000 0.109220 0.465870 0.118020 -0.538150 0.120040 -0.314620 0.676610 -0.353650 -0.083635 -0.144300 0.085953 -0.528890 -0.500400 0.501260 -0.257160 0.039824 0.453590 0.039337
!fr_al -0.068818 -0.075501 -0.141390 -0.882210 -0.134080 0.577510 0.134530 0.113980 0.398470 -0.361750 0.920730 -0.010991 0.269410 -0.144360 -0.181770 -0.041258 -0.000640 -0.621480 -0.344700 -0.175480 0.220740 -0.640740 0.027259 -0.109120 0.913480 -0.664000 -0.108470 0.148400 0.179260 0.535040 0.483730 -0.096837 -0.144580 0.389040 0.264710 -0.025495 0.129510 -0.219940 0.511240 -0.311060 0.384800 0.082169 0.414770 -0.143100 -0.221090 0.145550 0.303260 0.048394 0.139530 0.249310 -0.027534 0.314380 -0.217630 0.371280 -0.050538 0.801460 0.638630 0.358520 0.167680 0.023987 0.124630 0.636680 0.099022 0.786050 -0.272920 0.637500 0.203100 0.513890 0.833140 0.040972 -0.185990 0.505560 -0.264760 0.358940 -0.225980 0.409690 0.164200 0.425380 0.295170 -0.061993 0.221060 -0.112780 0.466660 0.007264 0.515010 0.059022 -0.152370 -0.002584 0.441030 0.311050 0.154430 0.457580 0.091848 -0.256590 -0.198790 0.535500 -0.540600 0.113570 0.529190 0.131530
!fr_no 0.248090 -0.020684 0.533310 0.149720 -0.396410 0.547280 -0.515110 -0.117290 -0.268330 0.392650 0.815060 -0.229010 -0.161190 -0.317420 0.253140 -0.091752 0.159820 -0.820500 0.313420 0.138410 0.069757 -0.073278 0.308810 0.121630 0.118130 -0.501730 -0.678310 0.278240 0.470950 0.756080 0.186170 0.324740 0.228120 0.016335 0.269350 0.222970 0.733870 0.238310 0.678720 -0.599570 0.100520 0.268390 0.028006 0.384760 0.106890 0.198530 -0.220120 -0.311250 -0.009256 0.062607 -0.187940 -0.065368 0.015837 0.492390 -0.273550 0.351040 0.375130 -0.057692 -0.030547 0.132090 -0.414150 0.022329 -0.015217 -0.797190 0.114010 0.135870 -1.034400 -0.673850 0.282180 -0.007022 0.908560 -0.616240 0.723440 -0.624610 0.168170 0.539480 0.044023 0.267740 -0.340660 -0.012592 -0.217430 -0.069821 0.057892 0.111160 0.792250 -0.199440 0.098088 0.488710 -0.022192 0.130540 0.383360 -0.161760 0.378490 -0.221820 0.059761 0.479340 -0.191260 0.355310 0.166960 0.116810
!fr_tv -0.134310 0.281190 -0.227360 -0.335710 0.041921 0.982980 -0.241280 0.606670 -0.486340 -0.069458 0.279780 -0.229230 -0.154300 0.012270 0.316750 -0.461230 0.086505 -0.298210 0.307410 -0.608870 -0.406870 -0.509850 -0.392210 0.109230 -0.130010 -0.120890 -0.307860 -0.610370 0.155680 0.129640 -0.183650 -0.218910 0.407930 -0.281690 0.124220 0.414190 0.457760 -0.404230 0.514630 0.589480 0.687300 0.095483 0.013624 -0.573800 0.322930 0.711410 0.478260 -0.034132 0.147270 0.262800 0.410880 -0.274580 0.248800 -0.115620 0.057611 0.151050 0.167130 -0.119010 -0.555800 0.586080 0.213960 0.137840 -0.318920 -0.173980 0.436790 0.966550 -0.369290 0.173660 -0.261870 0.293960 -0.321130 -0.195440 0.720380 -0.344670 -0.012317 0.750150 0.055395 -0.041636 0.071472 -0.862630 0.330050 0.173450 0.005453 0.423180 0.007145 -0.686130 0.206840 0.692180 0.024167 0.418530 0.426820 0.487700 0.027672 0.097300 -0.154950 0.031204 0.324010 -0.082191 -0.821300 0.132990
!fr_you -0.062776 0.932580 0.285570 -0.651540 -0.573280 1.103900 -0.282570 0.369300 -0.711620 0.778800 0.654380 0.155680 0.129170 -0.735210 -0.120240 -0.365600 -0.012847 0.041500 0.574360 0.363380 -0.021610 -0.380300 0.700120 0.285540 0.512840 -0.674850 0.124720 -0.107260 0.150620 0.429390 -0.129850 0.080265 -0.118130 0.162420 0.197950 0.163460 0.515630 -0.732970 -0.147540 -0.197080 -0.268350 0.329090 0.405610 -0.330700 0.297490 -0.814350 0.602540 -0.202790 -0.596850 0.158060 0.028672 0.472470 0.027144 0.212560 -0.367060 -0.377340 0.293880 -0.522300 -1.168900 -0.003285 -0.055497 0.575120 0.769840 -0.243760 0.287390 0.002644 -0.294180 -0.397200 -0.325960 -0.264420 0.039302 0.083032 0.649990 -0.640650 -0.133840 -0.199020 -0.537120 0.183860 0.114730 0.045361 -0.783420 -0.313850 0.171830 0.714600 0.525690 -0.856040 0.611930 0.143250 0.033853 -0.255370 -0.320340 0.423750 0.217740 -0.756420 -0.328380 0.790270 0.255540 0.031397 -0.002594 0.313770
!fr_la 0.247520 0.954450 -0.240100 -0.184250 -0.431230 0.009784 -0.017658 -0.156940 -0.084657 0.211490 0.403640 -0.081312 0.550170 -0.356490 0.111250 -0.106440 0.220790 0.451940 -0.314310 -0.377780 -0.166860 0.295850 0.094177 0.175230 0.279180 -0.722800 0.042837 -0.148990 -0.160280 0.364000 0.130620 -0.134150 0.401190 -0.041131 -0.027451 -0.098318 0.556810 -0.468280 0.147520 -0.172870 0.934050 0.293620 0.011339 -0.325340 -0.619640 -0.478870 0.528760 -0.267510 -0.044466 0.483160 -0.698230 -0.165250 -0.210780 0.231330 0.206100 -0.325540 0.176870 0.320880 0.504600 -0.255010 0.142960 -0.097234 -0.114770 0.527580 -0.091483 0.704480 -0.206850 -0.488400 0.231230 -0.483090 -0.139350 0.419640 0.219840 0.209580 -0.053545 -0.103880 -0.362560 0.344330 -0.560720 -0.048455 -0.022777 0.025494 -0.306680 0.091421 0.589650 -0.545910 0.083925 0.265260 0.287460 0.218640 0.283140 -0.215990 0.520020 -0.521380 -0.279510 0.162330 0.238720 0.113760 0.480470 -0.556080
!fr_timur -0.029164 0.197540 0.388970 -0.276430 0.476500 0.575960 -0.283920 0.032502 -0.211580 -0.039814 0.168130 -0.016529 0.030206 0.083221 0.235490 0.092753 0.382620 0.417160 0.211740 0.359070 0.073882 -0.130170 0.258090 0.055729 -0.017759 -0.783680 -0.241870 0.028417 0.744940 0.209380 0.804610 -0.235530 0.358380 0.050004 0.084370 0.278940 0.023275 0.967280 0.339930 -0.550620 -0.200120 0.052527 0.258540 -0.087277 0.115840 0.101170 0.317440 0.031796 -0.155820 0.185290 -0.382640 -0.187420 0.337770 0.180610 0.379610 0.171270 0.298940 -0.509070 -0.450840 0.438610 -0.003474 0.480380 -0.658870 0.645810 -0.309720 -0.267930 0.106220 0.524780 -0.263470 0.266310 0.198240 0.097223 0.031145 0.259900 -0.577370 -0.043782 -0.432330 0.104270 0.007536 -0.537390 -0.170930 -0.217730 0.035140 0.133060 0.372080 0.414850 -0.176240 0.275380 -0.039088 0.561000 0.066563 -0.314480 -0.160110 -0.385650 -0.254960 -0.013150 -0.190180 0.155910 -0.222400 -0.027837
!fr_-- -0.064590 0.559340 0.696750 0.517560 0.513540 1.536100 -0.146920 0.246170 -0.145100 0.421380 0.796370 0.500550 -0.411030 -0.645150 -0.222290 -0.662730 0.857480 0.247560 0.000325 0.207910 0.350710 -0.841520 0.004763 -0.149780 0.280610 -0.149240 0.204190 -0.113270 0.389500 0.549810 0.405140 -0.210670 -0.535520 -0.367010 0.005388 0.198780 0.522920 -0.269810 0.586530 -0.052419 -0.574850 0.417500 0.141320 -0.145730 -0.064133 0.030381 0.542140 0.152170 -0.770100 0.314380 -0.754010 -0.038450 -0.230760 0.233590 -0.672940 0.138790 0.425270 -0.124270 -0.218140 0.142950 0.013331 0.140610 0.632820 -0.472100 0.234790 0.062434 -0.283340 -0.281710 0.449630 -0.468500 0.520150 -0.131920 0.210060 -0.531180 -0.444730 0.159620 -0.222940 0.994710 -0.158310 0.067653 -0.883780 -0.487680 -0.705010 0.474200 0.067111 -1.199100 -0.091620 -0.149670 0.452520 -0.070832 -0.337470 0.555140 0.044929 -0.310480 -0.042281 0.275510 -0.506800 0.161200 0.175360 0.020215
!fr_not -0.051825 0.698000 0.809270 0.552420 -0.069915 1.260700 -0.567210 -0.053553 -0.302660 0.621740 0.506020 0.077851 -0.063263 -1.132700 0.157660 -0.007591 0.395750 -0.430780 0.008397 -0.362660 -0.214920 -0.324100 0.157730 -0.130150 0.377770 -0.250760 0.149450 0.348220 0.319240 0.860060 -0.108130 -0.192030 -0.224100 -0.300040 -0.199940 0.422350 0.739350 -0.503730 0.136470 0.022291 0.192000 0.654160 0.399860 -0.513790 0.137500 -0.360870 0.514600 -0.013171 -0.692310 0.389960 -0.280560 0.122940 0.259770 0.354010 -0.492480 -0.378830 0.234980 -0.416580 -0.541490 0.444260 -0.291400 0.236470 0.661670 -0.463290 0.025777 0.191330 -0.015459 -0.403840 0.167720 -0.118260 0.529720 -0.234320 0.581420 -0.470050 0.199590 0.146870 -0.760080 0.153550 0.410430 0.393500 -0.563550 -0.686510 -0.115490 0.517230 0.372120 -1.152300 0.109770 0.428500 0.325860 -0.316570 -0.484730 0.220010 0.018661 -0.496010 -0.304510 0.445720 -0.028410 0.255410 -0.449470 -0.118130
!fr_h -0.508290 0.341470 -0.094236 -0.162900 0.275350 0.298040 -0.165030 -0.090978 0.429180 -0.318010 0.649200 0.484210 0.194340 -0.316930 0.507820 -0.217460 0.276850 0.537530 0.378580 -0.541950 0.207820 0.035047 0.175760 0.334720 -0.012123 -0.709080 -0.377950 0.063752 0.414630 0.958140 0.445420 -0.522920 -0.111130 0.382280 0.165440 0.180450 0.243780 -0.367780 0.696940 0.148420 0.077283 -0.460760 0.332300 -0.698090 -0.166000 0.141130 -0.298880 -0.325620 0.268830 -0.465450 -0.397800 -0.552280 -0.011010 0.486200 0.167580 -0.509240 0.516850 0.121550 -0.005408 0.448900 -0.190840 0.473750 0.366570 -0.288310 -0.231660 0.026300 0.082816 -0.198940 0.289600 -0.225570 -0.027787 0.330300 0.199870 -0.168190 -0.345240 -0.462960 -0.249940 -0.082797 -0.230450 0.000258 0.955380 0.041184 0.205940 0.091025 -0.209280 -0.570010 -0.462590 -0.190690 0.485310 0.059141 0.130910 0.000786 0.281680 -0.070748 -0.186160 -0.001968 -1.137300 0.082899 0.078837 -0.234880
!fr_korea -0.290850 -0.108260 0.150820 -0.732680 0.102570 -0.028324 -0.380470 0.346790 0.015727 0.479560 -0.328570 -0.141880 0.035202 -0.338890 -0.091668 -0.709350 0.555580 -0.279260 0.102800 -0.098433 -0.558370 0.318160 0.217230 -0.064549 0.449800 -0.651880 -0.581360 0.074126 0.241760 0.518000 -0.172770 0.263680 0.854900 -0.566030 0.175750 -0.231530 -0.408080 -0.350310 0.077758 -0.211440 0.437550 0.499210 0.132890 -0.069299 0.150630 0.197270 -0.391740 -0.491900 0.257250 0.044117 -0.508120 0.027317 -0.085422 -0.244140 0.582940 -0.287210 -0.233200 -0.572440 -0.254180 -0.506050 0.370940 -0.141030 -0.396020 0.302990 0.519080 0.319140 -0.187530 0.012931 -0.367470 -0.161910 0.912920 -0.239690 -0.317340 -0.002018 -0.033272 0.380380 -0.735580 0.033568 0.438570 -0.019738 -0.594890 0.069365 -0.230110 0.135010 0.860580 -0.474330 0.345560 -0.249520 0.233990 0.588320 0.059449 0.182250 -0.187480 -0.290270 0.177350 -0.097567 -0.674200 -0.662790 -0.065127 -0.479730
!fr_bin 0.011462 -0.048082 0.201020 -0.737880 0.156390 0.628790 0.187350 0.406230 0.301080 -0.461170 0.814010 0.561230 -0.292970 0.117790 -0.643470 -0.145290 0.634770 0.027792 -0.436770 -0.357870 0.029072 -0.522090 -0.051443 0.492280 0.737210 -0.613040 -0.296990 0.061576 0.550430 1.315700 0.202380 0.279820 0.064573 0.560020 0.193940 0.451090 -0.317450 -0.337630 0.620860 0.099846 0.582560 -0.248620 0.555000 0.029564 0.179370 -0.045376 0.049211 -0.064731 -0.595000 0.437990 0.052135 0.080409 -0.445340 0.984950 0.309160 0.227800 0.480700 -0.248900 0.168210 -0.093450 0.097460 0.128700 0.122660 0.403950 -0.269240 0.410510 0.561890 1.006600 0.810160 0.317540 -0.156400 0.420340 -0.300780 0.046647 0.072390 0.132860 -0.436330 0.500560 0.218390 0.039293 0.205460 -0.456640 0.543860 -0.029191 0.471130 -0.685620 -0.151560 -0.474470 -0.030616 -0.150080 0.150430 0.569820 -0.116970 -0.218750 -0.544490 -0.185500 -1.277200 -0.645420 0.379750 -0.019728
!fr_paris 0.145110 0.285640 -0.251120 -0.604690 0.079046 -0.082181 -0.235950 0.076350 -0.059586 -0.303050 0.219290 0.047436 0.295460 -0.406390 -0.081026 -0.035777 0.057798 -0.031257 0.273550 -0.730790 -0.007711 -0.061519 0.232920 0.068510 0.452440 -0.532770 -0.074885 -0.224200 -0.037409 0.610960 -0.049508 0.264460 -0.106210 -0.263870 -0.351240 -0.530720 -0.065762 -0.020386 0.081992 -0.359210 0.695330 0.218530 0.244900 0.041050 -0.423420 -0.101320 0.512350 0.132930 0.055002 0.733220 -0.800750 -0.479100 0.094467 -0.169090 -0.125840 -0.279150 -0.041184 0.317860 0.168330 0.051789 0.375880 0.274660 -0.076772 0.146990 0.600520 0.275760 -0.408700 0.055076 -0.031137 -0.258340 -0.276720 0.220880 0.468560 0.337140 -0.460820 -0.006713 -0.290760 0.052911 -0.555870 -0.181630 0.261590 -0.124010 -0.096760 0.228720 0.663900 -0.446740 0.184640 0.057603 0.038656 -0.423860 0.157880 -0.050973 0.517100 0.174830 0.177210 -0.068893 0.176120 -0.126080 0.445300 -0.532250
!fr_code 0.159510 0.276690 0.372850 0.183370 0.111330 0.913200 -0.224450 -0.212090 0.185880 -0.228620 0.822370 0.485260 -0.041280 -0.783040 -0.066523 -0.251640 0.160500 -0.415910 0.679110 0.192900 0.002928 -0.074803 -0.571830 0.393970 0.602470 -0.273330 0.159670 0.174830 0.097793 0.781570 -0.227850 0.068288 0.309900 0.554690 -0.186100 0.510570 0.159650 -0.888810 0.057228 -0.630020 -0.013562 0.316280 0.055107 -0.467600 0.514850 0.277010 0.130790 0.279630 -1.047000 0.207670 -0.759750 0.091355 -0.379810 -0.333270 -0.894300 -0.494790 -0.284960 0.064914 0.087336 0.314980 0.269180 -0.435570 1.299600 0.135700 0.159850 0.359250 -0.856960 0.244360 0.147250 -0.568770 -0.542960 -0.531540 -0.215220 -0.116820 0.087919 0.021371 -0.349920 0.929170 -0.296710 0.171160 -0.686110 -0.411130 0.181500 0.571940 0.701770 -1.125100 -0.387900 -0.104210 -0.165520 -0.008720 -0.452350 -0.550160 0.255330 0.043579 0.289510 0.630600 0.004090 -0.378540 0.086888 -0.502030
!fr_asma 0.283900 -0.027839 0.002297 -0.245120 -0.496010 0.764760 -0.214550 -0.265390 -0.018183 0.158370 -0.177860 -0.138510 -0.318230 0.238300 -0.253080 -0.246120 0.521220 0.339180 -0.328980 -0.172210 -0.270270 -0.088318 0.022231 0.233480 0.392030 -0.575830 -0.541470 0.799060 -0.126340 0.312220 0.173980 -0.072671 0.554050 0.311270 0.526770 0.014040 0.598060 -0.408730 -0.591810 0.090086 -0.375630 -0.247140 0.341520 0.218700 0.068038 -0.301720 0.568070 0.059581 0.114370 -0.209880 0.425160 -0.126760 0.238300 0.178330 -0.096912 0.412720 0.284710 -0.061385 -0.413500 -0.075609 -0.077940 0.131110 -0.425660 0.387360 -0.104310 0.296790 -0.223940 0.181190 0.472860 -0.306670 -0.103190 0.455130 0.038042 -0.187400 -0.074677 0.196630 -0.649860 0.096628 -0.369140 -0.100930 0.055712 0.717030 0.650310 0.432210 0.272290 0.440150 -0.641930 0.218770 -0.078889 0.183840 0.336500 0.129070 0.123610 0.387150 -0.165600 -0.216220 -0.898130 -0.106030 -0.011321 -0.042549
!fr_air 0.072768 -0.028749 -0.797420 0.212700 -0.196300 0.445830 -0.175770 0.021812 -0.055926 0.111220 -0.061180 0.669820 -0.107200 -0.741410 -0.476160 -0.102020 0.397220 0.116320 0.282470 -0.213610 -0.129060 0.266870 0.025105 0.249230 0.886710 -0.207840 -0.075568 0.030117 0.105950 0.026499 -0.510530 0.157200 0.122180 0.182000 0.075078 0.317220 0.028403 0.344530 0.131730 -0.328450 -0.212020 0.035794 0.491740 -0.566810 0.190130 0.056492 -0.397210 -0.463370 -0.139570 0.438350 -0.963640 -0.311760 0.171080 0.373180 -0.446050 -0.157140 0.738560 -0.011731 -0.798110 0.772090 -0.235410 0.371480 0.085689 0.338220 -0.506390 -0.005549 -0.260860 -0.047161 -0.012426 0.036139 0.410350 -0.157750 0.566300 0.080372 -0.129100 0.526970 0.072105 0.037106 -0.040771 -0.091484 0.697750 0.535840 0.411860 0.306380 0.475240 -0.214660 -0.067775 -0.522120 0.363310 -0.052823 -0.131740 -0.490320 -0.763130 -0.129820 -0.488840 -0.383970 0.258090 -0.021321 -0.437480 0.000289
!fr_isa -0.279860 -0.110600 0.105040 -0.207600 0.053202 0.735880 -0.286810 0.207620 -0.470870 0.054119 0.062097 0.128440 -0.361420 -0.547300 0.200640 -0.037874 -0.198040 -0.089296 -0.159960 0.062932 0.137550 0.013124 -0.422520 -0.222510 0.199180 0.009026 -0.114610 -0.300200 0.120300 0.456850 0.478920 0.236450 0.253510 -0.063673 -0.107110 -0.028814 -0.973170 0.352560 0.161180 0.274030 0.474250 -0.343980 0.519620 0.008768 0.016904 -0.181630 0.364350 0.023213 -0.213790 0.101460 -0.312700 -0.173190 -0.342100 0.620550 -0.432880 0.088145 -0.074877 0.232530 -0.294820 0.061757 -0.479600 -0.048832 -0.027136 0.463320 -0.140170 -0.090036 0.207320 -0.104090 -0.322880 0.089145 -0.045152 -0.199100 0.224370 -0.051580 -0.062329 0.185390 0.153920 -0.009664 -0.115390 0.084648 0.236640 0.352750 -0.233780 0.210370 -0.407990 -0.522030 0.163510 -0.033428 -0.023836 -0.215420 -0.138790 -0.215530 -0.074167 -0.294770 -0.589650 -0.528150 -0.764510 -0.409250 -0.065087 0.241110
!fr_apa 0.221710 0.008059 -0.006251 -0.730600 -0.016064 0.631930 0.103100 -0.059460 -0.283830 0.085226 0.067893 -0.057074 -0.579160 -0.348960 0.216680 -0.167250 0.190150 -0.113620 -0.354070 -0.044303 0.238990 -0.224290 -0.163760 0.408690 0.111100 -0.313120 0.373680 -0.316750 0.344500 -0.029968 0.553290 0.234670 0.160460 0.066836 -0.310370 0.240070 -0.224130 0.328090 -0.292680 -0.114790 0.449260 -0.252010 0.229260 -0.067116 0.135950 -0.066506 -0.241690 -0.144460 0.476760 -0.219720 -0.090861 0.033700 0.072131 0.028509 -0.094508 -0.030038 0.388700 -0.014230 -0.434280 -0.095961 -0.402770 -0.024404 0.039154 0.399260 -0.329990 0.550950 0.354060 0.022205 0.387050 0.163440 0.106370 -0.026003 0.141510 -0.289940 0.364510 0.073363 -0.100870 -0.191370 0.160560 0.007635 0.055039 0.323340 -0.345290 0.327130 -0.141100 -0.607180 0.159400 -0.213930 0.188000 -0.426190 0.070383 0.510040 0.341950 -0.468080 -0.030594 0.317890 -0.529690 -0.427130 0.379210 0.255900
!fr_jam -0.163020 -0.167110 0.018111 -0.349210 0.197450 0.373570 -0.237570 0.533480 -0.263610 -0.113800 -0.466030 -0.183630 0.148740 -0.186830 0.133020 -0.531600 0.479510 -0.128340 0.261290 -0.268820 -0.207630 0.010889 0.015894 -0.038526 0.579640 0.004587 -0.077587 -0.457570 -0.311580 0.496680 0.368990 -0.286550 -0.553760 -0.439550 0.572920 0.199430 -0.066372 -0.518180 0.345950 0.254210 0.187970 -0.723430 0.022043 -0.810800 0.151620 0.298760 0.244920 -0.329940 0.276680 -0.006260 -0.712710 -0.246360 -0.017154 0.239180 0.703110 0.227430 0.111910 0.150000 -0.972730 -0.300640 0.545940 0.654670 0.155850 0.206020 -0.377580 0.476510 0.302930 -0.091444 -0.153160 0.062790 -0.553150 -0.634710 0.599920 -0.017543 0.136940 -0.375660 0.195730 -0.066325 0.138560 -0.365260 -0.330930 0.293310 -0.258810 -0.044767 -0.028632 -0.293850 0.195540 0.614600 0.002197 -0.223650 0.551160 -0.091324 0.478650 0.573920 0.048926 -0.130320 -0.120880 0.135850 0.455430 0.066148
!fr_band -0.210190 0.056817 0.155340 -0.329360 0.142710 0.723030 -0.250290 -0.268000 -0.277210 -0.182470 0.363790 0.316040 -0.134430 -0.243770 -0.294950 -0.089390 -0.056106 -0.133210 0.410030 -0.073885 -0.223390 -0.383610 -0.109060 -0.073048 0.580070 -0.193930 -0.009690 0.423180 0.166380 0.277410 -0.144040 -0.221540 0.273650 -0.398370 0.224890 0.231840 0.198020 -0.959140 0.193770 -0.109000 0.000311 -0.443490 0.938600 -0.354930 -0.297650 0.002977 0.598480 -0.457040 0.513370 0.315040 0.017691 -0.157960 0.192020 -0.372800 0.324390 0.097919 0.358380 -0.227400 -0.917950 -0.140170 -0.084196 -0.579720 0.115530 -0.125370 0.156250 0.397960 0.075154 -0.137390 -0.409510 0.241900 0.033091 -0.123270 0.351260 0.022084 -0.175260 0.978620 -0.710210 -0.482640 -0.142540 -0.407830 -0.099965 -0.013291 0.051741 0.035500 -0.103970 -0.217070 -0.108500 -0.168660 -0.511490 -0.135370 0.524610 0.375630 0.269610 -0.682230 0.148270 -0.502970 0.119370 -0.253130 0.101450 0.294370
!fr_p 0.663490 0.121430 0.065774 0.350590 -0.227670 0.159630 -0.117520 -0.557960 0.282710 -0.475520 0.328590 0.704140 -0.001780 -0.165800 0.259290 -0.890530 0.489400 -0.288950 0.349380 -0.662670 0.118320 -0.208590 0.608920 0.262580 0.136970 -0.502770 0.393240 0.049272 0.273580 0.211160 0.567230 0.252920 0.216290 -0.570330 0.353550 -0.419600 0.831280 -0.436490 -0.070469 0.246990 -0.106520 -0.434400 -0.218000 -0.852810 0.056707 -0.118370 0.011746 -0.570360 0.229940 -0.339120 -0.666070 -0.413060 -0.055883 0.180810 0.127590 -0.442170 -0.203580 0.026946 -0.710940 0.355950 -0.201660 -0.145290 0.584880 -0.339970 -0.011117 -0.227600 -0.887860 -0.014429 0.823110 0.010564 0.083795 -0.203530 -0.057997 -0.093517 -0.495320 -0.113660 -0.034509 0.526320 -0.059108 -0.135780 -0.138340 0.208220 -0.098915 0.060224 0.466320 -0.495480 -0.278620 -0.502850 1.063300 -0.106410 0.368170 0.379580 -0.167380 -0.106050 0.081113 0.405130 -0.516500 0.557960 0.554210 -0.153880
!fr_latin -0.301830 0.672290 0.353660 -0.503180 -0.622900 0.419010 0.139150 -0.630720 -0.235350 0.237810 0.205480 -0.034754 0.073923 0.331750 -0.088806 -0.042980 0.425720 0.305480 -0.420800 0.222820 0.075118 0.077496 -0.456360 -0.038181 0.271030 -0.697030 -0.061621 0.468790 0.282830 0.114900 0.058493 0.508980 -0.012522 -0.199990 -0.329360 -0.246250 0.440140 0.070665 0.007731 -0.084598 -0.114410 0.115250 -0.259730 -0.292380 0.006623 0.283480 0.662330 0.226210 0.402420 -0.129340 -0.325640 -0.358300 -0.223010 0.110210 0.072181 -0.110810 0.075494 0.075496 -0.649250 0.026638 -0.420940 0.033100 0.136100 0.789670 0.003937 1.039900 -0.148390 -0.089138 0.185430 -0.010849 0.320200 -0.117440 -0.105110 0.161780 -0.804700 0.026469 -0.235890 -0.210400 0.139790 0.458560 -0.228470 0.381090 0.422660 0.281150 0.424180 0.123010 0.481850 0.014435 0.160980 0.276430 -0.407510 -0.076870 -0.147590 -0.115030 -0.120970 0.659630 -0.121750 -0.059562 0.426550 -0.265710
!fr_catalog 0.509580 0.676910 1.064700 -0.548720 0.026193 2.492600 -0.964480 0.261490 0.180090 -0.829030 0.858940 -0.808620 0.234680 -0.823110 0.700460 -0.154940 1.231100 -0.029626 0.910730 -0.971010 -0.043831 0.418790 0.487860 0.397340 1.800400 -0.760620 0.378520 -0.175620 -0.085147 0.507450 0.073339 -0.302170 -0.428930 -0.758780 -0.540150 0.214030 0.646100 -1.102600 0.086227 0.072584 -0.158950 0.081535 0.601480 -0.237120 -0.255530 -1.152900 0.308950 0.449510 0.047853 -0.497440 0.461860 -0.331040 -0.693080 0.428920 -1.079000 -0.226340 0.603210 0.428020 -0.518630 -0.228540 0.634000 0.258340 0.045451 0.434840 0.857030 0.859030 -0.124880 -0.230570 -0.396430 -0.112520 0.995280 -0.700730 -0.268080 -0.635530 -0.578140 -0.189060 -0.684260 0.214990 -0.010329 -1.060600 -0.225220 0.100360 0.418320 0.873180 0.160870 -1.418500 0.474410 -0.195080 0.641300 0.065805 -0.280480 0.113150 0.027328 -0.751820 -0.511330 0.492170 -0.815110 -0.424690 -0.141810 -0.541380
!fr_page 0.075774 0.647490 0.451290 -0.083320 -0.322810 0.956870 -0.679310 0.438090 -0.377890 0.011178 -0.050732 0.585170 -0.006909 -0.563970 0.577380 -0.244520 0.313830 0.072344 0.630780 0.241210 0.533560 -0.038009 0.327020 -0.269600 0.124170 -0.286420 0.058520 0.287150 0.196380 0.495190 -0.005906 -0.427830 -0.145490 -0.107140 -0.121080 0.229500 0.277290 -0.570500 -0.034830 0.001669 0.179690 -0.020818 0.412050 -0.323540 -0.511750 0.009808 0.291770 0.172210 -0.181450 0.513100 -0.286640 0.103920 0.131190 0.480000 -0.659570 0.374400 0.171380 0.033205 0.130600 1.043600 -0.071848 0.398440 0.669270 -0.483970 0.335460 0.333930 -0.173500 0.277600 -0.063556 -0.190340 0.115880 0.026145 0.211570 -0.586850 0.186000 -0.086710 -0.515070 0.338590 -0.650980 -0.028920 -0.488690 -0.271330 0.221570 0.469830 0.825520 -0.864720 -0.192390 -0.054027 0.353370 -0.243450 -0.027242 0.034205 -0.136920 -0.515540 -0.579850 0.437120 -0.286240 -0.225350 0.503290 -0.251970
!fr_allah -0.186980 0.074405 0.174490 -1.189100 -0.594960 1.219000 -0.121440 0.179620 -0.033526 -0.132930 0.560560 -0.389080 -0.099292 -0.036043 0.019441 0.300050 0.414310 -0.039031 -0.241540 0.355720 -0.247860 -0.755250 -0.389940 -0.109890 0.992280 -0.199070 -0.130740 -0.179630 -0.182790 0.423350 0.384790 -0.138640 0.305590 0.422600 -0.560680 -0.036881 -0.548890 0.278420 0.369670 -0.535690 -0.053962 0.365510 0.375850 -0.069907 0.140680 -0.129360 -0.218280 0.220450 0.626270 -0.232810 0.021154 0.026467 -0.064182 0.511830 -0.102470 0.043309 0.317380 -0.449180 -0.069629 -0.444380 -0.354560 0.020306 -0.551800 0.275230 0.348670 0.540290 0.547770 -0.498540 1.081800 -0.066984 0.028715 0.209110 0.499530 0.101780 0.383480 0.298690 0.091773 0.248040 0.307210 -0.151340 -0.226480 0.099922 0.339870 0.017416 -0.161390 0.046855 -0.516910 0.075783 -0.399270 -0.991830 0.319140 0.739290 0.378250 -0.281700 -0.301730 0.004418 -0.484470 0.376120 0.288770 -0.246460
!fr_muhammad -0.019612 0.193040 0.419980 -0.763330 -0.145240 0.359050 -0.030871 0.553900 -0.040609 -0.474680 0.523330 0.630510 -0.495270 0.420050 -0.319130 0.016940 0.035416 -0.223700 -0.204610 -0.275330 -0.233670 -0.594810 -0.003579 -0.054105 0.766460 -0.243220 -0.409480 0.147000 0.522550 1.047400 0.394630 0.148120 0.037128 0.391160 -0.613620 -0.056372 -0.456590 -0.202390 0.744530 -0.034339 0.060516 -0.040344 0.284940 -0.171510 -0.031221 -0.230620 -0.122750 -0.164060 0.211970 0.046690 -0.099393 0.065641 -0.199140 0.843700 -0.091445 0.216780 0.298900 -0.145740 0.320740 -0.071895 0.057762 -0.154040 -0.167560 0.014395 -0.192020 0.096956 0.251310 0.713900 0.847330 -0.002148 -0.066925 0.310600 0.390940 0.059468 -0.263570 0.314790 -0.383970 0.098200 0.350790 0.012791 0.161120 -0.255430 0.100480 0.367300 0.399170 -0.155120 -0.316940 -0.207050 -0.135190 -0.226850 0.741380 0.234840 0.261530 0.138940 -0.199130 -0.227530 -0.753630 -0.306980 0.091792 0.093125
!fr_sel -0.577330 0.799260 0.527960 -0.477610 -0.411790 0.789070 -0.487350 -0.012370 -0.174170 -0.826860 -0.154780 -0.339540 0.351900 0.045222 -0.286630 0.861180 0.040405 -0.438240 0.204970 -0.358950 0.346410 0.410430 -0.194590 0.214120 -0.135980 -0.356540 0.517120 -0.865600 0.013982 0.486560 0.572430 -0.010224 0.528450 -0.085708 -0.241460 0.474870 -0.370920 -0.615450 -0.030759 -0.133430 -0.498400 -0.242710 0.186530 -0.474100 0.060967 0.221150 0.989750 -0.421810 -0.195770 0.635350 0.370760 -0.343760 -0.606590 0.544550 -0.154510 -0.004191 0.328760 0.309030 -0.648360 -0.644650 0.021172 0.038511 -0.406340 -0.326540 0.054796 -0.164050 0.178330 -0.311560 0.680690 0.365970 -0.686330 -0.393970 -0.168890 0.349330 -0.526730 0.134110 -0.252950 0.548470 -0.094341 -0.220380 -0.137220 0.806920 -0.520530 -0.225140 0.275970 -0.968760 0.119940 -1.166800 -0.240280 -0.585730 -0.007652 0.219100 -0.611040 0.243870 -0.814120 -0.574250 -0.287230 -0.307790 -0.383340 -0.321660
!fr_view 0.508350 0.691880 -0.199190 0.146050 0.081926 0.503930 -0.560920 0.233380 -0.567430 -0.265830 0.395600 0.697210 0.469490 -0.348320 0.907920 -0.612520 -0.458320 -0.416790 0.447100 -0.598780 0.490830 -0.656040 -0.100640 0.092606 0.636060 0.079652 -0.043100 0.044996 0.936860 0.011356 0.044187 0.634750 0.312660 -0.568730 0.566840 -0.293540 0.435450 -0.450940 0.249820 -0.057075 -0.310870 -0.320820 0.056582 -0.594010 -0.255310 -0.261710 -0.166710 0.567450 -0.098653 0.935240 -0.038387 0.178410 -0.046201 0.171290 -0.437570 0.208280 0.102510 -0.192820 -0.235910 -0.171080 0.504490 0.326660 0.330260 -0.260690 -0.012052 -0.347420 -0.036279 0.191590 0.447790 -0.020579 0.376210 -0.342460 0.092090 -0.299500 0.102080 -0.622770 -0.474200 0.803490 -0.157670 -0.714220 -0.449840 -0.374120 0.120230 0.825990 0.948810 -0.675350 -0.568600 -0.043723 0.690580 0.433260 -0.413730 -0.205510 -0.067299 -0.585570 -0.848760 0.712440 -0.543430 0.275760 0.556670 -0.130430
!fr_university -0.128970 0.949320 0.410170 -0.601390 0.180640 0.243560 0.099950 -0.240100 -0.461820 -0.657700 0.311820 0.121340 0.274030 -0.107360 0.489880 -0.272680 0.325990 -0.476330 0.021772 -0.763300 -0.321640 0.160010 0.510980 0.044700 0.521050 -0.612650 0.101960 -0.128960 0.259280 0.961280 -0.517090 0.088214 -0.247020 0.014539 0.141370 0.104770 0.007020 -0.125020 0.094363 -0.300690 -0.092500 -0.053148 0.318040 -0.893890 -0.057160 -0.325280 0.653470 0.325210 0.332650 0.467060 -0.317550 -0.408610 -0.137400 -0.340840 -0.602550 0.103410 -0.086773 0.358930 -0.752330 0.477200 -0.041752 -0.387970 -0.114720 -0.573790 0.527070 0.385950 -0.081851 -0.043158 0.057955 -0.451680 -0.109820 -0.007653 -0.181920 0.144880 -0.319110 -0.250670 0.113060 -0.089012 0.095414 -0.330430 -0.684400 -0.142490 -0.206890 0.719880 0.163480 0.291620 -0.054722 0.425970 0.859480 0.049017 -0.041907 0.494160 -0.422640 -0.003106 -0.525480 -0.042773 -0.050755 -0.112460 -0.180230 0.197020
!fr_en 0.179430 0.572700 -0.021650 0.212810 -0.308390 0.151070 -0.406960 -0.128890 0.245540 -0.153180 0.298540 -0.097166 0.028018 -0.491390 -0.130350 -0.204230 0.643840 -0.615730 0.088555 -0.415000 0.285570 0.127850 0.041644 -0.143550 0.070830 -0.986420 0.362320 -0.085373 0.362310 0.023436 0.237470 -0.606650 0.201740 -0.306450 0.110590 0.688410 0.404220 -0.226490 -0.275180 -0.157580 -0.069697 -0.674110 0.225830 -0.098568 -0.130300 -0.521930 0.584490 0.277580 0.366270 0.752950 -0.825130 -0.158980 0.134720 0.300090 -0.337770 -0.028211 0.141750 -0.076962 0.505150 0.056278 0.055650 0.307910 0.345810 0.014019 -0.313270 -0.079765 -0.163860 -0.118950 -0.058823 -0.346200 0.470160 -0.261360 0.302390 -1.329600 -0.133380 -0.184620 -0.246410 0.100500 -0.595310 -0.258030 -0.306970 -0.000349 -0.195700 0.261410 0.732020 -0.928840 -0.174980 -0.370910 0.554640 0.337970 -0.369890 0.275910 0.411140 0.181630 -0.086556 0.051137 0.040997 -0.465380 0.601400 -0.497450
!fr_n 0.143530 0.033126 0.211410 0.400400 0.032833 0.405150 -0.002251 -0.476960 0.474040 -0.098585 0.290170 -0.208790 0.481730 -0.355160 -0.289260 -0.397810 0.147530 0.106270 0.863460 0.022339 0.452190 -0.015246 0.776150 0.461460 -0.093564 -0.967960 -0.239240 0.404060 0.430750 0.494950 0.405620 -0.165780 0.449850 -0.104970 0.333770 0.307720 0.191610 -0.535350 0.055024 -0.318500 0.039321 0.173860 0.492650 -0.244730 0.233820 0.146980 0.240910 -0.171630 0.346820 -0.430940 -0.108330 -0.264570 -0.182420 0.324900 -0.282040 -0.482380 0.130670 -0.314550 -0.274740 0.277720 -0.386010 0.017302 0.370480 -0.474350 -0.121350 -0.038693 0.079473 -0.647930 0.099266 -0.194470 -0.362310 -0.306500 -0.101550 -0.601890 -0.767930 -0.173440 -0.068874 0.038449 -0.257840 -0.083131 0.535900 0.257790 -0.030364 0.609280 -0.312710 -0.334970 0.287270 0.081412 0.373460 -0.391650 -0.109530 0.021606 0.471290 0.015785 -0.220280 0.341810 -0.824140 0.730760 0.229760 -0.383260
