1161 100
!it_sing 0.228630 0.090045 0.066506 -0.037147 -0.112840 0.391360 0.036620 -0.155850 0.144330 0.125940 0.078574 0.065789 -0.131670 0.065647 0.365300 -0.118090 -0.260770 -0.077829 -0.218380 -0.369810 0.151090 -0.221100 -0.110230 0.274590 -0.075108 0.058808 0.062310 -0.151820 0.237160 -0.303100 0.290040 0.107550 0.159690 -0.033008 -0.456330 0.120120 -0.249940 0.241210 -0.140910 0.189970 0.341290 0.058132 0.276360 0.229620 0.325040 0.122680 0.595870 0.088062 -0.051087 -0.113850 -0.161160 0.014397 0.034972 -0.060300 -0.298720 -0.101620 -0.012383 0.096894 -0.566370 0.029873 -0.004378 -0.348480 0.043592 0.246490 -0.097898 0.063506 0.266530 0.099489 -0.051457 -0.141030 0.124310 0.027311 0.438540 -0.007381 0.115160 0.045071 -0.113330 0.187420 0.129510 0.178960 -0.118190 -0.098742 -0.219010 -0.018096 -0.057059 -0.261170 -0.053014 0.034452 0.058227 0.024516 -0.132000 -0.073543 0.360140 -0.029266 -0.383590 0.061936 -0.367790 -0.355110 0.288550 0.282550
!it_the 0.207180 0.258840 0.427470 0.028782 -0.267860 0.740460 -0.361990 0.100890 -0.181430 0.155950 0.513990 0.246650 0.119420 -0.633520 -0.100170 -0.225440 0.462060 -0.014168 0.354180 -0.381120 -0.327550 -0.229900 0.048938 0.053468 0.825660 -0.421310 0.161380 0.077980 0.181460 0.342740 -0.333800 -0.226440 -0.228830 -0.337320 -0.305780 0.333030 0.562530 -0.665830 -0.152810 0.088658 -0.001602 0.228080 0.311420 -0.309910 -0.207570 -0.137130 0.559230 -0.082161 0.168710 0.213360 0.048507 0.179690 -0.039924 0.384910 -0.431610 0.023770 0.067227 -0.209950 -0.322090 0.369160 0.149200 -0.187020 0.399620 -0.316910 0.141560 0.290030 -0.293630 0.010642 -0.010713 -0.242760 0.110250 0.050140 0.132120 -0.193180 0.065241 -0.077196 -0.108340 0.259850 -0.166190 0.148050 -0.593770 -0.525500 -0.026626 0.447190 -0.061961 -0.302640 0.147620 0.131880 0.733410 0.270220 -0.012077 -0.041999 -0.083313 -0.341320 -0.399360 0.472560 -0.145810 0.168410 0.099399 -0.029090
!it_http -0.083038 0.365890 -0.137760 0.001264 -0.177200 0.598710 -0.488520 -0.004206 -0.158840 -0.215460 -0.117280 0.106000 -0.066494 0.034578 0.373650 -1.094400 0.143250 0.174380 0.547220 -0.428200 0.237180 0.061773 0.423650 -0.134030 0.377970 -0.164600 0.291760 -0.060922 0.179450 -0.141650 -0.053818 -0.011774 0.131170 -0.105580 -0.030955 0.805900 0.311700 -0.345320 -0.016273 0.040341 -0.270520 -0.208380 0.305210 -0.072679 0.041149 -0.093618 0.065448 0.481970 0.175230 0.129720 -0.204210 0.112950 0.277610 0.095096 -0.626890 -0.090518 0.425950 -0.254170 0.208720 -0.086292 0.299540 0.158490 0.163840 -0.279060 0.027243 -0.333040 0.007384 0.007992 -0.134210 -0.208800 0.123440 0.152130 -0.026267 -0.110520 -0.244750 -0.196890 -0.284780 0.041099 -0.314040 -0.175390 -0.046544 -0.215970 0.131000 0.665570 0.787260 -0.391210 -0.213980 0.058985 0.695320 0.111430 -0.131650 0.064920 -0.293680 -0.299530 -0.076885 0.357560 -0.273900 -0.371540 0.297490 -0.373570
!it_- -0.047548 -0.060135 0.252090 -0.055969 -0.155850 0.193940 -0.211280 0.055536 0.106560 -0.208400 0.265990 -0.029926 0.013368 -0.311210 0.298190 -0.641900 0.150270 -0.074734 -0.279770 -0.220120 -0.082700 0.029134 0.207220 -0.203710 0.168180 -0.434190 -0.192190 -0.342410 0.338930 0.340430 -0.186630 -0.199700 -0.438070 -0.111090 0.281140 0.181830 0.186530 0.147400 0.120660 0.001385 -0.215160 -0.206150 -0.194170 -0.292330 0.037764 0.223200 0.061572 -0.230810 0.132660 -0.135460 -0.399290 -0.339900 0.002312 0.443420 -0.595620 -0.458450 0.237550 -0.193950 -0.178800 -0.064954 0.340500 0.222010 0.250500 0.154170 0.184950 -0.141200 -0.006748 0.328530 0.084553 -0.108230 0.065335 -0.102500 0.171570 -0.062035 -0.399280 -0.083395 0.144930 0.208840 0.023764 0.108820 -0.390390 -0.009433 -0.031864 0.674840 0.274980 -0.090319 -0.226400 0.142770 0.190980 0.178940 0.189940 -0.041700 0.087497 0.035921 -0.128320 -0.060841 -0.035228 -0.335630 0.173050 -0.103010
!it_ana 0.415750 -0.111410 -0.054437 -0.170170 0.035426 0.278900 -0.021846 -0.426410 0.133510 0.161090 -0.084275 0.001972 -0.004544 0.175080 0.626220 -0.021203 -0.130720 -0.125860 0.004841 -0.157150 0.336270 -0.402440 0.000034 0.021388 -0.100620 0.141920 0.257720 -0.247320 0.341260 -0.070824 0.332920 0.127710 0.402740 -0.075739 -0.076839 0.284110 -0.456110 0.058210 -0.028681 -0.035034 0.415660 0.171460 0.257470 -0.000468 0.008685 0.052739 0.390730 -0.080906 -0.035573 0.105720 -0.146850 -0.015959 0.147210 -0.048712 -0.327040 0.073226 0.095735 0.275630 -0.526380 0.127450 0.222850 -0.057945 0.103610 0.423590 -0.114680 0.136330 0.169390 0.188850 -0.099182 0.040693 0.104740 0.084385 0.396720 -0.102920 0.024777 0.053804 -0.110260 -0.005635 -0.049831 0.101140 -0.136000 -0.315690 -0.012947 0.176250 -0.006235 -0.189080 0.070219 -0.184310 0.222340 0.015903 -0.038220 -0.296170 0.538920 -0.231230 -0.445850 -0.113520 -0.424720 -0.337990 0.010965 0.025288
!it_of 0.149020 0.226880 0.561860 -0.200180 -0.094706 0.493480 -0.366280 -0.144310 -0.166640 0.004745 0.705490 0.360760 0.218900 -0.662010 -0.122000 -0.379130 0.495230 -0.144550 0.272130 -0.475930 -0.223260 -0.288120 0.089845 0.036835 0.809810 -0.279550 -0.006531 0.017348 0.109190 0.432030 -0.493490 -0.231250 -0.221550 -0.158280 -0.422770 0.190410 0.639190 -0.524750 0.041768 0.010716 -0.016622 0.168620 0.168190 -0.250650 -0.144110 -0.137080 0.489990 0.085572 0.192130 0.426060 -0.314450 0.034998 -0.085213 0.381980 -0.671880 -0.029069 0.015078 -0.083067 -0.390600 0.292150 0.004076 0.010670 0.244900 -0.238680 0.084264 0.190370 -0.161860 -0.105690 -0.195510 -0.397060 -0.039549 0.078953 0.004036 -0.157940 0.086736 0.001691 -0.037188 0.279510 -0.108680 0.205840 -0.572040 -0.395790 -0.177570 0.428350 0.035381 0.064539 0.031276 0.242150 0.749860 0.258000 -0.191270 0.217340 -0.137440 -0.377450 -0.451180 0.260960 -0.205020 0.228900 0.006697 -0.140350
!it_basa 0.035144 0.373360 0.387140 -0.428030 -0.518400 0.530620 0.022407 -0.520880 0.397240 -0.363860 0.229670 0.054460 0.437860 0.316850 0.347520 -0.146440 0.456290 0.472450 -0.270270 -0.106160 0.096245 -0.094171 -0.039649 0.174970 -0.022813 -0.148750 -0.212720 0.323830 0.290380 -0.151500 0.454160 0.241170 0.093087 0.142360 0.219160 0.481800 -0.183680 0.003790 0.222480 -0.230940 -0.003534 -0.308670 -0.215160 -0.314510 0.487330 0.157650 0.565680 0.176600 0.078854 0.076697 -0.198490 -0.288990 0.023063 -0.101250 -0.128200 0.155560 0.061046 0.263570 -0.297200 0.211660 -0.309280 -0.034482 0.207120 0.785050 0.042217 0.375980 -0.500180 0.425940 0.073014 -0.010629 0.224510 0.206120 0.092227 0.268660 -0.096698 -0.147400 -0.490180 0.140070 0.036388 0.053903 -0.119990 0.269760 0.170560 0.160290 0.375740 0.143170 0.722260 0.084398 -0.166730 0.016405 -0.422830 0.143380 -0.175900 0.163720 -0.052049 0.311720 -0.226620 0.172930 -0.056280 -0.126860
!it_ora 0.244230 0.036019 -0.104320 -0.267560 -0.052895 0.605680 -0.143250 -0.144610 -0.006854 0.047234 0.009672 0.110460 -0.211050 -0.063688 0.328910 -0.048767 -0.346380 -0.108320 -0.143340 -0.158970 0.092104 -0.190680 -0.081587 0.100640 -0.069237 0.073326 0.117580 -0.294930 0.327910 0.032869 0.356250 0.110480 0.321580 0.135860 -0.138880 0.231310 -0.299130 0.161800 -0.210910 0.191130 0.273800 -0.131470 0.334290 0.031775 0.098508 0.014850 0.356210 -0.016509 0.243220 -0.315650 0.187840 0.023606 -0.116620 -0.151350 -0.218210 -0.100180 -0.083050 0.194670 -0.712690 0.187900 -0.328380 0.041974 0.082881 0.669480 0.006674 -0.088095 0.055102 0.026129 0.145940 -0.138830 0.090398 -0.132880 0.360420 0.183840 0.578640 0.093925 0.067947 -0.105760 0.197570 0.203760 0.039348 0.076171 -0.077721 -0.252100 -0.061733 -0.433950 -0.089593 -0.128000 0.042558 -0.257850 0.039111 0.098395 0.451040 -0.356510 -0.344730 0.058962 -0.485330 -0.501760 0.201780 0.074434
!it_and 0.187290 0.387670 0.413520 0.063131 -0.263620 0.748480 -0.648760 -0.127010 -0.207990 -0.072481 0.484060 0.276610 0.126480 -0.841230 0.080523 -0.109360 0.320540 -0.160130 0.456690 -0.257570 -0.130970 -0.261620 0.042507 0.014229 0.523560 -0.486070 -0.024727 -0.019825 0.084447 0.283640 -0.334770 -0.202970 -0.220720 -0.158010 -0.268070 0.445260 0.696890 -0.781240 0.037516 -0.034962 -0.159910 0.355440 0.429570 -0.395270 -0.138260 -0.278120 0.643780 0.186270 0.058565 0.265480 -0.334510 0.091510 -0.116950 0.507430 -0.500110 -0.127410 0.044534 -0.060690 -0.408830 0.320370 0.082990 -0.056884 0.308030 -0.122050 0.011646 -0.058770 -0.219210 -0.035379 -0.214430 -0.303120 0.019699 0.160450 0.201080 -0.419210 0.036910 0.038147 -0.062324 0.161000 0.020261 0.144070 -0.674100 -0.659940 -0.170160 0.524840 0.086907 -0.274020 -0.182830 0.165750 0.852980 0.189280 -0.219390 -0.167050 -0.265720 -0.485430 -0.315240 0.116370 -0.143710 0.027946 0.155220 -0.095850
!it_a -0.174410 0.499780 0.338560 0.123250 -0.318020 0.476570 -0.103810 0.055622 -0.178650 0.176540 0.494070 0.064545 0.207930 -0.570440 0.024564 -0.349510 0.285940 0.080086 0.236050 -0.268010 0.021105 -0.073436 0.116750 0.028629 0.387000 -0.509760 -0.031774 0.400830 0.243160 0.402830 -0.287650 -0.211660 0.160380 -0.112270 0.047554 0.178700 0.414750 -0.357610 0.246540 0.155940 0.245920 0.643220 0.322340 -0.182340 -0.245430 0.063314 0.377650 0.139100 0.080876 0.196500 0.043947 0.019862 -0.211580 0.275010 -0.319020 -0.103040 0.142510 -0.078683 -0.358810 0.039965 0.112320 -0.199610 0.918280 -0.476170 0.205430 0.005144 -0.231860 -0.130270 0.032215 -0.221920 0.175320 0.346330 0.225990 -0.200980 -0.093918 -0.074114 -0.092759 0.420300 -0.193610 0.079699 -0.303450 -0.098941 0.017061 0.568100 0.160210 -0.526550 -0.146860 0.021942 0.581200 -0.330320 0.087166 0.015713 0.163810 -0.256920 -0.585830 0.371900 -0.147300 0.202710 0.021283 -0.177270
!it_in -0.013768 0.213880 0.186910 0.009275 -0.231960 0.399300 -0.365070 -0.090523 -0.244950 0.060966 0.627860 0.270530 0.238110 -0.559570 -0.228480 -0.175070 0.467000 -0.065409 0.645930 -0.411140 -0.104340 -0.424440 0.041191 0.117770 0.352160 -0.400200 0.083831 0.140430 0.385210 0.188180 -0.465480 -0.091092 -0.246340 0.007791 -0.242280 0.700530 0.667900 -0.184010 -0.302730 0.134640 -0.081070 0.280000 0.107970 -0.219600 -0.076609 -0.048277 0.626080 0.204570 -0.214050 0.383310 -0.099597 -0.601590 -0.172350 0.504660 -0.487900 -0.204350 0.301230 -0.118280 -0.338630 0.515070 0.226260 0.174530 -0.140260 -0.392720 -0.338730 -0.027854 -0.235260 0.187940 0.012796 -0.372990 0.275990 0.204270 0.460030 -0.503570 0.083697 -0.027359 -0.161970 0.356010 0.104630 0.208770 -0.604050 -0.473790 -0.064817 0.491760 0.625400 -0.685990 0.609480 0.110020 0.994220 0.431460 -0.199510 -0.105430 0.073444 -0.272910 -0.661890 0.127300 0.019758 -0.006724 0.061262 0.131120
!it_to 0.258060 0.416800 0.370950 0.105660 -0.370280 0.850220 -0.699290 0.091054 -0.411160 0.304520 0.628140 0.157840 0.079718 -0.868870 -0.037920 -0.223180 0.255510 -0.045125 0.209760 -0.206650 -0.429680 -0.341400 0.619080 0.208550 0.376570 -0.199060 -0.051962 -0.020018 0.131880 0.579600 -0.096756 -0.323650 -0.296180 -0.259500 -0.162070 0.286510 0.766340 -0.633180 -0.201750 -0.028322 0.063793 0.250140 0.268650 -0.571510 0.203880 -0.328270 0.564540 0.138470 -0.059958 0.218390 0.218560 0.274910 -0.008193 0.527070 -0.646070 -0.142600 0.206230 -0.455390 -0.340560 0.460330 0.280810 0.073608 0.694820 -0.273660 -0.372920 -0.017122 -0.226400 -0.194480 -0.062953 -0.278270 0.224760 0.094431 0.424810 -0.478010 -0.135470 -0.062308 -0.240290 0.181880 -0.027748 0.055016 -0.689540 -0.632110 0.070950 0.612030 0.294710 -0.515300 0.075607 -0.015437 0.703260 0.029043 -0.362020 0.101870 -0.121460 -0.578720 -0.438280 0.616630 0.030479 0.112470 0.520210 -0.034894
!it_film -0.008491 0.349140 0.190820 -0.654800 -0.260490 0.645840 0.143760 0.133960 -0.358340 0.199110 0.212180 -0.153320 -0.072760 0.048130 0.505200 -0.068550 0.515860 -0.243550 0.361820 -0.540440 0.156120 -0.319780 -0.294890 0.447390 0.572120 0.071956 -0.391560 -0.224740 0.179890 -0.033659 -0.450110 -0.021880 0.334370 0.180410 -0.207670 0.620420 0.008165 -0.550530 -0.281610 0.047103 0.262970 -0.344320 0.166700 -0.240790 -0.134280 0.236800 0.490710 -0.489730 0.004910 0.631360 0.191170 0.133750 0.159940 -0.206630 0.236980 0.105480 0.289870 -0.224190 -0.077816 0.348580 -0.306660 -0.002033 0.411370 0.265460 0.549030 0.094910 0.171740 0.217910 -0.012372 -0.103120 -0.179030 -0.115770 0.241140 -0.151380 -0.611990 0.162680 -0.031352 0.395380 -0.100640 -0.544170 0.103200 -0.008054 0.415220 0.334550 -0.175990 -0.555950 0.063517 0.210760 0.022289 0.317760 0.248050 0.439300 0.008115 -0.627490 0.338690 -0.272210 0.329090 0.014640 -0.313920 -0.080487
!it_f 0.259030 0.538940 0.501690 0.101310 0.452560 0.571460 -0.741080 -0.353810 0.142260 0.497360 -0.443820 -0.304010 0.076030 -0.516330 -0.191540 -0.030836 0.269570 0.204170 0.024449 -0.335040 0.008181 -0.116710 0.236890 0.207830 -0.217760 -0.590100 0.172470 -0.061094 0.296930 1.459800 0.091942 -0.883150 0.301530 0.050665 0.132220 0.293890 0.594170 -0.176310 0.829360 0.373520 -0.749250 -0.135350 0.840020 -0.522460 0.090316 -0.366600 0.359240 0.329690 -0.147410 0.037458 0.075878 -0.747490 -0.062610 0.725130 0.001731 -0.508160 -0.269670 -0.357670 -0.553600 0.169120 0.023911 -0.424990 0.619060 -0.081378 0.019377 0.293300 0.462170 0.067320 0.209760 -0.692490 0.409040 0.303280 -0.195700 0.257620 -0.395130 0.151360 -0.327310 0.526410 0.142920 -0.658500 -0.453760 -0.084022 0.283350 0.519230 0.635920 -0.443030 -0.511920 -0.435890 0.906670 -0.354720 0.523370 -0.102740 0.626380 -0.323280 -0.099983 0.495860 -0.003269 0.699950 -0.316340 -0.263270
!it_di 0.215870 0.262890 0.205740 -0.060342 -0.076486 0.173650 -0.604070 0.230800 -0.507520 0.084160 -0.048037 -0.416770 -0.062049 -0.013853 0.606110 -0.390000 0.117910 -0.359890 0.788280 -0.046539 0.409770 0.000354 -0.248120 -0.181170 0.257830 -0.325180 -0.348590 -0.288210 0.227080 -0.413430 -0.043309 0.131380 0.173860 -0.075339 0.199230 0.642260 0.043714 0.489740 0.242230 -0.074805 0.159030 -0.239530 0.216730 -0.167260 -0.323580 -0.295240 0.195120 0.218500 -0.142930 0.191020 0.061202 0.122670 0.377910 0.038646 0.225910 -0.162250 0.559910 -0.145930 -0.309730 0.165840 0.077383 0.026267 0.125540 0.129310 -0.533080 0.140210 -0.052891 0.440350 0.487270 -0.262490 0.190990 0.312460 0.076769 -0.067594 -0.177850 0.336780 -0.491890 0.041720 -0.106970 0.327250 -0.091837 0.199950 -0.297510 0.368730 0.310810 -0.243750 -0.282370 -0.140320 0.482050 -0.001872 -0.026799 -0.253080 0.170120 -0.257820 -0.270600 -0.082511 -0.151790 -0.216030 -0.209090 -0.523650
!it_data 0.319430 0.604300 0.336390 0.257200 0.267670 1.585800 -0.151200 0.060244 -0.463100 0.079511 -0.138970 -0.009852 0.205530 -0.233920 -0.195190 -0.226070 0.450670 0.007611 0.407960 -0.504480 0.200310 0.422320 0.291110 0.771910 -0.021112 -0.281440 0.072367 -0.155270 -0.191000 0.274930 0.029113 -0.182560 0.178560 -0.188200 -0.176750 -0.181090 -0.885220 -0.614500 0.133950 -0.182100 -0.032446 -0.320530 0.068718 -0.434570 0.433130 0.066100 0.196690 0.404100 -0.138580 0.164680 -0.402990 -0.241490 -0.289550 -0.234940 -0.861650 -0.152410 0.435030 -0.196500 0.466560 0.185410 0.064822 0.217690 -0.335850 -0.472100 -0.229370 0.072761 0.090884 -0.627290 -0.168420 0.185830 -0.390610 0.044892 0.318680 -0.510900 -0.100600 -0.047176 -0.141500 0.247190 0.099755 0.530740 -0.345610 -0.475900 0.148370 0.106900 0.241240 -0.713820 -0.318070 0.070341 0.070151 -0.429560 -0.057901 0.434790 -0.133580 0.080318 0.106010 0.475790 -0.222890 -0.042017 -0.615470 -0.067072
!it_for 0.170170 0.383770 0.489540 -0.016558 -0.057759 0.823570 -0.534570 0.141730 -0.372710 -0.119840 0.633090 0.462140 0.233660 -1.207600 -0.309160 -0.377360 -0.002928 -0.198330 0.474260 -0.687670 -0.083549 -0.285770 0.265500 0.145570 0.336560 -0.395150 -0.082409 -0.053411 -0.103400 0.481330 -0.651010 -0.374990 -0.171230 0.075536 -0.250990 0.855880 0.439440 -0.227510 -0.022013 0.102970 -0.233370 0.376780 0.643210 -0.399890 0.104880 -0.282420 0.506330 0.212310 -0.130380 0.282180 -0.056799 0.282760 -0.344980 0.448560 -0.443700 -0.179500 0.209780 -0.067176 -0.261610 0.390630 -0.063117 0.061134 0.424600 -0.087999 -0.080632 -0.054741 -0.344070 0.012518 -0.180800 -0.363350 0.065857 0.166920 0.116040 -0.379240 -0.119920 -0.042309 -0.182350 0.223230 0.173190 0.060962 -0.528010 -0.787630 -0.244390 0.541650 0.164910 -0.477380 0.365490 0.142210 0.556630 0.160340 -0.253600 0.381700 -0.327980 -0.480160 -0.436870 0.284510 -0.148840 0.193750 0.238840 -0.203100
!it_is 0.209740 0.463620 0.440920 0.055973 0.039735 0.952220 -0.275270 -0.130530 -0.072379 0.446460 0.763420 0.536660 0.124270 -1.055200 0.004348 -0.355840 0.047818 -0.000168 0.401410 -0.450670 0.022925 -0.556650 0.286600 -0.003927 0.406310 -0.501330 0.098142 0.121700 0.328160 0.639600 -0.373610 -0.535370 0.059069 -0.094640 -0.160640 0.434710 0.441410 -0.528490 -0.272000 0.070558 0.021256 0.522460 0.328800 -0.244050 -0.143560 -0.326450 0.585140 0.018776 -0.465630 0.138820 0.239370 0.024558 -0.152750 0.502680 -0.290490 -0.092065 0.059407 -0.141110 -0.491610 0.747960 0.113160 0.091123 0.432150 -0.257740 -0.107360 0.079186 -0.324610 -0.119830 0.493480 -0.275320 0.458950 0.183750 0.316740 -0.765720 -0.012105 0.334740 -0.428460 0.225770 0.077081 0.356950 -0.938180 -0.630210 -0.224600 0.780100 0.216680 -0.635640 0.006346 -0.137020 0.860770 0.139060 -0.135630 -0.165090 -0.126980 -0.379130 -0.549170 0.533060 -0.005221 0.119910 0.155950 -0.198530
!it_indonesia 0.234140 0.341620 0.235000 -0.454860 -0.522130 0.099938 -0.145420 -0.255300 -0.112500 0.023583 0.330500 0.100960 -0.360260 -0.381450 0.844580 -0.666240 0.048334 0.662780 0.377020 -0.282270 0.323620 -0.217490 -0.036809 0.258300 0.468290 -0.438660 0.007769 0.051381 0.517200 0.254010 0.363350 0.356210 0.220860 -0.060607 0.324320 0.375080 -0.054685 -0.255010 0.378610 0.141940 -0.071327 0.205840 0.205510 -0.270530 0.011085 0.085098 -0.063173 -0.234540 0.525730 -0.026487 -0.160950 -0.200860 -0.118400 0.027134 0.427600 0.197630 0.179530 -0.132860 -0.084603 0.040733 -0.140150 -0.059191 -0.171590 0.121640 -0.261770 -0.130360 -0.108660 0.349880 -0.461330 -0.019687 0.054011 0.171570 0.070060 -0.019020 -0.729470 0.123250 -0.299310 0.173310 0.089542 -0.217230 0.320450 0.206440 -0.252720 -0.068956 0.199530 -0.094812 -0.152630 0.397950 -0.065746 0.144760 0.032677 0.120760 -0.271040 0.377040 0.138670 -0.081926 -0.091392 -0.155330 0.042109 -0.208790
!it_master 1.089700 0.789240 0.248020 -0.348070 0.391770 1.623700 -0.050320 -0.083060 -0.527480 -0.551590 -0.575560 0.446080 -0.287950 0.105000 0.413430 0.324280 0.914190 0.062620 1.019400 -1.005900 -0.221210 -0.105740 0.541240 0.654580 0.842460 -0.600160 -0.178810 -0.164000 -0.345970 0.946630 -0.645820 0.142460 0.224970 -0.434860 0.202070 0.079166 -0.258230 0.220810 -0.255900 -0.314480 -0.500670 0.291670 0.200640 -0.754310 0.162540 -0.273940 0.833150 0.346260 0.382910 0.209810 -0.318640 -0.273880 0.127810 -0.389260 -0.667340 0.133310 0.768540 0.035543 0.597110 0.560400 0.985290 -0.084224 -0.573740 -0.088556 0.334070 0.232730 0.236180 -0.141160 -0.614410 0.158130 -0.153740 0.648080 0.220570 -0.665050 -0.092285 -0.360480 -0.284490 0.475590 0.142950 0.857660 -0.542220 -0.347100 -0.203700 0.504750 0.258970 -0.602350 -0.147180 0.529210 0.340910 -0.457040 -0.184980 0.330900 0.551600 -0.155500 0.215030 0.182870 -0.448260 0.212050 -0.263960 -0.438340
!it_de 0.148720 0.375280 -0.210470 0.026387 -0.225600 0.141590 0.040118 -0.144720 0.108520 0.033033 0.512360 -0.010535 0.287900 -0.552700 -0.166510 0.283050 0.154680 0.171930 -0.289660 -0.559450 -0.036877 0.091905 -0.043596 0.347110 0.365180 -0.509970 -0.061064 0.036988 0.303310 0.494940 -0.209210 0.127080 0.099261 -0.154670 -0.011214 0.079949 0.504290 -0.343160 0.068617 -0.602050 0.472120 -0.207020 0.325530 -0.015516 -0.235620 -0.429740 0.594850 0.267440 0.120390 0.523060 -0.881670 -0.152770 0.181980 0.151430 0.198040 -0.425330 -0.230330 -0.012359 0.320220 -0.146510 0.267330 0.039438 0.003656 0.621510 -0.041736 0.249810 0.035836 -0.070422 0.058770 -0.323330 -0.039582 0.321870 0.114840 0.112980 -0.143850 0.215420 0.055252 0.316030 -0.679370 0.159780 0.017549 0.469240 -0.194910 0.308160 0.820110 -0.444480 -0.222550 0.123860 0.448980 0.233520 0.100250 0.128830 0.757170 -0.122860 -0.021577 0.203180 0.336210 -0.442620 0.538910 -0.626260
!it_on 0.259440 0.595950 0.136720 -0.044271 -0.201070 0.750270 -0.489210 0.120690 -0.274920 -0.283940 0.230640 0.100600 0.421180 -1.078800 -0.118020 -0.248680 0.141990 0.135890 0.478500 -0.407610 -0.020455 -0.387210 0.191370 0.100400 0.431570 -0.232290 0.104320 -0.068880 0.105060 0.471240 -0.416500 -0.234750 -0.263610 0.105150 -0.313800 0.750690 0.421120 -0.880380 -0.057325 0.096521 0.013463 0.186070 0.448590 -0.288890 -0.045163 -0.191620 0.351500 -0.142360 0.136330 0.606600 -0.232420 0.036469 -0.084003 0.493850 -0.444470 0.158710 0.228810 -0.372830 -0.241490 0.195310 0.044825 0.164790 0.403420 -0.084079 -0.173270 0.182780 -0.047262 -0.095174 -0.196780 -0.608420 -0.203520 0.118370 0.585840 -0.697190 0.206230 -0.278030 0.168060 0.091335 -0.079453 -0.092805 -0.457340 -0.494480 -0.099298 0.945290 0.416400 -0.286030 0.286170 -0.126280 0.879750 0.133400 0.197230 0.150370 -0.323350 -0.649950 -0.462840 0.097718 -0.122730 0.149610 0.404630 -0.188080
!it_m -0.397860 0.185620 0.591430 0.073975 0.122990 0.323340 -0.061440 -0.295960 -0.221810 -0.185450 -0.308860 0.037241 0.137200 -0.103080 0.075999 -0.649960 0.272010 -0.046115 0.831240 0.002656 0.005392 -0.407080 0.351610 0.253760 0.070856 -0.639420 -0.017393 0.139040 0.425060 0.465120 -0.065711 -0.331290 0.091577 -0.367300 -0.314110 0.432790 0.071211 -0.272020 0.698610 0.113530 -0.160890 -0.420410 0.158560 -0.501260 0.021523 -0.310950 0.353880 0.036047 -0.426710 -0.247520 -0.333600 -0.424840 -0.067392 0.221580 -0.636400 -0.325290 -0.142580 -0.147640 0.297650 -0.148260 -0.010302 0.378970 0.375990 -0.106930 0.345040 0.310770 0.252980 -0.186600 0.749070 -0.201830 -0.207170 0.279740 0.028884 0.272520 -0.596250 0.528800 -0.337710 0.063335 -0.218150 -0.106390 0.062689 0.328600 0.627790 -0.150650 0.027327 0.160310 -0.234800 -0.016795 0.696690 0.156970 0.096158 -0.896730 0.705350 -0.127060 -0.558140 0.180970 -0.337070 -0.073774 -0.119720 0.366850
!it_as 0.233730 0.653480 0.387260 -0.111730 0.096686 0.449700 -0.074584 0.089260 -0.168110 0.003775 0.305930 -0.052706 0.102370 -0.697740 -0.023464 0.013938 0.241120 0.070859 0.161310 0.200890 0.024699 -0.392730 -0.133250 0.425380 0.498400 -0.518150 -0.488740 0.354570 0.001103 0.928860 -0.084675 -0.250470 -0.052441 -0.428930 0.089680 -0.325670 -0.008540 -0.283060 -0.063268 0.024782 0.669000 0.256920 0.291290 0.222530 -0.181020 -0.083976 0.360190 0.053621 -0.451420 0.088510 0.129200 -0.162820 -0.420450 0.331930 -0.050940 0.176310 -0.133860 -0.183950 -0.354600 0.538870 -0.461420 0.646130 0.357470 -0.459190 0.181610 0.200960 -0.206800 -0.143960 -0.152860 -0.113130 0.302440 0.189290 -0.087868 -0.060778 0.205290 0.121040 -0.246870 0.028036 0.078528 0.061974 -0.578080 -0.588280 0.236580 0.485050 0.282450 -0.218330 -0.164340 0.063422 0.337810 0.049831 -0.056168 -0.054832 -0.143680 -0.325260 -0.298450 0.063689 -0.288540 0.141940 0.560170 -0.452820
!it_i 0.134470 0.199410 0.019526 -0.046209 -0.171460 -0.092103 -0.514170 -0.281100 0.231860 -0.210350 0.546810 0.103460 -0.288090 -0.095690 0.114900 -0.113710 0.333310 -0.047879 -0.012965 0.283270 0.264560 -0.174310 0.459320 -0.063823 0.169450 -0.908620 0.200730 0.617170 0.714450 0.042313 -0.011265 -0.401940 0.539930 0.448260 -0.173230 0.100030 0.318950 -0.085920 0.626730 -0.255380 0.270980 -0.101170 -0.021958 0.076083 0.164040 0.397160 0.280820 -0.189770 -0.204520 -0.169030 -0.264960 -0.090106 0.280660 0.543200 0.244580 -0.129730 0.149450 -0.078213 -0.620140 0.062578 -0.270220 0.686540 0.038969 -0.809140 0.654110 -0.055453 -0.266850 0.349240 -0.327920 -0.232090 -0.355880 -0.209730 0.207290 -0.228220 -0.157590 -0.210220 -0.139890 0.460120 0.746700 0.200140 -0.028061 0.260860 0.415770 0.193460 0.390720 -0.186290 -0.011831 0.372620 0.043625 -0.329040 0.332250 -0.097065 0.478380 -0.175120 -0.524570 0.130690 -0.037221 0.177510 0.217960 -0.006103
!it_c -0.542530 0.713210 0.159310 0.156490 -0.123520 0.451770 0.085297 -0.002104 0.249580 -0.272480 0.342500 -0.447980 0.062167 -0.694820 -0.036266 -0.267440 -0.196000 -0.007131 0.145800 -0.644020 0.540570 0.450290 0.063926 -0.037767 0.329730 -0.317850 -0.126040 0.049962 0.595200 0.515910 -0.388970 -0.600140 -0.018302 -0.055406 0.648590 0.437460 0.087679 -0.198040 0.741720 -0.017386 -0.314410 -0.132780 0.375790 -0.593680 0.073195 0.525520 0.245210 0.537950 0.228860 -0.248080 0.127930 -0.227140 0.358710 0.569400 -0.320820 -0.172460 -0.017179 -0.045401 -0.405150 -0.261250 0.037616 -0.031231 0.352120 0.028702 0.109480 0.209870 -0.049216 -0.404750 0.040776 -0.356850 0.443550 0.378690 0.360270 -0.198280 -0.370280 -0.484010 0.018919 0.813710 -0.418970 0.123980 0.051278 0.144880 0.216830 0.386510 0.073070 -0.544270 -0.494190 -0.113280 0.250360 -0.351320 0.343080 -0.290720 0.308590 0.076334 0.092564 0.202490 -0.360300 0.066506 0.013675 -0.092026
!it_cara 0.070810 0.086720 0.395730 -0.290570 -0.200350 0.408910 -0.253680 -0.015243 -0.544460 -0.022685 0.021947 -0.113660 -0.241040 -0.139540 0.192390 -0.147760 -0.200220 0.212000 0.394590 0.082327 -0.456920 -0.061130 -0.079959 0.092924 0.161650 0.005914 -0.268310 -0.094442 0.066371 0.091720 0.442980 0.064891 0.346240 0.033767 -0.138630 -0.177740 0.136110 0.110040 -0.243870 -0.267840 -0.054486 -0.459040 -0.059657 0.035074 0.249630 0.304560 0.054482 0.100430 0.079585 0.014158 -0.202140 -0.473310 -0.094214 0.064188 -0.082635 0.154330 -0.075546 0.246830 -0.275590 -0.357630 -0.027865 0.218210 0.031305 0.268330 -0.306800 0.544100 0.358340 0.127990 0.440820 -0.524030 0.258640 -0.135930 -0.011529 0.319630 -0.265130 0.033657 -0.010241 0.378910 -0.055683 -0.054191 0.138480 0.532660 -0.325530 -0.103240 0.219560 -0.458650 0.355770 0.013618 -0.151390 -0.150980 -0.618700 0.098708 -0.059245 -0.365090 0.377240 0.365700 -0.899580 -0.358950 -0.077835 0.156770
!it_' -0.083969 -0.123770 0.714340 0.337460 -0.292040 0.697870 -0.031045 -0.237270 0.555800 0.722800 -0.008040 -0.147200 0.144040 -0.664810 0.772000 -0.501470 0.907920 0.139500 -0.201080 0.101980 -0.447200 -0.242460 -0.281450 -0.030772 -0.567990 -0.645760 -0.166150 -0.233470 0.086375 1.029800 -0.261230 0.171340 0.108320 -0.458930 -0.270380 0.169700 -0.107150 -0.020062 0.548270 -0.212740 -0.189050 0.048170 0.349120 -0.331580 0.744760 -0.028573 0.398680 0.170150 -0.490940 -0.136210 -0.712460 -0.329000 0.353480 0.528770 -0.003518 -0.216420 -0.123980 -0.250910 0.096218 0.164580 -0.102800 -0.048738 -0.183220 -0.080796 0.055943 0.342540 -0.121140 0.807080 -0.165230 0.067290 -0.040644 -0.391280 -0.976420 -0.114920 -0.947060 0.010150 -0.728060 0.518350 -0.087124 -0.407020 -0.836790 -0.025889 -0.690050 0.756730 0.065987 -0.787140 -0.024013 -0.354710 -0.382420 -0.626560 0.142920 -0.005592 0.977600 -0.555670 -0.003984 0.644370 -0.490560 0.537360 0.404210 -0.649350
!it_with -0.032592 0.243750 0.452940 -0.031339 -0.317620 0.942170 -0.741420 0.061620 -0.516700 -0.265170 0.586490 0.288960 -0.022964 -0.964070 0.036682 -0.102160 0.460090 -0.363790 0.035384 -0.253900 0.106680 -0.325020 0.280680 0.083109 0.509330 -0.607550 -0.080686 -0.249470 -0.084000 0.694950 -0.572680 -0.397390 -0.371910 0.069214 -0.356380 0.420450 1.091300 -0.582020 0.108440 0.270170 0.037572 0.204580 0.371960 -0.433370 0.202760 -0.256830 0.318200 0.022139 -0.178460 0.461040 0.086408 0.129960 -0.121470 0.711420 -0.547280 -0.123580 -0.106580 -0.129740 -0.725930 0.256160 0.029321 -0.078671 0.518520 -0.002872 0.008941 -0.046421 -0.450930 0.055424 0.119150 -0.293790 0.244980 0.018382 0.190630 -0.758080 0.158240 0.210420 -0.203240 -0.005568 -0.274520 0.067783 -0.742750 -0.591680 0.064936 0.635480 0.241090 -0.471720 0.184880 0.271900 0.927760 -0.076940 -0.434980 -0.035938 0.070267 -0.431700 -0.389170 0.279970 -0.214170 -0.032535 0.295250 -0.163230
!it_islam -0.139800 0.448550 0.082706 -0.668320 0.171320 0.688620 0.109910 0.008114 0.179030 0.185900 0.570520 0.306870 0.331450 0.225500 -0.266090 -0.265640 -0.258050 -0.257190 0.381510 -0.433940 -0.026696 -0.972750 0.256770 -0.098632 0.297170 -0.583560 -0.316420 0.122160 0.608920 0.640910 0.390760 0.024024 -0.042413 -0.288310 -0.048761 0.190640 -0.475380 -0.128050 0.202530 -0.376780 0.124330 -0.314110 0.111500 -0.130640 0.012623 -0.037942 -0.210650 -0.085329 0.404240 0.186930 -0.417360 -0.173480 0.029388 -0.189590 0.091615 0.135210 0.265830 -0.276200 0.659490 0.270990 0.056769 -0.061252 -0.438830 0.320580 0.272860 0.116900 0.312630 0.653230 0.435420 0.180620 0.200270 -0.084291 0.197460 0.160680 -0.175820 -0.022104 -0.056839 -0.377870 0.032502 0.204000 -0.053204 0.094394 0.058118 -0.000181 0.042602 0.015975 -0.184290 -0.012413 -0.133130 -0.378590 0.133150 -0.010075 -0.113790 0.358920 -0.708170 -0.221960 -0.541420 0.468650 -0.307970 -0.229150
!it_center 0.344830 0.050900 0.211270 0.096303 -0.239670 0.850270 -0.446940 -0.265940 -0.658640 0.539950 0.194910 -0.118920 0.406070 -0.429770 0.073109 -0.533900 -0.162270 -0.004987 0.330370 -0.949820 -0.208540 -0.728650 0.311260 -0.146320 0.357680 -0.275050 0.291620 -0.492630 -0.004425 1.437900 -0.652970 -0.543390 -0.387420 -0.863790 -0.119590 0.322020 0.009713 -0.045300 0.860590 -0.474680 -0.272200 0.120720 0.435740 -0.559690 0.816780 -0.084774 0.418070 0.243460 -0.004450 0.106010 0.049269 -0.675270 -0.087962 0.967610 0.159970 -0.503840 -0.091713 0.248040 -0.242580 0.819840 -0.168000 -0.872160 0.169000 0.060794 -0.324080 0.807440 -0.248770 0.485150 -0.064425 -0.284800 0.333210 -0.445350 -0.646240 -0.129440 -0.242600 -0.674360 -0.148430 0.487620 0.085038 -0.529880 -0.588680 -0.717240 0.214830 0.534960 0.537150 -0.068645 -0.428770 -0.480000 0.700110 -0.582020 0.327550 0.831820 0.259880 -0.293340 -0.951560 0.341140 -0.097973 0.190240 -0.156560 -0.580030
!it_from 0.219790 0.157630 0.462950 0.175530 -0.681420 0.481980 -0.715400 -0.132430 -0.394820 0.418660 0.735540 0.321070 -0.087182 -0.689740 -0.042549 -0.387780 0.496170 -0.224740 0.325300 -0.562710 -0.059048 -0.126620 0.908930 0.156930 0.580460 -0.388230 0.414850 -0.049676 0.665830 0.515200 -0.064201 -0.084739 -0.314600 -0.214430 -0.367490 0.603650 0.864610 -0.291950 0.261420 0.270340 -0.259980 -0.022532 0.095587 -0.621660 0.284410 -0.286860 0.527650 0.364670 0.206770 0.329340 -0.013087 -0.375340 -0.035158 0.804020 -0.711430 -0.391800 0.074902 -0.292870 -0.344250 0.748170 0.432050 0.194540 0.707350 -0.147730 -0.187780 0.147040 -0.135430 -0.288550 -0.275090 -0.321910 -0.237640 -0.021998 0.258820 -0.825120 -0.084406 -0.292460 -0.306770 0.204890 -0.084850 0.031330 -0.473430 -1.031500 -0.155640 0.768360 0.022852 -0.308460 -0.305550 -0.448740 1.542100 -0.139000 -0.041746 0.050195 -0.035679 -0.276440 -0.482690 -0.047516 -0.039921 0.268660 0.746610 -0.043694
!it_ii 0.459070 0.048422 0.081359 -0.071725 -0.015170 -0.116660 -0.675360 0.091920 0.076745 -0.358970 0.250370 0.183070 -0.074960 0.108380 -0.177650 0.303530 0.429330 -0.512860 -0.276420 0.117520 -0.094410 -0.283030 0.062699 0.231960 0.199730 -0.672920 0.021918 0.475280 0.745840 0.250390 -0.098149 -0.407240 0.197220 0.105400 -0.203340 0.269540 0.001190 -0.070423 0.736020 -0.179590 0.204820 -0.501010 -0.393890 0.548080 0.284510 0.178070 0.553570 0.178170 -0.166800 -0.011248 -0.197340 -0.237010 0.311920 0.516090 0.263340 0.030134 0.238550 -0.087023 -0.897330 -0.134780 -0.200710 0.347220 -0.410380 -0.576190 0.440470 -0.134540 -0.771140 0.355640 -0.483160 0.271430 0.189590 -0.291030 0.445630 -0.075212 -0.188210 -0.521030 -0.248060 0.664630 0.624350 0.183000 -0.025100 0.065443 0.765980 0.196870 0.181540 0.113920 -0.096606 0.147800 0.074159 -0.352710 0.558740 0.061655 0.350510 0.061435 -0.387750 0.117960 -0.005296 -0.035092 -0.186180 -0.363650
!it_tim 0.661070 0.423620 -0.504580 0.043282 -0.079433 0.184540 0.154460 -0.013732 -0.453000 -0.100420 0.110420 0.355770 0.024060 0.004171 -0.241430 0.146850 0.332550 -0.067269 -0.092297 -0.371120 0.486490 0.163120 0.157840 -0.223090 0.342760 -0.147750 -0.162110 -0.057464 0.203650 0.530650 0.453980 -0.039114 0.171400 0.275320 -0.042244 0.108260 -0.186690 -0.128990 0.341160 0.110370 -0.170160 -0.012654 0.436390 -0.002169 -0.029969 -0.063271 0.943860 -0.170940 -0.139250 0.370420 -0.251510 -0.206950 -0.080872 -0.412730 0.391430 -0.381950 0.012805 -0.394540 -0.339820 -0.157030 -0.304170 -0.343160 0.749470 -0.341670 0.264470 0.593960 0.256790 0.389450 -0.103730 -0.058670 0.501130 0.020798 -0.278220 0.364450 -0.237070 0.351620 -0.621450 0.287830 -0.116310 -0.734960 -0.591300 0.105500 -0.026214 0.056248 0.159050 -0.489060 -0.173030 0.337870 -0.395750 -0.402150 0.601960 0.154600 0.084469 0.008055 -0.059343 -0.311280 0.027573 -0.033568 -0.330700 0.078466
!it_or 0.036771 0.578310 0.942750 0.554890 -0.077707 1.314900 -0.620660 0.154290 -0.048302 0.347830 0.317900 -0.181570 -0.161890 -1.279200 -0.095415 -0.442540 -0.026182 -0.060249 0.395270 -0.172210 0.031694 -0.558410 0.531310 0.217410 0.408860 -0.285560 0.290590 0.031665 0.352580 0.447990 -0.088597 -0.499130 -0.527420 -0.280120 -0.224750 0.230490 1.153800 -0.292720 -0.075119 0.063763 -0.032194 0.541640 0.343990 -0.269870 0.181790 -0.171690 0.720390 0.170820 -0.176130 0.319920 -0.227170 -0.021655 -0.199570 0.319930 -0.364690 0.073922 0.344780 -0.284380 -0.488660 0.528350 -0.092001 0.330130 0.488860 -0.080995 0.129860 0.085451 -0.330380 -0.250240 0.065772 -0.521880 0.137680 -0.030402 0.145430 -0.319610 0.030192 0.182390 -0.369620 0.192620 -0.037004 0.078365 -0.850940 -0.791190 -0.320190 0.217630 0.667200 -0.664210 -0.176210 0.162810 0.253920 0.175260 -0.347620 -0.078057 0.128330 -0.564970 -0.204390 0.434110 -0.212870 -0.076512 0.176890 0.132770
!it_new -0.130240 0.413470 0.424980 -0.403740 0.051324 0.024234 -0.363330 0.149480 -0.239240 -0.116320 0.395720 -0.015535 0.079271 -0.443010 -0.110620 -0.334500 0.147350 -0.469460 0.105710 -0.589160 -0.007040 0.018328 -0.045781 0.579780 0.844770 -0.859970 0.065866 -0.076598 0.105890 0.264120 0.017401 0.714620 -0.319650 -0.205990 0.145110 -0.628710 -0.115520 -0.180280 0.070382 -0.133580 -0.296210 0.785190 0.401140 -0.209590 -0.072665 -0.538940 0.499310 -0.403440 0.030272 0.155850 0.003502 -0.238990 0.158890 -0.119670 -0.141560 0.000874 -0.065286 -0.149570 -0.451610 0.230580 -0.254730 0.246770 0.388620 -0.325810 0.330810 0.173770 -0.022918 -0.014141 -0.224020 -0.564460 0.049109 -0.140900 0.195550 -0.281980 -0.410410 -0.337680 -0.550050 -0.174040 -0.453160 -0.286640 -0.178950 -0.501630 0.071502 0.691300 0.160200 -0.049252 -0.266690 -0.242420 0.131470 0.363710 -0.190870 0.299730 0.166370 -0.175630 -0.329680 0.193860 0.104620 -0.236270 0.259310 0.017728
!it_km 0.199730 -0.008328 0.566960 0.121800 -0.271560 0.691260 0.275020 -0.113320 -0.032416 -0.215270 -0.277220 0.145530 0.843390 -0.180900 -0.054610 -0.210180 0.661950 0.229350 0.393770 0.070172 -0.342330 -0.339010 0.561240 0.107240 0.217590 -0.389730 -0.098549 -0.181180 0.365820 0.249370 0.175840 -0.673420 0.016925 -0.173150 0.404340 0.458190 -0.581790 0.302000 0.279830 0.490680 0.240160 -0.094784 0.144350 -0.497030 1.281700 0.246990 0.684260 0.451650 -0.651950 0.346110 -0.636320 -0.599930 -0.088224 0.204920 -0.421090 -0.385170 0.046995 -0.139290 -0.550220 0.340210 0.214130 0.775840 0.115420 -0.017846 -0.097296 0.290750 -0.046581 -0.107350 0.629500 0.131840 -0.790530 -0.551170 0.305910 -0.051480 -0.163020 0.257060 -0.264740 0.122750 -0.578390 -0.357050 -0.815340 -0.576580 0.580110 0.048035 0.356420 0.334490 0.205440 -0.026983 -0.154820 -0.297140 0.286090 -1.003000 0.567810 0.339180 0.325840 0.157460 -0.206190 0.055485 -0.096908 -0.386620
!it_loro 0.602050 -0.148090 -0.161650 -0.118860 0.184780 0.320120 0.076831 -0.411890 0.061941 0.187120 0.020641 0.370380 -0.108890 -0.171140 0.521340 0.313830 -0.021096 0.118280 -0.003274 -0.374500 0.196310 -0.022427 -0.358970 0.104890 0.189080 0.013776 -0.019686 -0.196230 0.514980 -0.140480 0.163720 0.030633 0.765950 0.106210 -0.252450 0.147860 -0.180220 0.354700 -0.123100 0.308370 0.203040 -0.079361 0.477800 -0.534890 0.303340 0.024659 0.631920 -0.175610 -0.139590 -0.147760 0.008752 0.475540 0.016046 0.081371 -0.329460 -0.032476 0.225160 0.401070 -0.473480 -0.393490 -0.094667 -0.152860 0.078914 0.010182 -0.276180 0.187020 0.307580 0.295920 -0.027510 -0.279310 0.193100 -0.097314 0.525160 -0.092727 -0.320140 0.081851 0.465480 -0.231460 0.154000 0.172420 0.107340 -0.422370 0.043850 -0.055711 0.016059 -0.119400 -0.099200 0.074474 0.243650 0.338500 0.035650 -0.094255 0.437170 0.173110 -0.606160 0.123700 -0.651070 -0.269400 0.501440 -0.135880
!it_an -0.034217 0.008643 0.669660 -0.342600 -0.378640 0.645220 -0.277700 -0.207810 -0.181310 0.430660 0.394310 0.307740 0.193560 -0.220780 -0.207750 -0.060397 -0.236620 -0.154520 0.413630 0.190310 0.087114 -0.077993 0.334830 0.017424 0.316430 -0.910410 -0.186190 0.549380 0.079280 0.505430 -0.020112 0.109830 0.183210 0.085423 0.169850 -0.064559 0.217190 -0.362770 -0.376490 -0.406480 0.332520 0.080695 0.163030 -0.201280 -0.497260 -0.113810 0.422050 -0.039411 -0.165510 0.109260 0.026292 0.219670 -0.168140 0.364770 -0.356800 0.143330 0.008273 -0.085687 -0.172290 0.559350 -0.271290 0.212640 0.574950 -0.132120 0.092442 0.081131 -0.229540 0.128200 0.088931 -0.062123 0.167470 -0.249980 -0.197730 -0.070379 -0.184550 0.016657 0.069219 0.357530 -0.053797 -0.083714 -0.542570 -0.520360 -0.203600 0.206900 0.681630 -0.806050 0.100190 0.271740 0.195920 0.160370 0.016734 -0.025485 -0.349330 -0.010501 -0.278230 0.463910 0.152240 -0.027463 -0.154190 0.591340
!it_s -0.184330 0.765330 0.554560 0.080964 0.187580 0.061830 -0.071394 -0.453180 -0.004077 -0.160510 0.210610 0.062618 -0.017398 -0.634250 0.404910 -0.580510 0.002593 -0.357020 0.505380 0.110000 0.202100 -0.539800 0.066120 0.320780 -0.245000 -0.916770 0.150710 -0.130350 0.380350 0.401980 -0.448570 -0.171660 0.141510 0.025738 0.132690 0.188090 0.442940 -0.497150 0.301010 0.242040 -0.473650 0.192330 0.417580 -0.565610 -0.086849 0.052368 0.377000 -0.513610 0.254810 -0.087592 -0.279060 -0.600920 -0.446870 0.065717 -0.219300 -0.059998 0.262460 0.084429 -0.403130 0.562220 -0.096859 0.376830 0.159970 -0.213530 0.015931 -0.224710 0.277880 0.105250 0.410070 0.093536 -0.134950 0.322500 -0.224940 -0.025912 -0.039202 0.144340 0.008680 0.047345 -0.086660 -0.036599 -0.291770 0.249830 -0.052491 0.056132 0.217120 -0.282150 0.426460 0.045807 0.472040 -0.126130 0.046222 0.251600 0.160160 0.045087 0.020136 0.199830 -0.324120 0.273090 0.401580 -0.441340
!it_be -0.078370 0.566300 0.380230 -0.059319 -0.457700 1.481300 -0.387470 0.126370 -0.271360 0.222330 0.379190 0.096911 -0.194200 -0.821660 0.125950 -0.075251 -0.024446 0.111130 0.054329 -0.254170 -0.109180 -0.388760 -0.125920 0.458850 0.619100 -0.676150 0.089210 0.141400 0.076435 0.958850 -0.362630 -0.174770 -0.225580 -0.167780 0.085168 0.067389 0.483630 -0.388040 0.024981 -0.073447 -0.061693 0.472750 0.294230 -0.372750 0.257980 -0.330130 0.554700 -0.090100 -0.695510 0.391310 0.084830 0.158590 -0.124760 0.571110 -0.617420 -0.091169 0.138080 -0.141220 -0.554810 0.216280 0.099900 0.482290 0.601350 -0.485920 -0.031925 0.149540 -0.352090 -0.285250 0.126390 0.183670 0.379650 0.179510 0.373540 -0.590420 0.145190 0.146210 -0.654000 0.240990 0.255640 0.268140 -0.825880 -0.390130 -0.152760 0.981350 0.458000 -0.786790 0.238240 0.217350 0.675820 0.071829 -0.063827 -0.052667 0.062987 -0.654170 -0.244480 0.517950 0.029970 -0.089547 0.488710 0.076576
!it_at 0.401360 0.149560 0.300260 -0.397400 -0.614550 0.777100 -0.773770 0.202100 -0.180930 -0.106930 0.425920 0.202910 0.250640 -0.993620 -0.177160 -0.389160 0.620470 -0.202070 0.457580 -0.500110 -0.162350 -0.400170 0.619940 -0.459340 0.653050 0.003669 -0.233840 -0.208110 0.255040 0.561350 0.009691 -0.506360 -0.284750 0.254990 -0.283110 0.277890 0.275830 -0.296950 0.017452 -0.007718 -0.331800 0.022895 0.115850 -0.620740 -0.246990 0.016215 0.613560 -0.167600 -0.112550 0.371120 0.030311 0.464100 0.273180 0.486870 -0.324200 -0.116200 -0.059584 0.436330 -0.184420 0.447690 -0.077008 0.446440 0.364330 -0.120710 -0.264740 0.197930 -0.202170 0.067881 -0.050330 -0.405890 0.050326 0.447880 -0.081881 -0.421110 0.126840 -0.257670 0.364510 -0.077426 -0.235580 -0.030733 -0.764560 -0.918340 0.267480 0.717830 0.609450 -0.572010 -0.119010 0.161370 1.480600 0.021343 -0.084034 0.376920 -0.025957 -0.681660 -0.771110 0.151000 -0.185700 -0.077449 0.267480 -0.145110
!it_italia 0.302650 0.475960 -0.141530 -0.356320 0.242550 -0.032456 0.106180 -0.156240 0.123440 0.308570 0.206220 -0.422920 0.432480 0.189110 0.077452 -0.155650 0.964110 0.716380 -0.002167 -0.186470 0.379370 -0.024960 0.067631 0.106490 0.740180 -0.344420 -0.016007 -0.139580 -0.047214 0.410440 0.342430 0.041770 0.152860 0.161550 0.150400 -0.559950 0.098013 -0.221080 -0.308300 0.501930 0.431050 0.225320 0.213930 -0.056583 0.259210 0.466370 0.621540 0.179830 -0.124260 0.008025 -0.476570 -0.348680 -0.086720 -0.493300 0.058308 -0.291050 -0.045364 -0.452790 -0.520770 -0.095509 0.532050 -0.218200 0.014341 0.616930 0.250010 0.269150 -0.342800 0.331430 -0.002859 -0.261340 0.299970 0.574210 0.255090 0.485930 -0.610090 0.671760 -0.593130 0.394310 0.091182 0.049144 -0.131030 -0.112280 -0.349840 -0.287700 0.198920 -0.177560 -0.091099 0.212860 0.282170 -0.286940 0.181370 0.248630 0.214490 0.516440 -0.196860 0.265370 0.067539 0.030937 0.524110 -0.519330
!it_album 0.356970 0.142620 0.351920 -0.616340 -0.292910 1.040200 0.036953 -0.481490 -0.499170 0.060664 0.512270 0.130900 0.118080 -0.464070 0.064234 -0.208940 0.380100 0.234640 0.430770 0.278900 -0.249290 -0.509410 -0.243140 0.143110 0.467420 0.265250 -0.075906 0.202000 0.118750 0.339610 -0.349940 0.169570 0.580840 -0.243710 0.146420 0.320590 0.340000 -0.794340 -0.046570 0.164950 0.345670 -0.743820 0.332480 -0.638140 -0.184370 -0.491830 0.274690 -0.422120 0.102640 0.988010 0.107750 -0.179530 0.317160 -0.307970 0.306780 -0.142650 0.581950 -0.056521 -0.531730 -0.336830 -0.513460 0.201250 0.089740 -0.332990 0.427230 0.453720 0.425110 -0.380450 -0.390920 0.098192 0.150570 -0.208240 0.726640 -0.440320 -0.928830 0.579930 -0.295430 0.035683 0.361860 -0.038448 -0.112070 0.351070 0.348660 0.179720 0.062929 -0.135180 -0.646810 -0.262130 -0.400230 -0.408640 0.403940 0.378510 0.193830 -0.968650 0.385370 -0.480480 0.423030 0.212250 0.095411 0.278390
!it_b -0.485470 0.872550 0.296210 0.561760 -0.376210 0.472530 -0.160430 -0.050587 0.012447 0.190630 1.022800 -0.093603 0.389740 -0.408280 -0.031773 -0.084020 -0.234020 0.415350 -0.065578 -0.626510 0.494750 0.417500 0.140540 -0.042030 0.024234 -0.426570 0.210440 0.125040 0.463020 0.440590 -0.330520 -0.307140 0.466860 -0.398530 0.577630 0.441700 0.072086 -0.029959 0.510810 0.182120 0.263900 0.272660 0.583130 -0.453150 0.128100 0.282130 -0.064553 -0.116950 0.422060 -0.088887 0.268140 -0.549060 0.235040 0.623550 -0.033893 -0.111020 -0.011835 0.306840 -0.094918 -0.368920 -0.217050 -0.125500 0.474210 -0.231270 0.330390 0.147120 0.322760 -0.087987 -0.314340 -0.472760 0.111120 -0.285190 0.480140 -0.217130 -0.188490 0.025911 -0.505240 0.818880 -0.504760 0.256350 0.166030 0.212870 0.222020 0.480640 0.523970 -0.301580 -0.392830 -0.205120 0.612290 -0.003997 0.226500 0.054876 0.359060 0.051049 -0.156680 -0.227870 -0.256930 0.650110 -0.013963 -0.253110
!it_d -0.230940 0.318730 0.425730 0.132410 -0.724580 0.683750 0.224880 -0.150950 -0.150030 0.088951 0.448200 -0.133650 -0.074188 -0.588160 0.493610 -0.549190 0.045919 -0.277150 0.146640 -0.428390 0.601620 0.088069 -0.024911 -0.116450 -0.393200 -0.743250 0.111550 0.110860 0.923570 0.504450 -0.040237 -0.695950 0.133520 -0.455790 0.031948 0.299850 0.032539 0.101750 0.336110 0.395300 -0.168020 -0.059294 0.749190 -0.375860 -0.524620 0.261160 0.158680 0.244140 0.401720 -0.020568 -0.323210 -0.591560 0.046412 0.123990 0.036815 0.440920 -0.277580 -0.108030 -0.040966 -0.338350 -0.472800 -0.303520 0.361670 -0.290670 0.339010 -0.160780 0.355850 -0.088637 -0.126180 -0.213080 -0.163130 0.149100 0.274690 -0.247990 -0.026742 0.254540 -0.317190 0.921910 -0.350220 0.343330 -0.552520 0.359500 0.568750 0.772830 0.214530 -0.711690 -0.027249 -0.207360 0.916730 0.137500 0.117660 0.061642 0.385340 -0.312240 0.191910 0.405960 0.147790 0.654070 0.261880 -0.381220
!it_seni 0.566200 0.675100 0.154120 -0.803400 -0.170280 0.177350 -0.661240 -0.306840 -0.274530 -0.002743 0.103150 0.302210 -0.150190 -0.290960 0.413120 0.122980 0.260650 -0.181700 0.035394 -0.499300 0.188320 -0.542420 0.200950 -0.174320 0.479180 -0.260970 -0.590400 0.554990 0.342600 -0.287220 -0.035129 0.077834 -0.081925 -0.340890 0.099983 0.239210 -0.714870 -0.040974 -0.249470 0.142910 0.348220 -0.233340 0.662150 0.109570 -0.159110 0.519900 -0.197440 -0.777640 0.090911 0.726860 -0.372580 -0.171070 -0.038137 -0.316160 -0.412860 -0.340620 -0.195460 0.240940 0.173980 -0.080497 -0.138310 -0.004187 -0.686740 0.372760 0.287130 -0.073081 -0.038690 0.223780 0.244510 0.270280 -0.359020 -0.096853 0.139100 0.003115 0.212610 0.300340 -0.260920 -0.111950 -0.099446 0.007284 -0.152860 0.411920 -0.246450 0.055395 0.640040 -0.250610 0.123340 -0.210630 0.271730 -0.113590 -0.121720 0.567640 -0.314940 0.027328 -0.329990 -0.049080 0.191450 0.073799 -0.177740 0.106160
!it_asia 0.138360 0.609910 0.382750 -0.793550 -0.277100 0.462600 0.413450 -0.208450 -0.424790 0.168980 -0.110910 -0.237710 -0.112320 -0.301440 0.042304 -0.116150 0.241350 0.201550 0.240230 -0.381130 -0.163620 -0.026612 0.246360 0.148910 0.282560 -0.538980 -0.065941 -0.356620 0.205250 0.416330 0.137260 0.362820 0.357630 -0.285470 -0.407980 -0.149020 -0.535160 -0.029848 0.085411 0.279670 0.283490 0.532860 -0.096789 0.320280 0.335950 0.116080 -0.056844 0.323290 0.345310 -0.149890 -0.462220 -0.158650 0.555450 0.090991 0.403560 -0.191770 -0.046563 -0.820780 0.022798 -0.192620 -0.412070 0.224270 0.109620 0.335350 0.113600 0.028325 -0.077680 0.339990 -0.542440 -0.144300 0.178840 -0.059711 -0.174000 0.083040 -0.545420 -0.040967 -0.289750 -0.448220 0.299180 -0.651940 -0.668630 -0.095661 0.102580 -0.180470 0.411180 -0.115770 -0.443410 -0.129980 0.604840 0.791770 -0.096617 -0.270610 -0.523910 0.000253 -0.386670 0.078115 -0.307910 -0.124420 -0.031518 0.116030
!it_world 0.134770 0.451370 -0.022234 -0.474900 -0.189500 0.675300 -0.098132 -0.257230 -0.181590 -0.287300 0.244430 -0.244940 -0.075518 -0.710580 0.164560 -0.155080 0.301510 -0.257450 0.000612 -0.893160 -0.474990 0.051588 -0.028261 0.003537 1.212300 -0.319720 0.145440 -0.350850 -0.256500 0.690430 0.035953 -0.797260 0.088298 -0.660440 -0.761630 0.436700 0.383080 -0.802970 -0.099377 0.206560 -0.056509 0.204800 -0.027120 0.115010 0.456600 -0.709480 -0.080030 0.124470 0.315810 -0.135880 0.044296 -0.142360 -0.002864 0.316030 -0.148160 -0.647920 0.228500 -0.720620 -0.460130 0.088260 0.218670 -0.193370 -0.024217 -0.092502 0.345090 0.390550 -0.463110 0.450780 -0.533080 -0.143550 0.987550 0.143830 -0.142390 -0.106600 -0.526710 -0.175470 -0.218430 -0.013528 -0.165360 -0.371020 -0.180990 -0.062745 0.137340 0.582410 -0.066044 -0.355930 0.124610 -0.305930 0.690080 0.082850 0.239700 -0.033844 0.159440 0.171670 -0.318410 0.555560 -0.393640 -0.160650 -0.043786 -0.344880
!it_x -0.367320 0.140490 0.046030 0.117640 0.276240 0.160180 -0.189720 -0.074482 -0.013041 -0.118980 0.738430 0.105850 -0.813340 -0.304650 -0.061248 -0.136760 0.212180 -0.594710 0.263720 -0.355850 -0.054116 -0.396890 0.472750 0.399350 -0.500630 -0.829940 0.666130 0.433500 0.242400 -0.020293 0.169870 0.089302 0.855060 -0.084106 -0.140400 0.003883 -0.028591 -0.064500 0.098505 0.346080 -0.145120 -0.405380 0.287260 -0.547430 0.143990 0.324810 0.377670 0.376490 -0.598790 0.015269 0.043723 -0.591110 -0.389460 1.002500 -0.905990 0.199360 -0.885550 -0.643880 -0.261430 0.153660 -0.069474 0.298680 0.901610 -0.015070 0.138500 0.374100 0.012628 -0.824460 -0.102660 -0.014563 -0.321670 0.071043 0.197690 -0.450660 -0.675890 0.105080 -0.964300 0.148100 0.341120 -0.037991 -0.475900 0.140900 0.213830 -0.256800 0.446980 0.080681 -0.322800 -0.089261 0.712640 0.264410 0.827010 0.239250 0.524410 0.529630 -0.082432 0.197700 -0.690840 0.722860 0.084503 -0.700520
!it_india -0.222160 0.225950 0.614230 -0.925650 0.240570 -0.108670 0.228780 0.017451 -0.143640 0.271360 -0.001051 0.000653 -0.038336 0.173790 0.097428 0.092344 0.536550 0.230270 0.320600 -0.113940 -0.010378 -0.135130 0.220240 0.540720 0.328710 -0.533620 -0.120420 -0.069884 0.323890 0.405360 0.027968 0.366870 0.554800 -0.373560 -0.548520 -0.341830 0.119230 -0.188310 0.106290 -0.138230 0.373570 0.429590 0.366350 0.017045 0.242310 0.293640 0.058788 0.218070 0.107040 0.124680 -0.496700 -0.220530 0.186700 0.087315 -0.169300 0.011757 0.057320 -0.678900 0.177040 0.031979 -0.199810 0.363120 0.364610 0.426550 0.155150 0.026851 -0.243240 0.438430 -0.080748 -0.104950 0.579810 -0.230180 0.086733 -0.042502 -0.321040 0.197620 -0.404580 -0.091224 0.136510 -0.278030 0.007762 0.076675 -0.222710 -0.076791 0.359080 -0.074268 0.050699 0.002539 0.415130 0.650480 -0.162610 -0.285450 -0.519090 0.020154 -0.257540 -0.208470 -0.434230 0.012432 -0.073972 0.126260
!it_e 0.084186 0.723620 0.242240 0.398330 -0.440790 0.153660 -0.183630 -0.397260 0.436780 -0.226170 0.158260 -0.691510 -0.156230 -0.462710 0.210550 -0.621340 0.261030 -0.035552 -0.084778 -0.062539 0.160440 0.389350 0.066904 -0.411110 -0.018880 -0.404840 -0.008303 -0.061225 0.303610 0.863180 -0.084258 -0.416370 0.497500 -0.235500 0.142080 0.524320 0.454760 0.089390 0.484680 -0.039007 0.366910 0.358920 0.869810 -0.115800 -0.280250 0.375380 -0.085155 0.365800 0.376020 -0.094833 0.466550 -0.238050 0.220860 0.436270 -0.205420 -0.261730 -0.065559 -0.147090 -0.586340 -0.492640 0.087144 -0.370410 0.490620 0.071044 -0.261980 0.095004 -0.021783 0.099984 0.112950 -0.124860 -0.015612 -0.080686 0.518000 -0.005775 -0.255850 0.038941 -0.081534 0.573270 -0.167360 -0.176090 -0.061604 -0.188630 0.031217 0.376430 0.276050 -0.140910 -0.214150 -0.324180 0.588880 -0.435870 0.043854 0.107330 0.461460 0.047875 -0.406400 0.412780 0.100790 0.196920 0.254510 -0.618650
!it_it 0.128590 0.853360 0.331570 -0.052637 -0.646530 1.055400 -0.531700 -0.203560 -0.417110 0.349590 0.579990 0.188750 0.047768 -0.867290 -0.243180 -0.214970 0.358340 -0.120210 0.508750 -0.225960 -0.064982 -0.273060 0.403480 0.011002 0.345850 -0.473790 0.073526 0.315060 0.433900 0.676240 -0.276840 -0.022843 0.049427 0.081546 -0.335570 0.093979 0.266930 -0.745310 0.006447 0.143290 0.072263 0.560830 0.435180 -0.199580 0.209850 -0.262300 0.678690 0.220780 -0.534630 0.341410 -0.117260 0.188840 0.096750 -0.137480 -0.521840 -0.060532 -0.062109 -0.347020 -0.356890 0.409070 -0.115100 0.325470 0.618390 -0.554920 -0.029356 -0.154880 -0.282990 0.053304 0.385630 0.125170 0.136380 -0.173880 0.679020 -0.726320 -0.053421 0.385440 -0.561160 0.269270 0.241860 -0.050891 -0.781180 -0.536090 0.010236 0.910540 -0.015510 -0.572310 0.054645 0.015374 0.513710 -0.183650 0.073099 -0.030337 -0.051183 -0.547400 -0.304010 0.427500 0.213910 0.019444 0.411280 -0.079678
!it_mula 0.053946 0.202600 0.032494 -0.311510 0.004592 0.235550 -0.150730 -0.338510 -0.164790 -0.264090 -0.011860 0.410410 -0.103950 0.182180 0.229570 -0.240490 -0.066220 -0.096328 -0.050734 -0.408100 -0.044034 -0.311390 0.022987 0.179180 -0.288500 -0.083534 0.083781 0.036064 0.314790 -0.291160 0.542960 -0.128400 0.340160 0.135340 -0.022009 0.032818 -0.264150 0.090772 -0.152570 -0.041060 0.145480 -0.275030 0.489690 -0.079130 0.003987 0.006207 0.449570 -0.004468 0.056001 -0.182670 -0.096388 0.355160 -0.281260 0.042668 -0.078960 0.080123 0.158760 -0.002762 -0.403150 0.209430 -0.375490 -0.374330 0.122260 0.364540 -0.399950 0.205160 0.192110 -0.129290 0.071880 -0.181040 -0.000896 -0.397770 0.487810 0.220280 0.304010 -0.156540 -0.007481 0.005083 -0.021801 0.042887 -0.090282 -0.140240 -0.023638 -0.366960 0.109330 -0.304970 -0.236990 -0.047060 0.018724 -0.228900 0.127050 0.046181 0.371740 -0.163710 0.046370 -0.116950 -0.785800 -0.310670 0.203590 0.531210
!it_al -0.068818 -0.075501 -0.141390 -0.882210 -0.134080 0.577510 0.134530 0.113980 0.398470 -0.361750 0.920730 -0.010991 0.269410 -0.144360 -0.181770 -0.041258 -0.000640 -0.621480 -0.344700 -0.175480 0.220740 -0.640740 0.027259 -0.109120 0.913480 -0.664000 -0.108470 0.148400 0.179260 0.535040 0.483730 -0.096837 -0.144580 0.389040 0.264710 -0.025495 0.129510 -0.219940 0.511240 -0.311060 0.384800 0.082169 0.414770 -0.143100 -0.221090 0.145550 0.303260 0.048394 0.139530 0.249310 -0.027534 0.314380 -0.217630 0.371280 -0.050538 0.801460 0.638630 0.358520 0.167680 0.023987 0.124630 0.636680 0.099022 0.786050 -0.272920 0.637500 0.203100 0.513890 0.833140 0.040972 -0.185990 0.505560 -0.264760 0.358940 -0.225980 0.409690 0.164200 0.425380 0.295170 -0.061993 0.221060 -0.112780 0.466660 0.007264 0.515010 0.059022 -0.152370 -0.002584 0.441030 0.311050 0.154430 0.457580 0.091848 -0.256590 -0.198790 0.535500 -0.540600 0.113570 0.529190 0.131530
!it_no 0.248090 -0.020684 0.533310 0.149720 -0.396410 0.547280 -0.515110 -0.117290 -0.268330 0.392650 0.815060 -0.229010 -0.161190 -0.317420 0.253140 -0.091752 0.159820 -0.820500 0.313420 0.138410 0.069757 -0.073278 0.308810 0.121630 0.118130 -0.501730 -0.678310 0.278240 0.470950 0.756080 0.186170 0.324740 0.228120 0.016335 0.269350 0.222970 0.733870 0.238310 0.678720 -0.599570 0.100520 0.268390 0.028006 0.384760 0.106890 0.198530 -0.220120 -0.311250 -0.009256 0.062607 -0.187940 -0.065368 0.015837 0.492390 -0.273550 0.351040 0.375130 -0.057692 -0.030547 0.132090 -0.414150 0.022329 -0.015217 -0.797190 0.114010 0.135870 -1.034400 -0.673850 0.282180 -0.007022 0.908560 -0.616240 0.723440 -0.624610 0.168170 0.539480 0.044023 0.267740 -0.340660 -0.012592 -0.217430 -0.069821 0.057892 0.111160 0.792250 -0.199440 0.098088 0.488710 -0.022192 0.130540 0.383360 -0.161760 0.378490 -0.221820 0.059761 0.479340 -0.191260 0.355310 0.166960 0.116810
!it_tv -0.134310 0.281190 -0.227360 -0.335710 0.041921 0.982980 -0.241280 0.606670 -0.486340 -0.069458 0.279780 -0.229230 -0.154300 0.012270 0.316750 -0.461230 0.086505 -0.298210 0.307410 -0.608870 -0.406870 -0.509850 -0.392210 0.109230 -0.130010 -0.120890 -0.307860 -0.610370 0.155680 0.129640 -0.183650 -0.218910 0.407930 -0.281690 0.124220 0.414190 0.457760 -0.404230 0.514630 0.589480 0.687300 0.095483 0.013624 -0.573800 0.322930 0.711410 0.478260 -0.034132 0.147270 0.262800 0.410880 -0.274580 0.248800 -0.115620 0.057611 0.151050 0.167130 -0.119010 -0.555800 0.586080 0.213960 0.137840 -0.318920 -0.173980 0.436790 0.966550 -0.369290 0.173660 -0.261870 0.293960 -0.321130 -0.195440 0.720380 -0.344670 -0.012317 0.750150 0.055395 -0.041636 0.071472 -0.862630 0.330050 0.173450 0.005453 0.423180 0.007145 -0.686130 0.206840 0.692180 0.024167 0.418530 0.426820 0.487700 0.027672 0.097300 -0.154950 0.031204 0.324010 -0.082191 -0.821300 0.132990
!it_you -0.062776 0.932580 0.285570 -0.651540 -0.573280 1.103900 -0.282570 0.369300 -0.711620 0.778800 0.654380 0.155680 0.129170 -0.735210 -0.120240 -0.365600 -0.012847 0.041500 0.574360 0.363380 -0.021610 -0.380300 0.700120 0.285540 0.512840 -0.674850 0.124720 -0.107260 0.150620 0.429390 -0.129850 0.080265 -0.118130 0.162420 0.197950 0.163460 0.515630 -0.732970 -0.147540 -0.197080 -0.268350 0.329090 0.405610 -0.330700 0.297490 -0.814350 0.602540 -0.202790 -0.596850 0.158060 0.028672 0.472470 0.027144 0.212560 -0.367060 -0.377340 0.293880 -0.522300 -1.168900 -0.003285 -0.055497 0.575120 0.769840 -0.243760 0.287390 0.002644 -0.294180 -0.397200 -0.325960 -0.264420 0.039302 0.083032 0.649990 -0.640650 -0.133840 -0.199020 -0.537120 0.183860 0.114730 0.045361 -0.783420 -0.313850 0.171830 0.714600 0.525690 -0.856040 0.611930 0.143250 0.033853 -0.255370 -0.320340 0.423750 0.217740 -0.756420 -0.328380 0.790270 0.255540 0.031397 -0.002594 0.313770
!it_la 0.247520 0.954450 -0.240100 -0.184250 -0.431230 0.009784 -0.017658 -0.156940 -0.084657 0.211490 0.403640 -0.081312 0.550170 -0.356490 0.111250 -0.106440 0.220790 0.451940 -0.314310 -0.377780 -0.166860 0.295850 0.094177 0.175230 0.279180 -0.722800 0.042837 -0.148990 -0.160280 0.364000 0.130620 -0.134150 0.401190 -0.041131 -0.027451 -0.098318 0.556810 -0.468280 0.147520 -0.172870 0.934050 0.293620 0.011339 -0.325340 -0.619640 -0.478870 0.528760 -0.267510 -0.044466 0.483160 -0.698230 -0.165250 -0.210780 0.231330 0.206100 -0.325540 0.176870 0.320880 0.504600 -0.255010 0.142960 -0.097234 -0.114770 0.527580 -0.091483 0.704480 -0.206850 -0.488400 0.231230 -0.483090 -0.139350 0.419640 0.219840 0.209580 -0.053545 -0.103880 -0.362560 0.344330 -0.560720 -0.048455 -0.022777 0.025494 -0.306680 0.091421 0.589650 -0.545910 0.083925 0.265260 0.287460 0.218640 0.283140 -0.215990 0.520020 -0.521380 -0.279510 0.162330 0.238720 0.113760 0.480470 -0.556080
!it_cina 0.281010 -0.027096 0.376180 -0.306080 -0.360310 0.120510 0.155860 -0.084275 -0.087657 0.269430 -0.475890 -0.193810 0.122000 0.082093 0.453580 0.406920 0.153090 0.309470 0.333790 -0.227210 -0.385870 0.244110 0.554850 0.139490 0.250200 -0.735760 -0.310340 -0.087003 0.541610 0.320800 0.405810 0.083745 0.265250 -0.359100 0.055806 -0.337300 -0.325450 0.174870 0.580530 -0.037514 0.290050 0.069160 0.060718 0.091505 0.436580 0.269790 -0.005784 0.039508 0.071657 0.046121 -0.272820 -0.223940 -0.093705 -0.023200 0.169320 0.058037 0.095695 -0.766750 -0.263350 -0.097778 0.056682 -0.321270 -0.129350 1.099100 0.497470 0.274680 0.182160 0.216410 0.034122 -0.330130 0.450160 -0.143010 0.230430 -0.290700 0.267770 0.399510 0.035649 0.123670 0.671660 0.061753 -0.357610 0.146600 -0.290390 -0.044751 0.513330 -0.151910 0.013608 0.070291 0.374110 0.390800 -0.142470 -0.038550 -0.536970 -0.108510 0.048745 -0.064936 -0.374510 -0.261370 -0.361120 0.132850
!it_h -0.508290 0.341470 -0.094236 -0.162900 0.275350 0.298040 -0.165030 -0.090978 0.429180 -0.318010 0.649200 0.484210 0.194340 -0.316930 0.507820 -0.217460 0.276850 0.537530 0.378580 -0.541950 0.207820 0.035047 0.175760 0.334720 -0.012123 -0.709080 -0.377950 0.063752 0.414630 0.958140 0.445420 -0.522920 -0.111130 0.382280 0.165440 0.180450 0.243780 -0.367780 0.696940 0.148420 0.077283 -0.460760 0.332300 -0.698090 -0.166000 0.141130 -0.298880 -0.325620 0.268830 -0.465450 -0.397800 -0.552280 -0.011010 0.486200 0.167580 -0.509240 0.516850 0.121550 -0.005408 0.448900 -0.190840 0.473750 0.366570 -0.288310 -0.231660 0.026300 0.082816 -0.198940 0.289600 -0.225570 -0.027787 0.330300 0.199870 -0.168190 -0.345240 -0.462960 -0.249940 -0.082797 -0.230450 0.000258 0.955380 0.041184 0.205940 0.091025 -0.209280 -0.570010 -0.462590 -0.190690 0.485310 0.059141 0.130910 0.000786 0.281680 -0.070748 -0.186160 -0.001968 -1.137300 0.082899 0.078837 -0.234880
!it_list 0.087163 0.227020 0.230320 -0.077840 -0.492310 0.779820 -0.221130 0.254920 0.126170 -0.331720 -0.146380 0.451810 -0.030219 -0.971200 -0.099198 -0.484850 -0.091743 -0.090593 -0.280670 0.665460 0.489540 -0.431870 0.188170 0.055897 0.032904 0.052500 0.655370 0.267090 0.920160 -0.079405 -0.047399 -0.456830 -0.185110 -0.134310 0.056348 0.207630 0.783570 -0.377550 0.739570 -0.114620 -0.253560 0.387020 0.695360 -0.299430 0.220120 -0.549020 0.139350 0.114540 -0.055302 0.138960 0.102470 0.123570 0.037174 -0.239630 -0.546400 -0.289560 1.215800 -0.009007 -0.219810 0.673180 0.115820 0.284900 0.483760 0.431030 -0.408950 -0.125920 -0.902880 0.370800 0.153800 0.016623 0.292310 -0.121350 -0.178670 -0.390280 -0.150860 0.188710 -0.243990 0.121870 0.228040 -0.013692 -0.993060 -0.047056 0.128310 0.831930 0.137850 -0.182600 -0.717130 0.631220 0.955310 0.138340 -0.885920 0.346130 0.297610 0.386500 -0.426540 -0.060917 -0.104220 -0.082203 0.034590 -0.364410
!it_bin 0.011462 -0.048082 0.201020 -0.737880 0.156390 0.628790 0.187350 0.406230 0.301080 -0.461170 0.814010 0.561230 -0.292970 0.117790 -0.643470 -0.145290 0.634770 0.027792 -0.436770 -0.357870 0.029072 -0.522090 -0.051443 0.492280 0.737210 -0.613040 -0.296990 0.061576 0.550430 1.315700 0.202380 0.279820 0.064573 0.560020 0.193940 0.451090 -0.317450 -0.337630 0.620860 0.099846 0.582560 -0.248620 0.555000 0.029564 0.179370 -0.045376 0.049211 -0.064731 -0.595000 0.437990 0.052135 0.080409 -0.445340 0.984950 0.309160 0.227800 0.480700 -0.248900 0.168210 -0.093450 0.097460 0.128700 0.122660 0.403950 -0.269240 0.410510 0.561890 1.006600 0.810160 0.317540 -0.156400 0.420340 -0.300780 0.046647 0.072390 0.132860 -0.436330 0.500560 0.218390 0.039293 0.205460 -0.456640 0.543860 -0.029191 0.471130 -0.685620 -0.151560 -0.474470 -0.030616 -0.150080 0.150430 0.569820 -0.116970 -0.218750 -0.544490 -0.185500 -1.277200 -0.645420 0.379750 -0.019728
!it_paris 0.145110 0.285640 -0.251120 -0.604690 0.079046 -0.082181 -0.235950 0.076350 -0.059586 -0.303050 0.219290 0.047436 0.295460 -0.406390 -0.081026 -0.035777 0.057798 -0.031257 0.273550 -0.730790 -0.007711 -0.061519 0.232920 0.068510 0.452440 -0.532770 -0.074885 -0.224200 -0.037409 0.610960 -0.049508 0.264460 -0.106210 -0.263870 -0.351240 -0.530720 -0.065762 -0.020386 0.081992 -0.359210 0.695330 0.218530 0.244900 0.041050 -0.423420 -0.101320 0.512350 0.132930 0.055002 0.733220 -0.800750 -0.479100 0.094467 -0.169090 -0.125840 -0.279150 -0.041184 0.317860 0.168330 0.051789 0.375880 0.274660 -0.076772 0.146990 0.600520 0.275760 -0.408700 0.055076 -0.031137 -0.258340 -0.276720 0.220880 0.468560 0.337140 -0.460820 -0.006713 -0.290760 0.052911 -0.555870 -0.181630 0.261590 -0.124010 -0.096760 0.228720 0.663900 -0.446740 0.184640 0.057603 0.038656 -0.423860 0.157880 -0.050973 0.517100 0.174830 0.177210 -0.068893 0.176120 -0.126080 0.445300 -0.532250
!it_code 0.159510 0.276690 0.372850 0.183370 0.111330 0.913200 -0.224450 -0.212090 0.185880 -0.228620 0.822370 0.485260 -0.041280 -0.783040 -0.066523 -0.251640 0.160500 -0.415910 0.679110 0.192900 0.002928 -0.074803 -0.571830 0.393970 0.602470 -0.273330 0.159670 0.174830 0.097793 0.781570 -0.227850 0.068288 0.309900 0.554690 -0.186100 0.510570 0.159650 -0.888810 0.057228 -0.630020 -0.013562 0.316280 0.055107 -0.467600 0.514850 0.277010 0.130790 0.279630 -1.047000 0.207670 -0.759750 0.091355 -0.379810 -0.333270 -0.894300 -0.494790 -0.284960 0.064914 0.087336 0.314980 0.269180 -0.435570 1.299600 0.135700 0.159850 0.359250 -0.856960 0.244360 0.147250 -0.568770 -0.542960 -0.531540 -0.215220 -0.116820 0.087919 0.021371 -0.349920 0.929170 -0.296710 0.171160 -0.686110 -0.411130 0.181500 0.571940 0.701770 -1.125100 -0.387900 -0.104210 -0.165520 -0.008720 -0.452350 -0.550160 0.255330 0.043579 0.289510 0.630600 0.004090 -0.378540 0.086888 -0.502030
!it_air 0.072768 -0.028749 -0.797420 0.212700 -0.196300 0.445830 -0.175770 0.021812 -0.055926 0.111220 -0.061180 0.669820 -0.107200 -0.741410 -0.476160 -0.102020 0.397220 0.116320 0.282470 -0.213610 -0.129060 0.266870 0.025105 0.249230 0.886710 -0.207840 -0.075568 0.030117 0.105950 0.026499 -0.510530 0.157200 0.122180 0.182000 0.075078 0.317220 0.028403 0.344530 0.131730 -0.328450 -0.212020 0.035794 0.491740 -0.566810 0.190130 0.056492 -0.397210 -0.463370 -0.139570 0.438350 -0.963640 -0.311760 0.171080 0.373180 -0.446050 -0.157140 0.738560 -0.011731 -0.798110 0.772090 -0.235410 0.371480 0.085689 0.338220 -0.506390 -0.005549 -0.260860 -0.047161 -0.012426 0.036139 0.410350 -0.157750 0.566300 0.080372 -0.129100 0.526970 0.072105 0.037106 -0.040771 -0.091484 0.697750 0.535840 0.411860 0.306380 0.475240 -0.214660 -0.067775 -0.522120 0.363310 -0.052823 -0.131740 -0.490320 -0.763130 -0.129820 -0.488840 -0.383970 0.258090 -0.021321 -0.437480 0.000289
!it_jam -0.163020 -0.167110 0.018111 -0.349210 0.197450 0.373570 -0.237570 0.533480 -0.263610 -0.113800 -0.466030 -0.183630 0.148740 -0.186830 0.133020 -0.531600 0.479510 -0.128340 0.261290 -0.268820 -0.207630 0.010889 0.015894 -0.038526 0.579640 0.004587 -0.077587 -0.457570 -0.311580 0.496680 0.368990 -0.286550 -0.553760 -0.439550 0.572920 0.199430 -0.066372 -0.518180 0.345950 0.254210 0.187970 -0.723430 0.022043 -0.810800 0.151620 0.298760 0.244920 -0.329940 0.276680 -0.006260 -0.712710 -0.246360 -0.017154 0.239180 0.703110 0.227430 0.111910 0.150000 -0.972730 -0.300640 0.545940 0.654670 0.155850 0.206020 -0.377580 0.476510 0.302930 -0.091444 -0.153160 0.062790 -0.553150 -0.634710 0.599920 -0.017543 0.136940 -0.375660 0.195730 -0.066325 0.138560 -0.365260 -0.330930 0.293310 -0.258810 -0.044767 -0.028632 -0.293850 0.195540 0.614600 0.002197 -0.223650 0.551160 -0.091324 0.478650 0.573920 0.048926 -0.130320 -0.120880 0.135850 0.455430 0.066148
!it_band -0.210190 0.056817 0.155340 -0.329360 0.142710 0.723030 -0.250290 -0.268000 -0.277210 -0.182470 0.363790 0.316040 -0.134430 -0.243770 -0.294950 -0.089390 -0.056106 -0.133210 0.410030 -0.073885 -0.223390 -0.383610 -0.109060 -0.073048 0.580070 -0.193930 -0.009690 0.423180 0.166380 0.277410 -0.144040 -0.221540 0.273650 -0.398370 0.224890 0.231840 0.198020 -0.959140 0.193770 -0.109000 0.000311 -0.443490 0.938600 -0.354930 -0.297650 0.002977 0.598480 -0.457040 0.513370 0.315040 0.017691 -0.157960 0.192020 -0.372800 0.324390 0.097919 0.358380 -0.227400 -0.917950 -0.140170 -0.084196 -0.579720 0.115530 -0.125370 0.156250 0.397960 0.075154 -0.137390 -0.409510 0.241900 0.033091 -0.123270 0.351260 0.022084 -0.175260 0.978620 -0.710210 -0.482640 -0.142540 -0.407830 -0.099965 -0.013291 0.051741 0.035500 -0.103970 -0.217070 -0.108500 -0.168660 -0.511490 -0.135370 0.524610 0.375630 0.269610 -0.682230 0.148270 -0.502970 0.119370 -0.253130 0.101450 0.294370
!it_p 0.663490 0.121430 0.065774 0.350590 -0.227670 0.159630 -0.117520 -0.557960 0.282710 -0.475520 0.328590 0.704140 -0.001780 -0.165800 0.259290 -0.890530 0.489400 -0.288950 0.349380 -0.662670 0.118320 -0.208590 0.608920 0.262580 0.136970 -0.502770 0.393240 0.049272 0.273580 0.211160 0.567230 0.252920 0.216290 -0.570330 0.353550 -0.419600 0.831280 -0.436490 -0.070469 0.246990 -0.106520 -0.434400 -0.218000 -0.852810 0.056707 -0.118370 0.011746 -0.570360 0.229940 -0.339120 -0.666070 -0.413060 -0.055883 0.180810 0.127590 -0.442170 -0.203580 0.026946 -0.710940 0.355950 -0.201660 -0.145290 0.584880 -0.339970 -0.011117 -0.227600 -0.887860 -0.014429 0.823110 0.010564 0.083795 -0.203530 -0.057997 -0.093517 -0.495320 -0.113660 -0.034509 0.526320 -0.059108 -0.135780 -0.138340 0.208220 -0.098915 0.060224 0.466320 -0.495480 -0.278620 -0.502850 1.063300 -0.106410 0.368170 0.379580 -0.167380 -0.106050 0.081113 0.405130 -0.516500 0.557960 0.554210 -0.153880
!it_wit -0.129260 0.481980 0.561890 -0.597690 -0.470860 0.441770 0.180410 -0.181570 0.048384 -0.417680 -0.113270 -0.046291 0.518440 0.333030 -0.349340 0.111170 0.152960 0.265520 0.306580 -0.356360 0.370310 -0.295490 0.510250 -0.165860 -0.102180 0.104420 0.096319 -0.324480 -0.001371 0.275090 0.210320 0.321950 0.078867 -0.290200 -0.592980 0.149850 0.115430 -0.058268 0.429060 -0.565020 0.235130 -0.081998 0.316280 -0.387160 -0.548240 0.201510 -0.042736 -0.199030 0.223180 -0.147440 0.125740 -0.086201 0.272960 0.766200 -0.599320 -0.030988 -0.280170 -0.305140 -0.982080 -0.310870 0.057794 0.253300 -0.200980 0.614810 -0.265680 0.182320 0.035993 -0.174540 0.496760 0.328470 0.047266 -0.268440 0.247270 -0.321950 -0.374380 0.399030 -0.263650 -0.105990 -0.241080 -0.478370 -0.355350 0.525190 0.496470 -0.573510 -0.067824 -0.291920 -0.122360 0.327690 -0.131750 -0.104150 -0.071731 0.137280 0.245690 0.201600 -0.623780 0.037988 -0.229710 -0.709700 -0.075852 0.474180
!it_page 0.075774 0.647490 0.451290 -0.083320 -0.322810 0.956870 -0.679310 0.438090 -0.377890 0.011178 -0.050732 0.585170 -0.006909 -0.563970 0.577380 -0.244520 0.313830 0.072344 0.630780 0.241210 0.533560 -0.038009 0.327020 -0.269600 0.124170 -0.286420 0.058520 0.287150 0.196380 0.495190 -0.005906 -0.427830 -0.145490 -0.107140 -0.121080 0.229500 0.277290 -0.570500 -0.034830 0.001669 0.179690 -0.020818 0.412050 -0.323540 -0.511750 0.009808 0.291770 0.172210 -0.181450 0.513100 -0.286640 0.103920 0.131190 0.480000 -0.659570 0.374400 0.171380 0.033205 0.130600 1.043600 -0.071848 0.398440 0.669270 -0.483970 0.335460 0.333930 -0.173500 0.277600 -0.063556 -0.190340 0.115880 0.026145 0.211570 -0.586850 0.186000 -0.086710 -0.515070 0.338590 -0.650980 -0.028920 -0.488690 -0.271330 0.221570 0.469830 0.825520 -0.864720 -0.192390 -0.054027 0.353370 -0.243450 -0.027242 0.034205 -0.136920 -0.515540 -0.579850 0.437120 -0.286240 -0.225350 0.503290 -0.251970
!it_muhammad -0.019612 0.193040 0.419980 -0.763330 -0.145240 0.359050 -0.030871 0.553900 -0.040609 -0.474680 0.523330 0.630510 -0.495270 0.420050 -0.319130 0.016940 0.035416 -0.223700 -0.204610 -0.275330 -0.233670 -0.594810 -0.003579 -0.054105 0.766460 -0.243220 -0.409480 0.147000 0.522550 1.047400 0.394630 0.148120 0.037128 0.391160 -0.613620 -0.056372 -0.456590 -0.202390 0.744530 -0.034339 0.060516 -0.040344 0.284940 -0.171510 -0.031221 -0.230620 -0.122750 -0.164060 0.211970 0.046690 -0.099393 0.065641 -0.199140 0.843700 -0.091445 0.216780 0.298900 -0.145740 0.320740 -0.071895 0.057762 -0.154040 -0.167560 0.014395 -0.192020 0.096956 0.251310 0.713900 0.847330 -0.002148 -0.066925 0.310600 0.390940 0.059468 -0.263570 0.314790 -0.383970 0.098200 0.350790 0.012791 0.161120 -0.255430 0.100480 0.367300 0.399170 -0.155120 -0.316940 -0.207050 -0.135190 -0.226850 0.741380 0.234840 0.261530 0.138940 -0.199130 -0.227530 -0.753630 -0.306980 0.091792 0.093125
!it_view 0.508350 0.691880 -0.199190 0.146050 0.081926 0.503930 -0.560920 0.233380 -0.567430 -0.265830 0.395600 0.697210 0.469490 -0.348320 0.907920 -0.612520 -0.458320 -0.416790 0.447100 -0.598780 0.490830 -0.656040 -0.100640 0.092606 0.636060 0.079652 -0.043100 0.044996 0.936860 0.011356 0.044187 0.634750 0.312660 -0.568730 0.566840 -0.293540 0.435450 -0.450940 0.249820 -0.057075 -0.310870 -0.320820 0.056582 -0.594010 -0.255310 -0.261710 -0.166710 0.567450 -0.098653 0.935240 -0.038387 0.178410 -0.046201 0.171290 -0.437570 0.208280 0.102510 -0.192820 -0.235910 -0.171080 0.504490 0.326660 0.330260 -0.260690 -0.012052 -0.347420 -0.036279 0.191590 0.447790 -0.020579 0.376210 -0.342460 0.092090 -0.299500 0.102080 -0.622770 -0.474200 0.803490 -0.157670 -0.714220 -0.449840 -0.374120 0.120230 0.825990 0.948810 -0.675350 -0.568600 -0.043723 0.690580 0.433260 -0.413730 -0.205510 -0.067299 -0.585570 -0.848760 0.712440 -0.543430 0.275760 0.556670 -0.130430
!it_university -0.128970 0.949320 0.410170 -0.601390 0.180640 0.243560 0.099950 -0.240100 -0.461820 -0.657700 0.311820 0.121340 0.274030 -0.107360 0.489880 -0.272680 0.325990 -0.476330 0.021772 -0.763300 -0.321640 0.160010 0.510980 0.044700 0.521050 -0.612650 0.101960 -0.128960 0.259280 0.961280 -0.517090 0.088214 -0.247020 0.014539 0.141370 0.104770 0.007020 -0.125020 0.094363 -0.300690 -0.092500 -0.053148 0.318040 -0.893890 -0.057160 -0.325280 0.653470 0.325210 0.332650 0.467060 -0.317550 -0.408610 -0.137400 -0.340840 -0.602550 0.103410 -0.086773 0.358930 -0.752330 0.477200 -0.041752 -0.387970 -0.114720 -0.573790 0.527070 0.385950 -0.081851 -0.043158 0.057955 -0.451680 -0.109820 -0.007653 -0.181920 0.144880 -0.319110 -0.250670 0.113060 -0.089012 0.095414 -0.330430 -0.684400 -0.142490 -0.206890 0.719880 0.163480 0.291620 -0.054722 0.425970 0.859480 0.049017 -0.041907 0.494160 -0.422640 -0.003106 -0.525480 -0.042773 -0.050755 -0.112460 -0.180230 0.197020
!it_en 0.179430 0.572700 -0.021650 0.212810 -0.308390 0.151070 -0.406960 -0.128890 0.245540 -0.153180 0.298540 -0.097166 0.028018 -0.491390 -0.130350 -0.204230 0.643840 -0.615730 0.088555 -0.415000 0.285570 0.127850 0.041644 -0.143550 0.070830 -0.986420 0.362320 -0.085373 0.362310 0.023436 0.237470 -0.606650 0.201740 -0.306450 0.110590 0.688410 0.404220 -0.226490 -0.275180 -0.157580 -0.069697 -0.674110 0.225830 -0.098568 -0.130300 -0.521930 0.584490 0.277580 0.366270 0.752950 -0.825130 -0.158980 0.134720 0.300090 -0.337770 -0.028211 0.141750 -0.076962 0.505150 0.056278 0.055650 0.307910 0.345810 0.014019 -0.313270 -0.079765 -0.163860 -0.118950 -0.058823 -0.346200 0.470160 -0.261360 0.302390 -1.329600 -0.133380 -0.184620 -0.246410 0.100500 -0.595310 -0.258030 -0.306970 -0.000349 -0.195700 0.261410 0.732020 -0.928840 -0.174980 -0.370910 0.554640 0.337970 -0.369890 0.275910 0.411140 0.181630 -0.086556 0.051137 0.040997 -0.465380 0.601400 -0.497450
!it_n 0.143530 0.033126 0.211410 0.400400 0.032833 0.405150 -0.002251 -0.476960 0.474040 -0.098585 0.290170 -0.208790 0.481730 -0.355160 -0.289260 -0.397810 0.147530 0.106270 0.863460 0.022339 0.452190 -0.015246 0.776150 0.461460 -0.093564 -0.967960 -0.239240 0.404060 0.430750 0.494950 0.405620 -0.165780 0.449850 -0.104970 0.333770 0.307720 0.191610 -0.535350 0.055024 -0.318500 0.039321 0.173860 0.492650 -0.244730 0.233820 0.146980 0.240910 -0.171630 0.346820 -0.430940 -0.108330 -0.264570 -0.182420 0.324900 -0.282040 -0.482380 0.130670 -0.314550 -0.274740 0.277720 -0.386010 0.017302 0.370480 -0.474350 -0.121350 -0.038693 0.079473 -0.647930 0.099266 -0.194470 -0.362310 -0.306500 -0.101550 -0.601890 -0.767930 -0.173440 -0.068874 0.038449 -0.257840 -0.083131 0.535900 0.257790 -0.030364 0.609280 -0.312710 -0.334970 0.287270 0.081412 0.373460 -0.391650 -0.109530 0.021606 0.471290 0.015785 -0.220280 0.341810 -0.824140 0.730760 0.229760 -0.383260
!it_cm 0.012296 0.120660 0.082918 0.223220 -0.186550 0.106990 0.412560 -0.544300 -0.369550 -0.424330 -0.061698 -0.374240 0.343230 -0.487370 0.336770 0.026805 0.147740 0.151690 0.209600 -0.861500 -0.639240 0.160110 0.135440 -0.381920 0.405620 -0.497870 -0.364040 -0.197550 -0.150660 0.430250 -0.106360 0.157100 0.187770 -0.145670 -0.771140 0.373830 -0.524160 0.078440 -0.295410 0.235660 -0.081750 -0.345930 0.184020 -0.862360 0.132620 0.287400 0.506940 0.110820 -0.651320 -0.202550 0.076714 -0.747760 -0.033674 0.510160 -0.527920 -0.235840 -0.285590 -0.487500 -0.248780 -0.770880 0.063347 0.367660 0.511640 0.644000 -0.110210 -0.114510 0.177570 -0.551410 0.890600 0.659720 -0.412820 -0.332320 -0.156470 -0.162520 -0.913850 0.605750 -0.697220 0.466930 0.144200 0.046004 -0.174280 -0.146610 0.431930 -0.156720 -0.128610 -0.671990 -0.131300 0.461700 0.557200 -0.124820 0.766650 -0.331240 0.075681 0.444400 -0.216230 -0.047085 -0.323340 -0.631340 -0.102870 0.062982
!it_v -0.009629 0.395900 0.348950 0.559340 0.206050 0.068185 -0.356290 0.229400 -0.452400 0.008492 0.637610 0.045480 -0.514750 -0.506070 -0.066136 -0.691050 0.108470 0.264690 0.228350 -0.254330 0.471510 -0.233010 0.194810 -0.024103 0.000657 -0.958010 0.128950 0.583690 0.608610 -0.215070 0.521000 -0.056922 0.836010 0.178520 0.068011 -0.265390 0.384070 -0.285490 0.680920 0.293060 -0.476260 -0.236470 0.700860 0.168880 0.037872 -0.111560 0.406480 0.549160 -0.660680 -0.083303 -0.479320 -0.118610 0.065408 0.647630 -0.930890 0.095518 -0.060237 -0.212760 -0.315920 0.016741 -0.322720 0.504040 -0.035572 -0.238560 0.710160 -0.020234 -0.398160 0.142230 -0.080806 -0.135260 0.147740 -0.389700 0.221980 0.210170 -0.575720 -0.196840 0.086419 0.207830 -0.328810 -0.449260 -0.153390 0.220780 0.306330 0.362440 -0.072269 -0.417490 -0.213920 0.240510 0.313680 -0.066556 0.341870 -0.007746 0.393090 -0.093284 -0.043651 0.479020 -0.320140 0.191300 0.469280 -0.384290
!it_malaysia 0.174900 -0.127650 0.246760 -0.623540 -0.211360 0.127540 0.676750 0.367340 -0.492200 0.400460 0.078538 0.089637 0.090629 -0.395550 0.447750 -0.247750 0.327530 0.492310 0.788470 -0.048335 0.290720 -0.166930 0.267830 0.401480 0.589290 -0.283370 -0.397770 -0.299200 0.477100 0.544890 0.004230 -0.003647 0.208690 0.447740 -0.007061 -0.083939 -0.471750 -0.157540 0.173330 0.028927 0.377700 0.279820 0.317180 -0.408120 -0.033387 -0.168540 0.305000 0.241490 -0.307460 0.270400 -0.457510 -0.136080 -0.036878 0.387870 0.485880 0.253800 -0.095174 -0.414590 -0.153490 -0.423500 -0.052605 0.090613 -0.203450 0.548320 -0.257900 -0.210660 0.095122 0.102010 -0.510020 -0.188450 0.184440 0.168780 0.314770 0.170040 -0.124540 -0.008925 -0.283250 -0.821170 0.728680 0.082670 -0.339560 0.167430 -0.065958 0.106560 0.568250 0.109010 -0.586340 -0.266110 0.129930 0.250240 -0.019554 0.343890 -0.377860 -0.048315 -0.233640 -0.333980 -0.348570 0.050666 -0.542930 -0.187380
!it_web 0.514750 1.179700 -0.034400 0.083651 -0.591150 1.115600 -0.527150 0.316900 0.034532 -0.495640 0.022462 0.265080 -0.166500 -0.173890 0.636650 -0.519510 0.042966 0.003859 0.209210 -0.238070 0.560260 0.194440 -0.020288 0.459470 0.459270 -0.199930 0.395490 -0.263650 -0.345900 0.568710 0.284060 -0.137700 0.373330 0.341730 0.142910 0.325150 0.247040 -0.181000 0.075936 -0.190040 0.332360 -0.917990 -0.021995 -0.010790 0.219590 0.020133 0.285850 0.554070 0.010843 0.341410 -0.384400 -0.193020 0.382450 -0.360000 -0.136690 0.032111 0.077805 -0.031622 -0.221880 -0.126600 -0.042549 -0.167150 0.150620 -0.574800 0.289580 -0.112300 -0.157130 0.126430 0.156230 -0.553260 0.076494 0.269850 -0.018853 -0.864030 -0.033177 -0.286670 -0.651630 -0.030137 -0.637840 -0.082653 -0.221040 0.007631 0.261370 0.310980 0.561590 -0.033033 0.230580 0.009524 0.433330 -0.023476 0.667920 -0.021618 -0.687770 -0.067549 0.099503 0.592830 -0.205070 -0.458290 -0.199400 -0.362570
!it_australia 0.337100 -0.177290 0.431390 -0.652220 0.030794 0.341630 0.308410 -0.035524 -0.651320 -0.074405 0.168250 -0.178300 -0.000308 0.100450 0.113640 -0.099813 0.219380 0.159130 0.209370 -0.607330 0.856420 -0.122770 0.383420 0.467580 0.304420 -0.274740 -0.054756 -0.179420 0.572300 0.345640 -0.497020 0.428740 0.127860 -0.104170 -0.139230 -0.629930 -0.438180 0.033997 -0.061989 0.371360 0.277510 0.313540 0.062504 -0.110580 0.043398 -0.368310 0.416420 -0.101550 0.108520 -0.060300 -0.252460 -0.678430 0.338780 -0.046194 0.005658 -0.099116 0.118490 -0.680300 -0.468800 -0.106720 -0.087585 0.246270 0.173650 -0.064005 -0.103180 0.231350 -0.218630 -0.078936 -0.369690 -0.637170 0.153940 -0.232830 -0.464670 0.291350 -0.341540 -0.022869 -0.374800 -0.579680 0.106090 -0.506560 -0.409190 0.172240 0.253620 0.045300 0.302160 -0.017634 -0.123890 -0.043856 0.571600 0.088501 0.008207 0.676710 -0.385440 0.171470 -0.030781 -0.116070 -0.101340 -0.338050 0.073187 -0.319920
!it_news -0.266480 0.283550 -0.262180 -0.207790 -0.276850 0.330200 -0.244660 0.314870 -0.724140 -0.192670 -0.140780 0.411310 -0.298920 -0.314590 0.554460 -0.679580 -0.177040 -0.094508 0.573650 -0.372750 -0.134150 -0.103630 0.280330 -0.183430 0.223990 -0.478910 -0.095960 -0.233190 -0.245730 0.043974 0.304170 -0.063511 -0.010765 -0.339800 0.121600 0.461900 0.326850 -0.754740 -0.016393 0.780210 -0.237370 0.112740 0.358350 -0.052380 -0.090528 -0.063594 0.270580 0.452880 0.356360 0.182550 -0.082501 0.106450 0.160310 0.292500 -0.587220 -0.194480 0.500910 -0.620100 -0.314740 0.223460 0.092734 0.091302 0.180130 -0.301950 0.069459 0.169560 -0.233420 0.111450 -0.065377 -0.074021 0.601290 -0.733400 0.205300 -0.297350 -0.051219 -0.112380 -0.195160 -0.307890 -0.635680 -0.259950 -0.448350 0.004798 -0.012810 0.593650 0.586010 -0.346310 -0.034026 0.141660 0.169320 0.317890 -0.077406 0.218390 0.080687 -0.385170 -0.506150 -0.106320 0.478320 -0.287180 -0.110010 -0.485240
!it_roma 0.200210 0.818270 -0.074740 -0.404140 0.356730 0.074458 0.135270 -0.030757 -0.067416 0.653340 0.296290 -0.193910 0.073376 0.643030 -0.174790 -0.051305 0.300890 0.130840 0.227870 0.108950 0.163490 -0.549010 -0.044685 -0.222470 0.608570 -0.498320 -0.628870 0.101020 -0.114490 0.530940 0.107640 -0.015352 -0.441790 0.284150 0.054538 -0.858400 0.393830 -0.020873 -0.769350 -0.123740 0.496660 -0.024077 0.734740 -0.219920 0.288360 0.698580 0.323600 0.285200 0.508470 -0.442100 -0.580230 -0.768740 -0.005615 -0.027615 -0.485350 -0.461160 0.214320 -0.371180 -0.539460 -0.008058 0.200630 0.198080 -0.566990 0.640050 0.515450 0.104330 0.103890 0.059220 0.374720 -0.358660 0.191400 0.092004 0.379140 0.448360 -0.712590 0.574730 -0.081177 0.531290 -0.132140 0.108110 -0.272390 -0.123860 -0.285350 0.035502 0.084149 0.263030 -0.261740 -0.000378 0.187080 -0.402140 -0.087954 -0.097856 0.246230 0.353590 -0.498940 0.275660 0.204530 0.056229 0.553480 -0.479290
!it_guru 0.335370 0.389140 -0.263900 -0.699590 -0.162950 0.465360 0.049514 -0.646870 -0.215530 -0.337670 0.245160 0.047666 -0.275540 0.685190 0.098062 0.059783 -0.152820 -0.111120 -0.376890 -0.641260 -0.054300 0.172870 0.372660 -0.138810 0.568790 -0.194660 -0.331620 0.373600 0.537860 0.028528 -0.433230 -0.088947 0.090874 -0.577440 0.372770 -0.067525 0.130710 0.198610 0.286630 -0.614180 -0.260810 -0.779190 0.070309 -0.269860 0.046294 -0.064903 -0.120480 -0.070346 0.331210 0.194460 -0.785760 0.201530 -0.430940 0.140180 -0.378440 0.122680 0.408420 -0.063640 -0.158450 0.193980 -0.197720 -0.198250 -0.496870 0.217890 0.370290 0.266440 0.116940 0.184430 0.411100 0.104180 -0.523750 -0.036928 0.380260 0.128190 -0.293910 -0.016788 -0.126780 -0.555390 0.027169 -0.112300 -0.090019 0.017921 0.190950 0.057236 0.224530 0.043046 0.175540 1.011400 -0.117890 -0.220220 0.055109 0.312350 0.308820 -0.415320 -0.154450 -0.306250 -0.835610 0.214600 -0.035455 -0.061350
!it_john -0.306380 0.041101 -0.232170 -0.221160 0.131410 0.332660 -0.577860 -0.018815 -0.302780 -0.315330 0.223770 0.054338 0.137450 -0.316870 0.215830 0.314260 0.396030 -0.284590 -0.374720 -0.143080 -0.223160 0.044652 -0.144540 0.763700 0.514700 -0.189790 -0.552390 0.328390 0.337710 0.580640 -0.020640 -0.057883 -0.493240 -0.167030 0.031780 -0.470070 0.550320 -0.574330 0.188280 -0.010009 -0.050650 -0.030235 0.886320 -0.055609 -0.039627 -0.010079 0.632180 -0.052617 0.000973 -0.292040 -0.333190 -0.230590 0.297790 0.419520 0.222680 0.007994 -0.301120 -0.436740 -0.234530 -0.124090 0.562970 -0.430490 0.262750 -0.217470 0.654220 0.193890 0.263470 -0.253270 -0.033721 -0.260980 0.057216 -0.130840 -0.038631 -0.084519 -0.621270 0.102680 -0.145570 -0.328570 -0.266120 -0.060323 -0.261540 0.095505 0.132470 0.100680 0.072671 -0.126450 -0.068439 0.394420 0.196490 -0.278180 0.279150 0.417850 -0.016958 -0.321880 -0.215050 0.266800 -0.072612 -0.601460 0.134970 0.001810
!it_machine 0.112540 0.070937 0.448430 0.089861 0.360250 1.339800 -0.887540 -0.058697 0.099467 -0.258250 1.360400 0.445070 -0.234950 -1.042900 -0.084505 -0.205270 0.387000 -0.008066 0.646320 -0.424060 -0.596290 -0.249230 -0.371770 0.015762 0.826780 -0.538640 -0.023340 -0.494970 0.238710 0.391780 0.352970 0.000243 0.453130 0.268670 -0.084187 -0.275880 0.512240 -1.293300 0.160600 0.328240 -0.004210 0.040394 0.758450 -0.048241 0.314930 -0.551670 0.091046 0.185010 -0.701610 0.917910 -0.104370 1.010200 -0.587960 -0.390400 -0.504290 -0.454990 -0.588720 0.410510 -0.185440 -0.015171 0.219490 -0.933780 1.258200 0.472520 0.280470 -0.065052 -0.906660 -0.647530 -0.345930 -0.367780 -0.317480 0.118630 0.183590 0.466370 -0.525250 -0.102830 -0.545590 0.508770 0.060506 0.062830 -0.438520 -0.179890 0.523540 0.446760 0.182400 -0.772230 0.406680 -0.006078 0.176740 -0.476610 -0.570160 -0.526040 -0.440240 -0.173390 0.327070 -0.107440 -0.037592 -0.332200 0.274030 -0.505360
!it_award 0.167230 0.659990 0.566210 -0.627830 0.114950 1.010300 0.222820 0.126660 -0.661530 0.008528 0.687900 0.105860 -0.130130 -1.166000 0.023307 -0.035844 1.034900 -0.130040 0.015383 -0.838380 -0.155930 -0.169880 -0.002655 -0.137630 0.360820 0.228960 -0.644540 -0.357030 0.348130 -0.053968 -0.939890 -0.122970 0.233740 -0.316100 0.191120 0.841410 -0.072807 -0.581020 0.173530 0.537140 0.125190 0.165700 0.343500 -0.367560 -0.388150 -0.210120 0.162990 0.093639 0.460310 0.933570 0.306370 -0.027020 -0.554380 0.065569 0.649300 -0.432710 0.354870 -0.651310 -0.057739 0.534510 0.227810 -0.199800 0.838770 0.129240 0.480670 0.070366 -0.185050 -0.279640 0.092780 -0.003303 0.111710 -0.724460 0.095374 0.354660 -0.639510 -0.256280 0.385080 -0.055851 0.637860 0.051418 -0.368240 -0.059008 0.219130 0.465460 0.414670 0.147850 0.080483 0.499240 -0.308120 0.586350 0.432110 0.559620 0.164920 -0.411080 -0.540820 0.137680 0.021021 -0.383710 -0.046230 0.057483
!it_will 0.252590 0.142540 0.426200 0.014261 0.326440 1.341000 -0.423670 0.249870 -0.296570 0.080181 0.718360 0.696330 -0.437510 -1.125800 0.257410 0.147590 0.015612 -0.064555 0.244600 -0.131340 -0.239700 0.044839 0.208300 0.495990 0.325420 -0.586230 -0.324470 -0.203630 0.230250 0.667290 -0.278970 -0.117720 -0.270480 -0.373010 -0.263740 -0.039099 0.464250 -0.791690 -0.268440 -0.313770 -0.007497 0.433500 0.526510 -0.403380 0.551620 -0.141750 0.482690 -0.493020 -0.633850 0.147870 0.240360 0.526940 0.396110 0.676670 -0.432490 -0.084371 -0.131150 -0.373640 -0.864170 0.289000 0.120990 0.225660 0.567940 -0.525830 -0.342590 0.230790 -0.065740 -0.263910 0.022989 -0.219370 0.154800 -0.009239 -0.040171 -0.642280 -0.044447 -0.354060 -0.572680 0.646300 -0.192330 0.025835 -1.000700 -0.777800 0.038259 0.330480 0.429890 -0.811780 0.309870 0.303880 0.563130 -0.301060 -0.354810 0.282010 0.293920 -0.801150 -0.317410 0.540450 -0.232160 -0.046352 0.636350 -0.280620
!it_city 0.533770 0.314050 -0.135910 0.439020 0.021184 0.485050 -0.020093 0.259930 -0.475600 0.093541 0.087694 0.090773 0.452230 -0.393020 0.114250 -0.320400 0.349950 -0.306050 0.072314 -0.226960 -0.536120 -0.009462 -0.066591 -0.286170 1.051200 -0.615950 -0.444500 0.006158 0.232550 0.577630 -0.443070 0.072165 0.061139 0.013739 -0.162680 -0.376740 -0.256950 -0.273430 0.148900 0.134080 0.252510 0.618680 0.744780 -0.690780 -0.028469 0.077451 0.765700 0.232800 0.268310 0.398000 -0.066711 -0.355410 -0.102430 -0.019203 -0.084266 -0.338470 0.359050 -0.199930 -0.819850 0.517190 0.352510 0.178330 0.694240 -0.365320 0.872050 0.582230 0.000353 -0.070688 -0.296800 -0.658920 0.172200 0.358870 0.750400 -0.550660 -0.475530 0.284760 -0.193500 0.175980 -0.279400 -0.364580 -0.220060 -0.739720 0.261740 0.214290 0.100100 0.423380 -0.570950 -0.266530 -0.013543 0.194400 -0.119450 0.415140 0.061666 0.384980 -0.085360 0.577120 0.092447 -0.560750 -0.458180 -0.353770
!it_van 0.242050 -0.557890 -0.040466 0.221940 0.168940 0.368080 0.051941 -0.110010 0.143500 -0.033653 0.231720 0.319810 0.082707 -0.144080 0.059284 0.154780 0.241150 -0.235810 -0.619840 -0.730360 -0.351170 -0.170530 -0.109230 0.359600 0.261290 -0.515620 -0.414570 0.175810 0.736030 0.234320 -0.237980 -0.045774 -0.117910 0.134660 0.388220 0.122430 -0.010260 -0.313360 -0.214760 -0.477250 0.017474 -0.400290 0.361080 -0.044049 -0.304610 -0.247810 0.553620 0.326960 0.139680 -0.113430 -0.900590 -0.508550 -0.006892 0.513000 -0.088618 0.197670 -0.303810 -0.617200 0.093114 -0.204070 0.204980 0.146630 0.003518 0.118340 -0.046927 0.256510 -0.181330 -0.093218 0.222000 -0.154650 0.417820 0.039668 -0.046095 -0.385960 -0.396210 0.197500 0.034297 -0.387080 -0.350410 -0.150120 -0.313780 0.641170 -0.651070 0.104130 0.344980 -0.611790 -0.115700 0.380410 0.275930 0.163670 0.042126 0.887870 0.688990 -0.130930 -0.434380 -0.369040 0.440530 -0.910880 -0.305740 -0.118370
!it_gusti -0.213940 0.130370 0.024454 -1.003600 -0.266400 0.788900 -0.684950 0.251930 -0.061112 -0.565310 0.257070 -0.383650 -0.082208 0.398210 0.050228 0.213410 0.693770 0.536920 -0.615280 -0.085249 -0.536180 -0.889930 -0.378970 -0.205490 0.643810 -0.401990 -0.036746 0.147630 0.459350 0.128210 0.545690 -0.208960 0.823170 0.483400 -0.758340 0.168220 -0.244630 0.147690 0.258030 -0.992450 -0.225590 0.339010 0.502770 0.398000 0.159400 -0.053420 -0.043275 -0.053506 0.249960 -0.398880 -0.023385 0.111220 0.093139 0.552640 -0.003093 -0.027842 0.138850 -0.046300 -0.366470 -0.157090 -0.247020 0.194870 -0.599530 0.134740 0.472000 0.042682 0.463200 -0.193770 0.562420 -0.228370 -0.233350 -0.011725 0.670790 0.424930 0.067078 -0.161770 -0.353480 0.168910 0.316440 -0.242040 0.023332 0.355630 0.614830 0.309850 0.313440 -0.067116 -0.353750 0.186110 -0.488370 -0.821920 0.354560 0.549710 0.304310 -0.004504 -0.491970 -0.231920 0.018794 0.377060 0.217130 0.115430
!it_image -0.227400 0.453910 0.380840 0.499830 -0.257490 0.740250 -0.546300 -0.311430 -0.073966 0.435010 0.233800 0.331320 0.559760 -1.161900 0.173840 -0.030565 -0.132130 0.197500 0.391430 0.539870 0.329890 -0.608560 0.669180 0.352100 0.459380 0.229090 0.132370 -0.151470 -0.059719 0.081929 -0.640020 -0.306490 -0.438330 -0.382930 -0.556290 0.336070 0.561780 -0.055349 0.109580 -0.156020 0.357230 0.314080 0.301030 -0.222570 0.148850 -0.210830 0.011438 0.314430 0.239290 0.277470 -0.099219 -0.011454 -0.821130 0.026427 -0.262600 0.320200 -0.146090 -0.651740 -0.739470 0.322550 -0.555940 0.513860 0.371230 -0.078828 -0.042873 -0.027490 -0.895010 0.057732 0.956920 -0.248330 -0.431590 -0.398560 0.043030 -0.638340 -0.712650 0.339230 -0.515690 0.593390 -0.450160 -0.403240 -0.720450 -0.285280 0.004137 0.598300 0.819160 -0.607160 -0.299610 0.318340 1.249100 0.277290 0.191900 0.738190 0.328750 -0.200770 -0.765670 0.352760 0.012476 0.030631 0.415980 -0.289960
!it_international 0.169040 0.284820 -0.149440 -0.123090 -0.124590 0.403390 0.081807 -0.286800 -0.447130 -0.450800 0.143890 -0.179050 0.171520 -0.664750 -0.091129 -0.039968 -0.009696 -0.580300 0.687410 -0.902220 -0.095927 -0.273780 -0.294910 0.023583 0.331560 -0.588030 -0.088417 -0.318010 -0.248540 0.453010 -0.212450 -0.234840 -0.267400 0.096384 -0.187390 0.351520 0.187840 -0.557750 0.342160 -0.533930 0.326390 0.307210 0.162740 -0.359500 0.114180 0.105450 0.387720 0.210040 0.070193 0.153920 -0.533210 0.067640 -0.081175 0.534990 -0.188660 0.192310 0.093908 -0.273300 -0.371830 0.323860 -0.038383 -0.058484 0.363020 0.484970 0.496090 -0.087070 -0.287590 0.022132 -0.833440 -0.171550 0.028809 0.400960 -0.357820 -0.063893 -0.430740 -0.218080 0.131380 0.245610 0.160890 -0.156820 -0.001766 -0.001855 0.122730 0.813840 0.385440 -0.389630 0.075821 0.046383 0.148900 0.420390 -0.071213 0.347530 -0.388150 0.368080 -0.009643 0.157350 0.048277 -0.126440 -0.091401 0.145810
!it_history 0.117860 0.424040 0.170960 -0.314970 -0.068901 0.391310 -1.138500 -0.178890 0.232880 -0.357680 0.501280 0.210530 0.207260 -0.277090 0.423920 -0.373020 0.459320 0.170780 0.644040 -0.453190 -0.414910 0.110540 0.148860 0.344500 0.518860 -0.745880 0.034782 -0.088567 0.181070 0.287630 0.123290 0.193870 -0.698930 -0.365630 -0.585160 0.709450 0.440570 -0.779860 0.056699 -0.083994 -0.321900 -0.183170 0.625210 -0.199930 0.310940 -0.399880 0.317130 0.553090 0.552550 0.171230 -0.233270 -0.225950 0.423560 0.126210 -0.515280 -0.588070 0.523760 0.418080 -0.040216 0.255060 0.117470 0.052102 0.742020 -0.541200 0.143480 -0.170700 -0.112830 0.355670 0.065520 -0.377900 0.440930 -0.042628 0.163890 -0.313960 0.045540 -0.039496 -0.026894 0.545110 -0.567760 -0.485150 -0.378440 -0.656100 -0.058058 0.554780 0.418570 -0.136220 -0.296440 0.775430 0.945790 0.305660 -0.272890 0.152410 -0.137570 -0.245800 -0.213100 -0.035097 -0.119870 0.255170 -0.389590 0.192000
!it_can -0.217820 0.953590 0.244260 0.093707 -0.434370 1.569300 -0.468300 0.029283 -0.615290 0.254250 0.332020 0.574790 0.067473 -0.780430 -0.457760 -0.306590 -0.136130 0.272920 0.589520 -0.048513 -0.081886 -0.663100 0.545380 0.457150 0.677100 -0.965610 -0.115470 -0.156880 -0.088554 0.515350 0.021074 -0.190820 -0.211000 -0.305980 0.077070 0.279590 0.611900 -0.374750 -0.559730 -0.154490 -0.257670 0.505340 0.364760 -0.742180 -0.000718 -0.153220 0.197480 -0.111190 -0.941350 -0.058578 -0.274400 0.328190 -0.489660 0.413150 -0.387600 -0.153890 0.310130 0.136100 -0.882910 0.139160 -0.196870 0.588530 0.697300 -0.348320 -0.249000 0.357130 -0.170930 -0.153630 -0.200150 -0.522130 0.382910 0.167640 0.216150 -0.796130 -0.044588 -0.060465 -0.582520 0.161330 0.021381 0.107240 -1.029500 -0.650030 0.095642 0.656600 0.669750 -0.927200 0.439460 0.124280 0.750090 0.026979 -0.444410 0.345730 0.008294 -0.813370 -0.329030 0.543460 -0.191440 0.153040 0.137290 0.307870
!it_best 0.175850 0.436480 0.431000 -0.642440 -0.221500 1.287600 -0.338970 0.234620 -0.254710 0.225290 0.362950 0.444300 -0.111810 -1.281600 -0.071748 0.061177 0.862090 -0.200070 0.174370 -0.735340 0.064624 -0.222860 0.065151 -0.562090 0.665780 -0.079079 -0.420450 0.003231 -0.100970 -0.001293 -0.676090 -0.217980 0.140760 0.042836 0.368680 0.391810 0.316310 -0.494270 0.089340 0.385950 0.145400 0.431300 0.586390 -0.411540 -0.517740 -0.428680 0.283210 -0.084913 0.292530 1.281900 0.082612 -0.090343 -0.406450 -0.168630 1.004800 -0.865330 0.541530 -0.019451 -0.531850 0.377210 -0.344670 0.253410 0.746970 -0.105590 0.757210 0.040309 -0.240730 -0.288980 0.094296 -0.500730 0.084859 -0.065165 0.332810 -0.135630 -0.898160 -0.046420 -0.212390 -0.000748 0.751400 -0.081891 -1.048500 -0.294740 -0.090291 0.549930 0.271450 0.072229 -0.048793 0.465490 -0.511810 0.319280 0.307510 0.358080 -0.075408 -1.222900 -0.620730 0.449750 0.349900 -0.440240 -0.082856 0.270370
!it_nate 0.442600 0.166860 -0.022831 -0.272980 -0.182890 0.376640 -0.032845 -0.796450 -0.585040 0.211330 0.297530 0.171210 0.330230 0.084736 0.586550 -0.038687 0.306430 -0.179120 -0.276560 0.167070 -0.130120 0.018752 0.548450 -0.065023 0.792710 -0.111470 0.052476 0.088548 0.027605 0.609290 0.063430 -0.311210 -0.033537 -0.183620 0.378200 0.055540 -0.211320 -0.241610 -0.268970 -0.255000 -0.161570 -0.499420 0.491820 0.010730 -0.186710 -0.136290 0.245780 -0.032822 -0.217320 -0.101290 -0.057694 -0.116900 -0.218460 0.587840 0.478560 0.413360 0.157670 -0.286960 0.322250 0.268440 -0.031477 0.123610 -0.187080 0.232040 0.153660 -0.139150 -0.018803 0.373290 -0.367730 -0.189880 0.286420 0.073661 0.219090 0.457920 -0.148920 0.363510 0.146000 0.244610 -0.313650 -0.545080 -0.264840 0.495020 -0.088325 0.116000 -0.195000 -0.064407 -0.015008 0.101350 0.068748 0.206130 0.472170 0.212550 0.311310 -0.131970 -0.273630 -0.306480 -0.419290 -0.248290 -0.090897 -0.169260
!it_media -0.129210 0.543580 0.260470 -0.112910 -0.333600 0.884170 -0.477420 0.216530 -0.761330 0.141200 0.833790 -0.129410 0.124850 -0.484250 0.844680 -0.299150 0.268520 -0.325250 0.654400 0.121460 -0.427860 0.099684 0.085598 0.154330 -0.052570 -0.289850 0.193070 -0.218400 -0.403670 0.013103 0.610830 0.240420 -0.093730 -0.248060 0.082830 0.038344 0.187860 -0.454460 0.674690 0.336900 0.314500 -0.043833 0.708690 0.060081 0.050379 0.397100 0.189840 -0.306210 0.231860 0.114210 0.102390 0.132920 -0.118130 -0.328840 -0.282450 0.199560 -0.355710 -0.536750 -0.086325 -0.070056 -0.313920 0.358460 -0.077175 -0.088844 0.009076 0.243860 -0.573150 0.263160 0.284890 -0.075784 -0.108120 0.134260 0.215620 0.356060 -0.567470 0.029429 -0.202280 -0.070905 -0.382880 -0.286930 0.255230 0.242360 0.183980 0.307790 0.259200 -0.088446 0.260310 -0.036873 -0.401060 0.352230 0.250850 0.443100 -0.791560 0.105550 -0.261590 -0.150830 -0.107540 -0.311450 -0.564100 0.187310
!it_york -0.239170 0.449450 0.095208 -0.250820 0.238750 -0.216660 -0.271560 0.029906 -0.318630 -0.193260 0.369500 -0.368670 0.141020 -0.502260 -0.058914 -0.374770 0.228820 -0.420220 0.060983 -0.932130 -0.273090 0.041030 -0.075780 0.631320 0.947980 -0.940680 -0.573760 0.033945 0.195210 0.404990 -0.013122 0.574250 -0.462130 -0.430940 -0.084739 -0.865410 -0.437660 -0.099572 -0.012962 -0.613020 -0.206480 0.503300 0.424560 -0.313270 -0.111390 -0.488890 0.756360 -0.330000 0.232550 0.447970 -0.208460 -0.191250 0.346710 -0.073048 -0.203460 -0.023454 0.039012 -0.085013 -0.632950 0.005307 -0.130970 -0.062426 0.213750 -0.265720 0.307740 0.071748 0.175140 0.006204 -0.063055 -0.436500 0.068122 -0.216340 0.475690 -0.134730 -0.436860 -0.516910 -0.407860 -0.298590 -0.575450 -0.250670 -0.103580 -0.794570 -0.110100 0.472640 0.066064 0.222540 -0.329030 -0.298060 -0.083082 0.323430 0.208320 0.365540 0.307340 -0.050105 -0.385430 0.204050 0.106670 -0.458730 -0.034767 -0.170430
!it_sri -0.052844 0.092647 0.151850 -0.772940 -0.237780 0.007218 -0.063122 0.127760 -0.495470 -0.665480 0.330000 0.389720 -0.775260 0.571070 0.196240 0.078781 0.570530 -0.147530 0.395790 -0.335090 -0.072524 -0.629050 0.520180 0.342440 0.524840 -0.397600 0.212010 -0.043834 0.633270 0.067489 0.196950 0.378560 1.038100 0.146830 -0.228490 -0.172420 0.288050 -0.142010 -0.307220 -0.209000 0.013815 -0.185910 0.070300 -0.660400 0.167550 0.420270 0.018165 0.238760 -0.360730 -0.234870 -0.489450 0.136920 0.149740 0.874160 -0.373040 -0.276910 0.141640 -0.420180 -0.149840 0.116060 -0.202890 0.766140 -0.355510 0.612130 0.042164 -0.170980 0.106500 0.221950 -0.157490 -0.303270 0.208350 0.040946 0.244050 -0.062588 -0.043185 0.483720 -0.488300 0.139350 0.189000 0.167670 -0.136000 0.625770 0.223830 0.586790 0.181240 0.536080 -0.436600 0.094883 0.173220 0.540660 -0.375680 0.209300 0.386350 0.375010 0.055229 -0.447880 0.049636 0.018207 -0.117560 -0.051231
!it_san 0.194590 0.893490 -0.391010 -0.617290 -0.543130 -0.057604 0.354040 0.296530 -0.424060 -0.135230 0.513540 -0.479310 0.541260 0.104090 -0.270370 0.127870 0.080371 -0.676080 0.015656 -0.215760 0.251060 -0.556250 0.313960 0.248600 0.565340 -0.766630 -0.443800 -0.155380 -0.003825 -0.097533 0.129850 -0.019532 -0.254340 0.013228 0.356240 0.035518 0.012289 -0.260650 -0.518580 -0.586340 0.282350 0.240280 0.643310 -0.654650 0.088995 0.049279 0.432790 0.084241 -0.464730 0.038904 0.127590 -0.139790 -0.449610 0.204980 0.250930 -0.234470 0.318150 -0.125160 -0.691960 0.054313 0.009499 -0.335300 -0.244330 -0.080119 -0.233880 0.283600 -0.669790 -0.387020 0.326950 -0.780780 -0.431830 0.335290 0.064961 0.572970 0.149340 0.744980 -0.018871 0.080872 -0.093957 -0.102200 -0.543610 -0.469540 -0.396010 -0.057356 0.990950 -0.208260 -0.598930 0.386250 0.713650 0.754780 0.155270 0.212200 0.692620 -0.061291 -0.197870 0.536640 0.512910 -0.237810 -0.068873 -0.509730
!it_museum 0.487600 0.301880 -0.021162 -0.186910 -0.425330 0.284270 -0.575880 -0.361930 -0.002541 -0.159030 -0.236720 0.606030 0.034672 -0.136860 0.755770 -0.083871 0.258190 -0.053411 0.410780 -0.292390 -0.035406 0.368100 0.071181 0.085282 0.836660 -0.389600 -0.323280 0.218570 0.598570 0.285530 0.136950 0.417630 -0.413680 -0.376790 -0.707770 0.413210 -0.443340 0.182500 0.111630 -0.299990 0.607910 -0.076076 0.321500 -0.306630 -0.342460 -0.376920 -0.316490 -0.024950 -0.092908 0.382890 -0.667470 -0.372010 -0.347280 -0.046396 -0.427750 -0.137290 0.100280 0.596900 -0.100690 0.246500 -0.255430 0.349870 -0.238480 -0.688730 0.327970 0.301650 -0.550160 -0.121670 0.010450 0.610080 0.319310 -0.271530 -0.025271 0.193000 -0.322920 0.073004 -0.441720 0.683840 -0.949890 -0.556820 -0.460860 -0.455200 0.377450 0.100430 0.780130 0.368980 -0.495600 -0.018872 0.633190 0.199350 -0.117930 0.942310 0.049115 0.386000 -0.012668 -0.472510 -0.002633 -0.050674 -0.403340 0.020498
!it_t -0.154240 0.307630 0.042655 0.192780 -0.551130 0.104440 -0.579900 0.435130 -0.165860 0.124100 0.614860 -0.021960 -0.003809 -0.673940 0.096243 -0.149880 0.299940 0.142920 0.466300 -0.504650 0.502710 0.032515 0.225590 0.372130 -0.448390 -1.225100 0.080961 -0.084340 0.482780 0.280590 0.152310 -0.046325 0.403140 0.169520 0.270080 0.144390 0.526320 -0.550230 0.982830 0.100490 -0.391630 0.316300 0.434480 -0.961640 -0.475440 0.064179 -0.035793 -0.619760 -0.126110 -0.518440 -0.095142 -0.251330 -0.072000 -0.060331 -0.540910 -0.279810 0.334070 0.268160 -0.162810 0.130410 -0.393390 0.159230 0.865410 -0.408490 0.053861 0.046221 -0.075696 0.299020 0.399700 -0.068596 -0.311070 -0.108790 0.241010 0.350870 -0.035244 -0.054374 -0.241870 -0.100700 -0.210690 0.297590 0.185080 -0.133920 0.353360 -0.027007 0.582500 -0.477310 -0.157920 -0.144410 0.482080 -0.083418 -0.096428 0.248080 0.338700 0.017606 0.115900 0.633370 -0.426170 -0.267230 -0.178040 -0.267260
!it_iii 0.529790 -0.102760 0.055574 0.137050 0.046014 -0.170330 -0.443340 0.113870 -0.198130 -0.285480 0.440730 0.418110 -0.280950 -0.377490 0.131960 0.378020 0.457940 -0.393720 -0.025521 -0.001590 -0.238310 -0.186110 0.495210 0.169860 0.197490 -0.403920 -0.167820 0.592000 0.662150 -0.192570 0.007499 -0.151420 0.239440 0.347660 -0.288630 0.331980 0.133860 -0.158050 0.305490 -0.279480 0.539600 -0.057706 0.252590 0.238710 0.695650 0.315590 0.758640 -0.080298 -0.604880 -0.149370 -0.667470 -0.234600 0.401150 0.721200 0.380660 0.064849 0.344950 0.253650 -0.662420 -0.007098 -0.402430 0.546410 -0.645260 0.041113 0.710510 -0.158700 -0.475310 -0.090325 -0.157470 0.213170 0.136420 0.086439 -0.011946 -0.257670 -0.255160 -0.510770 0.215080 0.509280 0.210510 -0.008935 -0.252550 0.402210 0.550090 0.414610 0.067650 0.229970 -0.123620 0.478350 0.082748 -0.368640 0.474210 0.026247 0.181730 0.077798 -0.505710 0.015758 0.018095 0.419340 0.242610 -0.374780
